svm_type c_svc
kernel_type rbf
gamma 1.41421
nr_class 2
total_sv 838
rho 0.00701152
label 1 -1
nr_sv 383 455
SV
0.3618101102141613 1:0.059489831 3:0.089234747 7:0.029744916 13:0.029744916 14:0.074362289 16:0.014872458 17:0.014872458 20:0.044617374 21:0.074362289 22:0.029744916 27:0.044617374 30:0.029744916 33:0.044617374 36:0.059489831 37:0.014872458 40:0.059489831 41:0.014872458 43:0.014872458 46:0.029744916 51:0.029744916 54:0.089234747 58:0.20821441 59:0.029744916 60:0.014872458 61:0.014872458 64:0.014872458 66:0.014872458 67:0.044617374 68:0.029744916 69:0.014872458 73:0.014872458 75:0.014872458 77:0.044617374 79:0.014872458 80:0.089234747 81:0.20821441 83:0.044617374 88:0.014872458 90:0.044617374 92:0.014872458 97:0.014872458 100:0.014872458 103:0.1041072 110:0.014872458 112:0.014872458 113:0.089234747 118:0.014872458 119:0.014872458 121:0.014872458 122:0.044617374 123:0.029744916 124:0.014872458 129:0.029744916 138:0.029744916 142:0.014872458 148:0.014872458 150:0.014872458 156:0.059489831 167:0.029744916 177:0.044617374 179:0.014872458 184:0.029744916 185:0.044617374 200:0.014872458 202:0.029744916 204:0.014872458 206:0.11897966 210:0.014872458 217:0.014872458 218:0.014872458 222:0.029744916 230:0.044617374 239:0.014872458 241:0.014872458 244:0.014872458 246:0.029744916 256:0.014872458 261:0.014872458 262:0.014872458 263:0.014872458 270:0.014872458 273:0.059489831 281:0.014872458 282:0.029744916 283:0.014872458 291:0.029744916 295:0.014872458 299:0.044617374 305:0.044617374 318:0.014872458 329:0.059489831 332:0.029744916 335:0.014872458 338:0.029744916 348:0.014872458 353:0.029744916 354:0.014872458 356:0.029744916 363:0.16359704 364:0.029744916 377:0.059489831 390:0.014872458 397:0.014872458 400:0.029744916 403:0.044617374 404:0.014872458 411:0.014872458 412:0.014872458 416:0.014872458 417:0.014872458 442:0.43130128 445:0.029744916 449:0.014872458 450:0.029744916 454:0.014872458 456:0.014872458 460:0.014872458 468:0.014872458 472:0.014872458 477:0.014872458 480:0.059489831 484:0.029744916 487:0.014872458 488:0.029744916 491:0.014872458 492:0.014872458 497:0.044617374 500:0.044617374 516:0.11897966 519:0.014872458 528:0.029744916 534:0.014872458 537:0.029744916 538:0.029744916 552:0.014872458 554:0.014872458 560:0.014872458 574:0.044617374 578:0.059489831 580:0.014872458 584:0.014872458 586:0.014872458 589:0.059489831 591:0.014872458 592:0.014872458 616:0.014872458 637:0.014872458 638:0.014872458 645:0.059489831 667:0.014872458 668:0.014872458 677:0.044617374 710:0.014872458 711:0.014872458 728:0.014872458 732:0.029744916 733:0.014872458 738:0.014872458 740:0.014872458 746:0.014872458 749:0.044617374 753:0.014872458 760:0.014872458 778:0.029744916 784:0.029744916 790:0.044617374 804:0.014872458 805:0.014872458 812:0.044617374 816:0.044617374 817:0.089234747 820:0.029744916 825:0.014872458 838:0.014872458 846:0.014872458 857:0.3866839 865:0.044617374 866:0.059489831 879:0.029744916 883:0.26770424 887:0.059489831 900:0.014872458 910:0.014872458 917:0.014872458 944:0.014872458 945:0.014872458 947:0.029744916 950:0.014872458 967:0.059489831 968:0.029744916 973:0.014872458 991:0.044617374 999:0.014872458 1007:0.044617374 1017:0.3866839 1028:0.014872458 1041:0.044617374 1048:0.014872458 1054:0.059489831 1066:0.17846949 1072:0.014872458 1074:0.029744916 1114:0.029744916 1118:0.029744916 1138:0.044617374 1150:0.029744916 1153:0.029744916 1160:0.014872458 1171:0.014872458 1172:0.029744916 1182:0.014872458 1196:0.014872458 1197:0.014872458 1210:0.014872458 1229:0.014872458 1232:0.014872458 1242:0.059489831 1250:0.014872458 1251:0.029744916 1265:0.014872458 1271:0.014872458 1293:0.014872458 1303:0.014872458 1332:0.014872458 1337:0.014872458 1361:0.014872458 1362:0.014872458 1380:0.029744916 1401:0.014872458 1410:0.014872458 1411:0.044617374 1447:0.014872458 1462:0.029744916 1466:0.014872458 1483:0.044617374 1487:0.029744916 1495:0.014872458 1506:0.014872458 1507:0.029744916 1509:0.014872458 1534:0.044617374 1536:0.014872458 1540:0.014872458 1548:0.014872458 1551:0.014872458 1552:0.014872458 1562:0.014872458 1575:0.059489831 1576:0.014872458 1578:0.014872458 1579:0.014872458 1585:0.014872458 1660:0.014872458 1671:0.014872458 1702:0.044617374 1709:0.014872458 1713:0.044617374 1729:0.014872458 1731:0.014872458 1755:0.014872458 1792:0.029744916 1799:0.014872458 1800:0.014872458 1824:0.014872458 1875:0.044617374 1882:0.014872458 1896:0.014872458 1918:0.029744916 1922:0.014872458 1925:0.014872458 1941:0.029744916 1956:0.044617374 1959:0.014872458 1961:0.014872458 1993:0.014872458 
0.3313570759493549 1:0.054232614 3:0.054232614 28:0.21693046 31:0.054232614 42:0.21693046 44:0.054232614 46:0.16269784 52:0.16269784 59:0.054232614 67:0.054232614 78:0.054232614 81:0.054232614 98:0.65079137 116:0.10846523 117:0.10846523 122:0.054232614 123:0.054232614 142:0.054232614 161:0.054232614 177:0.054232614 184:0.054232614 190:0.10846523 199:0.054232614 214:0.054232614 228:0.10846523 326:0.054232614 353:0.054232614 356:0.054232614 363:0.054232614 365:0.054232614 374:0.054232614 413:0.054232614 468:0.054232614 492:0.054232614 499:0.054232614 519:0.054232614 537:0.054232614 539:0.10846523 629:0.054232614 647:0.16269784 648:0.10846523 719:0.054232614 721:0.054232614 728:0.10846523 735:0.054232614 749:0.054232614 777:0.054232614 816:0.054232614 825:0.054232614 1029:0.054232614 1050:0.054232614 1077:0.054232614 1106:0.054232614 1143:0.054232614 1146:0.054232614 1210:0.054232614 1215:0.054232614 1230:0.054232614 1251:0.10846523 1312:0.054232614 1485:0.21693046 1502:0.054232614 1552:0.32539569 1561:0.054232614 1687:0.054232614 1755:0.054232614 1940:0.054232614 1953:0.054232614 2003:0.054232614 
0.4178711132798792 3:0.070490738 7:0.21147221 13:0.035245369 20:0.070490738 27:0.035245369 36:0.035245369 54:0.10573611 67:0.10573611 68:0.10573611 77:0.10573611 83:0.035245369 90:0.035245369 92:0.070490738 103:0.035245369 111:0.070490738 113:0.035245369 117:0.035245369 119:0.10573611 120:0.035245369 142:0.035245369 147:0.21147221 148:0.070490738 170:0.070490738 172:0.035245369 177:0.035245369 185:0.035245369 190:0.035245369 191:0.035245369 203:0.10573611 206:0.14098148 209:0.59917127 219:0.035245369 220:0.035245369 222:0.035245369 230:0.14098148 237:0.14098148 239:0.070490738 258:0.10573611 273:0.035245369 282:0.035245369 299:0.070490738 307:0.14098148 356:0.035245369 360:0.035245369 363:0.10573611 400:0.035245369 403:0.035245369 413:0.035245369 444:0.035245369 446:0.035245369 460:0.035245369 483:0.035245369 485:0.035245369 499:0.035245369 501:0.035245369 528:0.035245369 529:0.070490738 533:0.035245369 538:0.035245369 549:0.10573611 574:0.070490738 578:0.17622684 617:0.035245369 660:0.035245369 677:0.10573611 696:0.035245369 719:0.035245369 752:0.035245369 777:0.10573611 785:0.070490738 807:0.035245369 808:0.070490738 864:0.070490738 890:0.10573611 917:0.10573611 929:0.035245369 939:0.070490738 944:0.035245369 947:0.035245369 1006:0.070490738 1029:0.035245369 1107:0.10573611 1139:0.070490738 1202:0.035245369 1223:0.070490738 1287:0.035245369 1324:0.035245369 1337:0.35245369 1380:0.035245369 1393:0.035245369 1428:0.035245369 1463:0.035245369 1487:0.035245369 1540:0.035245369 1576:0.035245369 1611:0.035245369 1655:0.035245369 1923:0.035245369 1936:0.035245369 1942:0.035245369 2000:0.035245369 
0.3800905191454808 3:0.31884126 4:0.045548752 7:0.091097504 13:0.091097504 20:0.045548752 21:0.045548752 37:0.091097504 41:0.045548752 45:0.13664626 46:0.045548752 47:0.13664626 57:0.045548752 59:0.045548752 61:0.045548752 63:0.045548752 64:0.045548752 67:0.13664626 73:0.045548752 83:0.091097504 90:0.045548752 92:0.045548752 94:0.045548752 109:0.045548752 111:0.045548752 120:0.13664626 122:0.091097504 123:0.091097504 129:0.045548752 142:0.091097504 151:0.045548752 167:0.045548752 169:0.045548752 177:0.045548752 185:0.13664626 187:0.091097504 202:0.091097504 219:0.091097504 222:0.091097504 228:0.045548752 242:0.13664626 248:0.13664626 254:0.045548752 273:0.045548752 283:0.045548752 295:0.045548752 297:0.045548752 307:0.045548752 325:0.045548752 337:0.045548752 345:0.13664626 368:0.045548752 374:0.045548752 392:0.045548752 396:0.045548752 397:0.045548752 412:0.045548752 445:0.091097504 450:0.13664626 467:0.045548752 468:0.045548752 492:0.13664626 495:0.045548752 500:0.13664626 504:0.045548752 524:0.045548752 539:0.091097504 553:0.045548752 610:0.045548752 644:0.091097504 670:0.045548752 671:0.091097504 701:0.045548752 716:0.045548752 735:0.091097504 757:0.091097504 796:0.091097504 812:0.045548752 821:0.045548752 826:0.045548752 847:0.045548752 881:0.59213377 967:0.091097504 1025:0.045548752 1041:0.091097504 1147:0.13664626 1152:0.045548752 1312:0.045548752 1365:0.045548752 1380:0.045548752 1446:0.045548752 1487:0.045548752 1528:0.045548752 1556:0.045548752 1576:0.091097504 1585:0.045548752 1612:0.045548752 1657:0.045548752 1672:0.091097504 1683:0.045548752 1704:0.045548752 1747:0.045548752 1797:0.045548752 1862:0.045548752 1878:0.045548752 
0.09072340725470485 2:0.13942182 4:0.65063518 12:0.13942182 13:0.046473941 16:0.046473941 17:0.046473941 27:0.092947882 31:0.37179153 34:0.092947882 60:0.092947882 63:0.18589576 64:0.23236971 70:0.046473941 72:0.092947882 73:0.23236971 77:0.046473941 82:0.046473941 86:0.046473941 87:0.046473941 96:0.092947882 101:0.092947882 102:0.092947882 109:0.046473941 117:0.046473941 142:0.046473941 153:0.046473941 170:0.046473941 174:0.046473941 179:0.046473941 205:0.046473941 210:0.046473941 216:0.046473941 224:0.046473941 230:0.046473941 233:0.046473941 234:0.046473941 237:0.046473941 249:0.046473941 250:0.046473941 251:0.046473941 252:0.046473941 257:0.046473941 259:0.046473941 264:0.046473941 267:0.046473941 274:0.046473941 279:0.046473941 303:0.046473941 348:0.046473941 386:0.046473941 583:0.13942182 627:0.13942182 688:0.092947882 819:0.13942182 821:0.092947882 871:0.092947882 998:0.092947882 1031:0.092947882 1234:0.046473941 1248:0.092947882 1307:0.046473941 1443:0.046473941 1576:0.046473941 
0.0471778041180447 1:0.041504854 3:0.041504854 4:0.12451456 7:0.083009708 13:0.083009708 20:0.14526699 21:0.18677184 33:0.020752427 36:0.20752427 43:0.12451456 46:0.020752427 47:0.12451456 54:0.18677184 55:0.041504854 58:0.020752427 60:0.020752427 62:0.020752427 63:0.041504854 67:0.16601942 68:0.020752427 74:0.083009708 77:0.041504854 80:0.041504854 82:0.12451456 83:0.020752427 85:0.041504854 87:0.041504854 90:0.062257281 97:0.041504854 103:0.14526699 109:0.020752427 113:0.083009708 118:0.020752427 119:0.020752427 122:0.020752427 123:0.041504854 129:0.020752427 131:0.062257281 137:0.041504854 138:0.041504854 140:0.020752427 141:0.062257281 142:0.020752427 147:0.041504854 148:0.020752427 153:0.020752427 155:0.041504854 159:0.083009708 161:0.020752427 167:0.041504854 169:0.12451456 172:0.10376213 185:0.041504854 186:0.020752427 190:0.062257281 191:0.062257281 198:0.020752427 202:0.020752427 204:0.10376213 208:0.041504854 210:0.020752427 211:0.020752427 214:0.020752427 220:0.020752427 222:0.041504854 228:0.083009708 230:0.020752427 239:0.041504854 241:0.083009708 253:0.020752427 261:0.020752427 277:0.020752427 280:0.020752427 282:0.041504854 283:0.062257281 297:0.041504854 299:0.062257281 303:0.020752427 305:0.041504854 306:0.020752427 315:0.020752427 329:0.041504854 332:0.062257281 338:0.12451456 345:0.020752427 348:0.020752427 349:0.020752427 350:0.041504854 353:0.020752427 354:0.041504854 356:0.020752427 363:0.020752427 366:0.020752427 367:0.083009708 369:0.12451456 370:0.020752427 379:0.020752427 400:0.020752427 403:0.020752427 404:0.020752427 412:0.062257281 413:0.020752427 414:0.062257281 427:0.020752427 431:0.020752427 435:0.020752427 445:0.020752427 453:0.020752427 456:0.041504854 458:0.020752427 463:0.020752427 467:0.083009708 468:0.041504854 469:0.041504854 475:0.020752427 480:0.020752427 483:0.041504854 491:0.083009708 492:0.041504854 494:0.083009708 496:0.14526699 497:0.020752427 498:0.020752427 500:0.16601942 528:0.041504854 529:0.12451456 533:0.083009708 534:0.020752427 536:0.020752427 537:0.020752427 538:0.083009708 541:0.020752427 547:0.020752427 548:0.041504854 549:0.20752427 552:0.041504854 559:0.020752427 574:0.062257281 578:0.083009708 580:0.020752427 584:0.041504854 586:0.083009708 587:0.020752427 610:0.041504854 616:0.020752427 617:0.041504854 619:0.020752427 641:0.020752427 666:0.020752427 667:0.062257281 669:0.020752427 680:0.020752427 693:0.020752427 703:0.020752427 706:0.020752427 707:0.020752427 716:0.083009708 718:0.020752427 719:0.020752427 727:0.041504854 735:0.020752427 746:0.020752427 749:0.041504854 751:0.041504854 752:0.041504854 756:0.041504854 763:0.020752427 765:0.10376213 769:0.062257281 784:0.041504854 796:0.020752427 812:0.020752427 816:0.020752427 825:0.020752427 834:0.020752427 837:0.020752427 847:0.062257281 852:0.16601942 857:0.020752427 858:0.020752427 864:0.041504854 866:0.041504854 881:0.020752427 884:0.041504854 893:0.020752427 926:0.020752427 930:0.041504854 941:0.020752427 970:0.083009708 989:0.062257281 994:0.020752427 1000:0.020752427 1006:0.020752427 1024:0.020752427 1025:0.020752427 1029:0.020752427 1031:0.020752427 1042:0.041504854 1050:0.041504854 1054:0.041504854 1055:0.020752427 1063:0.29053398 1081:0.020752427 1093:0.020752427 1100:0.083009708 1118:0.083009708 1125:0.020752427 1127:0.020752427 1129:0.020752427 1137:0.020752427 1143:0.041504854 1149:0.16601942 1153:0.020752427 1160:0.020752427 1164:0.12451456 1171:0.020752427 1180:0.041504854 1185:0.062257281 1186:0.020752427 1188:0.10376213 1200:0.020752427 1210:0.020752427 1212:0.020752427 1221:0.020752427 1223:0.020752427 1226:0.041504854 1230:0.041504854 1253:0.041504854 1257:0.041504854 1265:0.020752427 1304:0.020752427 1309:0.020752427 1336:0.020752427 1337:0.12451456 1340:0.020752427 1358:0.020752427 1362:0.020752427 1365:0.020752427 1393:0.020752427 1401:0.020752427 1406:0.020752427 1407:0.020752427 1409:0.020752427 1410:0.041504854 1433:0.020752427 1445:0.020752427 1446:0.020752427 1487:0.020752427 1489:0.041504854 1491:0.020752427 1495:0.020752427 1506:0.020752427 1507:0.020752427 1522:0.020752427 1532:0.020752427 1534:0.020752427 1548:0.041504854 1549:0.020752427 1576:0.020752427 1582:0.020752427 1626:0.020752427 1628:0.020752427 1659:0.020752427 1664:0.041504854 1678:0.020752427 1679:0.020752427 1704:0.020752427 1731:0.041504854 1741:0.020752427 1752:0.062257281 1760:0.041504854 1764:0.041504854 1769:0.062257281 1792:0.041504854 1803:0.020752427 1830:0.020752427 1840:0.062257281 1849:0.062257281 1853:0.020752427 1876:0.020752427 1879:0.020752427 1880:0.020752427 1884:0.020752427 1926:0.020752427 1937:0.020752427 1939:0.020752427 1951:0.041504854 1966:0.020752427 1973:0.020752427 2004:0.020752427 
0.05416043373573418 1:0.039223227 2:0.11766968 3:0.15689291 6:0.039223227 13:0.15689291 16:0.039223227 17:0.039223227 19:0.039223227 21:0.078446454 27:0.078446454 28:0.078446454 31:0.078446454 34:0.078446454 36:0.039223227 37:0.078446454 42:0.039223227 43:0.078446454 46:0.039223227 47:0.078446454 52:0.078446454 54:0.039223227 55:0.078446454 57:0.039223227 59:0.039223227 61:0.039223227 63:0.039223227 67:0.039223227 72:0.078446454 77:0.039223227 81:0.15689291 83:0.039223227 86:0.039223227 87:0.039223227 88:0.19611614 90:0.15689291 92:0.039223227 101:0.078446454 102:0.078446454 109:0.039223227 116:0.11766968 117:0.039223227 119:0.078446454 120:0.078446454 131:0.039223227 138:0.039223227 142:0.039223227 153:0.039223227 159:0.039223227 169:0.039223227 170:0.039223227 174:0.039223227 179:0.039223227 186:0.078446454 187:0.039223227 191:0.039223227 207:0.039223227 210:0.039223227 211:0.039223227 216:0.039223227 221:0.039223227 224:0.039223227 230:0.039223227 233:0.039223227 234:0.039223227 237:0.039223227 246:0.039223227 249:0.039223227 250:0.039223227 251:0.039223227 252:0.039223227 257:0.039223227 259:0.039223227 262:0.039223227 263:0.078446454 264:0.039223227 265:0.039223227 266:0.039223227 267:0.039223227 274:0.039223227 279:0.039223227 283:0.039223227 285:0.078446454 303:0.078446454 305:0.039223227 315:0.039223227 326:0.039223227 338:0.078446454 353:0.039223227 356:0.039223227 359:0.078446454 360:0.078446454 368:0.078446454 374:0.039223227 386:0.039223227 396:0.039223227 403:0.039223227 412:0.039223227 413:0.039223227 414:0.078446454 415:0.039223227 448:0.039223227 456:0.19611614 460:0.078446454 466:0.039223227 473:0.039223227 475:0.039223227 482:0.078446454 492:0.078446454 500:0.039223227 516:0.078446454 526:0.078446454 538:0.039223227 542:0.039223227 547:0.039223227 550:0.039223227 572:0.039223227 583:0.039223227 584:0.078446454 591:0.11766968 601:0.078446454 613:0.50990195 622:0.039223227 638:0.039223227 649:0.039223227 660:0.039223227 668:0.078446454 670:0.039223227 677:0.039223227 693:0.039223227 713:0.078446454 716:0.078446454 733:0.039223227 756:0.039223227 760:0.11766968 764:0.039223227 781:0.039223227 784:0.078446454 805:0.078446454 818:0.039223227 825:0.078446454 836:0.039223227 855:0.039223227 864:0.039223227 904:0.039223227 911:0.039223227 915:0.039223227 927:0.039223227 944:0.039223227 973:0.11766968 1023:0.039223227 1055:0.039223227 1060:0.078446454 1062:0.039223227 1063:0.039223227 1066:0.039223227 1074:0.039223227 1103:0.039223227 1180:0.039223227 1224:0.039223227 1238:0.078446454 1242:0.039223227 1341:0.039223227 1348:0.15689291 1362:0.039223227 1408:0.039223227 1409:0.039223227 1447:0.078446454 1467:0.039223227 1468:0.039223227 1469:0.039223227 1489:0.039223227 1549:0.11766968 1551:0.039223227 1556:0.039223227 1564:0.039223227 1605:0.078446454 1680:0.039223227 1747:0.039223227 1758:0.039223227 1863:0.039223227 1888:0.039223227 1906:0.039223227 1927:0.039223227 1940:0.078446454 1946:0.039223227 
0.5305896300081667 7:0.065094455 36:0.065094455 37:0.065094455 45:0.19528337 59:0.065094455 60:0.26037782 88:0.65094455 90:0.065094455 110:0.13018891 112:0.13018891 118:0.065094455 121:0.065094455 129:0.065094455 159:0.13018891 175:0.13018891 177:0.13018891 273:0.13018891 282:0.065094455 345:0.065094455 354:0.13018891 397:0.065094455 403:0.13018891 409:0.065094455 423:0.065094455 430:0.065094455 485:0.065094455 495:0.065094455 497:0.065094455 537:0.065094455 553:0.19528337 604:0.065094455 666:0.13018891 758:0.13018891 807:0.065094455 872:0.13018891 878:0.065094455 879:0.065094455 883:0.26037782 1016:0.065094455 1072:0.13018891 1115:0.065094455 1143:0.065094455 1223:0.065094455 1307:0.065094455 1463:0.065094455 1549:0.065094455 1556:0.065094455 1636:0.13018891 1751:0.13018891 
0.07666370850018263 2:0.096113866 3:0.1441708 4:0.048056933 7:0.19222773 12:0.33639853 19:0.38445547 29:0.19222773 30:0.096113866 36:0.048056933 37:0.048056933 46:0.048056933 47:0.048056933 50:0.1441708 63:0.096113866 71:0.048056933 78:0.048056933 87:0.048056933 88:0.096113866 94:0.048056933 107:0.048056933 111:0.096113866 119:0.048056933 121:0.048056933 123:0.048056933 131:0.048056933 133:0.096113866 155:0.096113866 161:0.048056933 172:0.048056933 174:0.048056933 186:0.2883416 193:0.096113866 200:0.048056933 232:0.048056933 242:0.048056933 248:0.1441708 254:0.048056933 261:0.048056933 282:0.1441708 290:0.048056933 306:0.1441708 335:0.19222773 403:0.096113866 404:0.048056933 414:0.048056933 424:0.096113866 428:0.048056933 446:0.048056933 448:0.048056933 466:0.048056933 486:0.1441708 496:0.048056933 517:0.048056933 524:0.048056933 544:0.24028467 546:0.048056933 587:0.048056933 591:0.048056933 701:0.048056933 714:0.048056933 722:0.048056933 733:0.048056933 778:0.048056933 784:0.048056933 814:0.048056933 827:0.19222773 872:0.048056933 884:0.048056933 887:0.096113866 893:0.048056933 983:0.048056933 1063:0.24028467 1130:0.048056933 1144:0.048056933 1292:0.1441708 1332:0.048056933 1351:0.048056933 1456:0.048056933 1508:0.096113866 1543:0.048056933 1586:0.048056933 1674:0.096113866 1707:0.048056933 1937:0.048056933 
0.4807707522496013 3:0.043852901 13:0.043852901 14:0.087705802 19:0.043852901 21:0.1315587 36:0.043852901 43:0.087705802 46:0.087705802 57:0.087705802 64:0.043852901 68:0.043852901 73:0.043852901 77:0.043852901 82:0.1754116 83:0.043852901 85:0.087705802 91:0.043852901 92:0.087705802 100:0.087705802 103:0.043852901 110:0.043852901 113:0.087705802 118:0.1754116 122:0.043852901 138:0.1315587 159:0.043852901 169:0.043852901 177:0.043852901 185:0.087705802 186:0.043852901 208:0.087705802 209:0.043852901 219:0.043852901 222:0.043852901 230:0.087705802 239:0.1315587 241:0.087705802 248:0.043852901 258:0.26311741 273:0.043852901 282:0.087705802 305:0.043852901 326:0.043852901 348:0.043852901 361:0.043852901 363:0.043852901 367:0.1754116 374:0.043852901 395:0.043852901 397:0.043852901 404:0.043852901 405:0.043852901 414:0.043852901 430:0.043852901 448:0.043852901 472:0.043852901 524:0.043852901 528:0.1315587 538:0.087705802 549:0.043852901 560:0.087705802 578:0.1315587 580:0.1315587 617:0.087705802 636:0.043852901 670:0.043852901 704:0.043852901 735:0.043852901 785:0.087705802 816:0.1315587 825:0.087705802 844:0.043852901 847:0.043852901 861:0.087705802 890:0.52623481 911:0.043852901 915:0.087705802 943:0.087705802 947:0.043852901 970:0.043852901 987:0.043852901 999:0.043852901 1000:0.043852901 1007:0.043852901 1049:0.043852901 1051:0.1754116 1061:0.043852901 1118:0.043852901 1168:0.043852901 1180:0.043852901 1185:0.043852901 1224:0.043852901 1332:0.043852901 1359:0.043852901 1362:0.043852901 1410:0.043852901 1441:0.2192645 1459:0.043852901 1468:0.043852901 1481:0.1315587 1530:0.043852901 1532:0.043852901 1604:0.043852901 1655:0.087705802 1709:0.043852901 1736:0.1754116 1817:0.043852901 1897:0.087705802 1993:0.043852901 2003:0.043852901 
0.01311247253943105 3:0.059105412 13:0.088658119 19:0.029552706 20:0.029552706 21:0.17731624 27:0.059105412 33:0.059105412 36:0.088658119 37:0.029552706 43:0.11821082 46:0.029552706 47:0.14776353 54:0.14776353 59:0.029552706 61:0.088658119 67:0.088658119 69:0.059105412 77:0.059105412 78:0.029552706 82:0.20686894 83:0.059105412 87:0.059105412 92:0.11821082 98:0.088658119 103:0.059105412 110:0.059105412 113:0.088658119 116:0.029552706 119:0.059105412 120:0.059105412 122:0.029552706 123:0.029552706 131:0.088658119 141:0.029552706 169:0.088658119 172:0.029552706 177:0.029552706 179:0.029552706 185:0.059105412 189:0.059105412 191:0.029552706 208:0.029552706 211:0.029552706 217:0.029552706 220:0.029552706 221:0.029552706 230:0.088658119 239:0.088658119 241:0.059105412 242:0.029552706 258:0.38418518 261:0.088658119 263:0.059105412 282:0.029552706 283:0.029552706 299:0.029552706 305:0.029552706 326:0.029552706 329:0.029552706 338:0.059105412 348:0.029552706 360:0.029552706 363:0.059105412 367:0.11821082 384:0.029552706 397:0.029552706 403:0.029552706 407:0.029552706 413:0.059105412 414:0.029552706 427:0.029552706 431:0.059105412 483:0.029552706 485:0.059105412 492:0.059105412 494:0.029552706 499:0.059105412 500:0.029552706 504:0.029552706 528:0.11821082 536:0.029552706 537:0.029552706 548:0.088658119 549:0.059105412 578:0.029552706 589:0.029552706 616:0.029552706 617:0.029552706 636:0.088658119 638:0.059105412 677:0.059105412 711:0.059105412 728:0.11821082 749:0.029552706 756:0.059105412 769:0.11821082 777:0.029552706 784:0.029552706 785:0.029552706 796:0.029552706 807:0.088658119 812:0.059105412 820:0.029552706 821:0.029552706 825:0.029552706 836:0.029552706 852:0.088658119 866:0.059105412 873:0.059105412 890:0.11821082 900:0.029552706 917:0.029552706 930:0.029552706 938:0.4728433 940:0.029552706 947:0.029552706 948:0.029552706 950:0.11821082 970:0.029552706 990:0.029552706 1007:0.029552706 1051:0.059105412 1106:0.088658119 1118:0.029552706 1164:0.059105412 1171:0.029552706 1180:0.029552706 1182:0.029552706 1188:0.029552706 1197:0.029552706 1212:0.029552706 1223:0.11821082 1229:0.029552706 1268:0.029552706 1272:0.059105412 1279:0.029552706 1312:0.029552706 1325:0.029552706 1326:0.029552706 1329:0.11821082 1343:0.029552706 1376:0.029552706 1410:0.029552706 1441:0.029552706 1442:0.029552706 1446:0.029552706 1462:0.029552706 1483:0.029552706 1485:0.029552706 1487:0.088658119 1512:0.029552706 1551:0.029552706 1555:0.029552706 1576:0.059105412 1583:0.029552706 1585:0.059105412 1655:0.059105412 1657:0.029552706 1680:0.059105412 1703:0.029552706 1736:0.088658119 1748:0.029552706 1763:0.029552706 1797:0.029552706 1802:0.029552706 1803:0.059105412 1819:0.029552706 1856:0.088658119 1875:0.029552706 1937:0.029552706 1995:0.029552706 2003:0.059105412 
0.33003556766645 1:0.12751534 3:0.063757671 12:0.021252557 13:0.042505114 14:0.021252557 16:0.021252557 17:0.021252557 19:0.021252557 20:0.021252557 21:0.021252557 30:0.063757671 31:0.042505114 36:0.021252557 37:0.021252557 46:0.063757671 47:0.063757671 54:0.021252557 55:0.042505114 56:0.042505114 58:0.063757671 59:0.085010228 60:0.042505114 61:0.085010228 67:0.021252557 68:0.10626279 69:0.021252557 70:0.021252557 71:0.021252557 77:0.021252557 79:0.042505114 85:0.021252557 86:0.021252557 90:0.063757671 98:0.021252557 109:0.021252557 111:0.021252557 119:0.063757671 120:0.085010228 133:0.063757671 136:0.10626279 140:0.042505114 141:0.021252557 153:0.021252557 155:0.021252557 156:0.10626279 157:0.021252557 167:0.042505114 177:0.1487679 179:0.021252557 182:0.021252557 185:0.042505114 189:0.021252557 190:0.021252557 197:0.085010228 198:0.23377813 202:0.021252557 204:0.042505114 222:0.021252557 230:0.021252557 239:0.085010228 244:0.1487679 256:0.042505114 273:0.021252557 275:0.021252557 280:0.12751534 283:0.021252557 293:0.042505114 294:0.10626279 298:0.40379858 305:0.042505114 315:0.021252557 332:0.021252557 335:0.021252557 348:0.021252557 353:0.021252557 356:0.042505114 363:0.021252557 370:0.042505114 377:0.042505114 381:0.021252557 421:0.021252557 423:0.042505114 428:0.021252557 429:0.021252557 432:0.021252557 445:0.021252557 446:0.021252557 448:0.021252557 450:0.063757671 455:0.021252557 456:0.021252557 461:0.021252557 462:0.021252557 463:0.1487679 468:0.021252557 469:0.021252557 472:0.021252557 491:0.021252557 495:0.021252557 511:0.10626279 519:0.021252557 525:0.021252557 541:0.1487679 547:0.021252557 550:0.085010228 553:0.021252557 572:0.021252557 586:0.021252557 590:0.063757671 606:0.021252557 610:0.021252557 617:0.021252557 635:0.021252557 638:0.063757671 640:0.021252557 666:0.085010228 667:0.1487679 668:0.021252557 692:0.10626279 693:0.021252557 711:0.063757671 718:0.021252557 719:0.042505114 770:0.021252557 784:0.042505114 796:0.063757671 821:0.021252557 832:0.063757671 844:0.10626279 846:0.021252557 853:0.021252557 858:0.063757671 872:0.021252557 879:0.021252557 882:0.021252557 910:0.021252557 911:0.021252557 912:0.021252557 948:0.021252557 954:0.021252557 967:0.063757671 982:0.021252557 983:0.021252557 999:0.021252557 1004:0.17002046 1024:0.021252557 1041:0.021252557 1054:0.021252557 1094:0.021252557 1127:0.021252557 1137:0.021252557 1139:0.021252557 1160:0.021252557 1171:0.021252557 1206:0.021252557 1210:0.021252557 1226:0.021252557 1230:0.021252557 1263:0.021252557 1294:0.021252557 1338:0.021252557 1339:0.085010228 1340:0.021252557 1381:0.042505114 1432:0.021252557 1448:0.55256648 1470:0.021252557 1487:0.021252557 1490:0.021252557 1506:0.021252557 1528:0.021252557 1580:0.042505114 1602:0.063757671 1604:0.021252557 1611:0.021252557 1619:0.021252557 1629:0.021252557 1655:0.021252557 1709:0.021252557 1733:0.021252557 1760:0.021252557 1806:0.021252557 1874:0.021252557 1895:0.021252557 1917:0.021252557 1918:0.042505114 1922:0.021252557 1932:0.021252557 1939:0.021252557 1940:0.021252557 1945:0.042505114 1958:0.021252557 1971:0.021252557 
0.5668111131810377 1:0.08247861 6:0.16495722 33:0.16495722 36:0.08247861 46:0.08247861 55:0.16495722 56:0.08247861 61:0.08247861 64:0.08247861 68:0.16495722 69:0.08247861 73:0.08247861 83:0.08247861 86:0.08247861 100:0.32991444 127:0.08247861 131:0.08247861 159:0.16495722 172:0.08247861 176:0.08247861 185:0.08247861 197:0.08247861 202:0.08247861 206:0.08247861 207:0.08247861 256:0.08247861 295:0.08247861 319:0.08247861 350:0.08247861 360:0.08247861 361:0.16495722 386:0.08247861 389:0.16495722 392:0.08247861 415:0.08247861 456:0.32991444 457:0.16495722 463:0.08247861 494:0.08247861 500:0.08247861 579:0.16495722 584:0.08247861 599:0.08247861 620:0.16495722 627:0.08247861 697:0.16495722 702:0.08247861 732:0.08247861 740:0.08247861 782:0.08247861 789:0.08247861 858:0.08247861 899:0.08247861 902:0.08247861 911:0.08247861 917:0.08247861 965:0.08247861 1186:0.08247861 1188:0.08247861 1206:0.08247861 1268:0.08247861 1275:0.08247861 1345:0.08247861 1349:0.08247861 1363:0.08247861 1398:0.08247861 1446:0.08247861 1462:0.08247861 1470:0.08247861 1481:0.08247861 1491:0.08247861 1581:0.08247861 1605:0.08247861 1724:0.16495722 1823:0.08247861 1828:0.08247861 1875:0.16495722 1927:0.08247861 
0.02672055534581219 4:0.22941573 7:0.076471911 21:0.076471911 37:0.38235956 43:0.15294382 44:0.076471911 63:0.076471911 64:0.076471911 73:0.076471911 77:0.076471911 78:0.076471911 88:0.15294382 110:0.076471911 120:0.15294382 147:0.15294382 169:0.22941573 171:0.076471911 185:0.076471911 211:0.076471911 217:0.076471911 222:0.15294382 246:0.076471911 255:0.45883147 256:0.076471911 322:0.076471911 348:0.076471911 395:0.076471911 414:0.076471911 438:0.076471911 450:0.076471911 468:0.076471911 516:0.22941573 554:0.076471911 601:0.076471911 667:0.22941573 677:0.076471911 711:0.076471911 723:0.076471911 728:0.076471911 749:0.076471911 773:0.076471911 807:0.076471911 816:0.076471911 821:0.076471911 919:0.076471911 928:0.076471911 967:0.076471911 981:0.15294382 1024:0.15294382 1304:0.076471911 1307:0.076471911 1312:0.076471911 1446:0.076471911 1565:0.15294382 1880:0.076471911 1933:0.076471911 
0.0806330287518484 3:0.03024753 4:0.06049506 6:0.06049506 13:0.03024753 14:0.03024753 20:0.090742591 21:0.06049506 22:0.03024753 30:0.15123765 31:0.03024753 36:0.15123765 37:0.15123765 47:0.090742591 50:0.03024753 54:0.03024753 55:0.06049506 56:0.03024753 57:0.03024753 59:0.090742591 60:0.090742591 63:0.090742591 66:0.12099012 67:0.090742591 68:0.03024753 74:0.06049506 77:0.18148518 81:0.03024753 90:0.15123765 98:0.03024753 102:0.03024753 103:0.06049506 113:0.03024753 118:0.03024753 123:0.03024753 131:0.03024753 140:0.03024753 141:0.03024753 142:0.03024753 144:0.03024753 147:0.03024753 153:0.090742591 172:0.06049506 185:0.06049506 189:0.06049506 198:0.03024753 211:0.18148518 215:0.03024753 218:0.06049506 222:0.090742591 237:0.03024753 241:0.03024753 263:0.03024753 273:0.090742591 280:0.03024753 297:0.03024753 325:0.090742591 329:0.03024753 332:0.03024753 338:0.03024753 347:0.03024753 348:0.090742591 353:0.03024753 356:0.090742591 366:0.06049506 367:0.03024753 368:0.03024753 374:0.03024753 403:0.03024753 407:0.06049506 413:0.090742591 418:0.03024753 428:0.06049506 441:0.03024753 445:0.03024753 450:0.03024753 469:0.03024753 472:0.03024753 483:0.06049506 484:0.03024753 492:0.06049506 493:0.03024753 494:0.15123765 496:0.03024753 500:0.18148518 511:0.090742591 524:0.03024753 526:0.06049506 529:0.06049506 530:0.03024753 532:0.03024753 533:0.06049506 549:0.090742591 553:0.03024753 555:0.090742591 580:0.06049506 587:0.03024753 610:0.03024753 636:0.090742591 645:0.090742591 667:0.12099012 677:0.03024753 702:0.18148518 744:0.03024753 756:0.03024753 769:0.03024753 777:0.03024753 784:0.06049506 796:0.090742591 820:0.03024753 825:0.06049506 862:0.03024753 884:0.03024753 903:0.06049506 917:0.03024753 940:0.33272283 967:0.03024753 970:0.06049506 973:0.06049506 989:0.06049506 1016:0.06049506 1017:0.03024753 1023:0.03024753 1027:0.03024753 1059:0.090742591 1062:0.03024753 1063:0.090742591 1079:0.12099012 1088:0.03024753 1149:0.03024753 1164:0.06049506 1188:0.3024753 1210:0.03024753 1212:0.03024753 1222:0.03024753 1223:0.090742591 1226:0.03024753 1229:0.03024753 1230:0.03024753 1234:0.03024753 1250:0.03024753 1253:0.03024753 1272:0.03024753 1315:0.03024753 1329:0.090742591 1341:0.090742591 1380:0.03024753 1428:0.15123765 1488:0.03024753 1559:0.03024753 1577:0.03024753 1581:0.03024753 1588:0.03024753 1626:0.03024753 1638:0.06049506 1682:0.03024753 1732:0.03024753 1741:0.21173271 1752:0.03024753 1797:0.03024753 1803:0.03024753 1816:0.21173271 1818:0.03024753 1840:0.03024753 1856:0.06049506 1878:0.03024753 1884:0.03024753 1895:0.03024753 1918:0.03024753 1973:0.03024753 1992:0.03024753 
0.1726207983050397 2:0.25916053 13:0.086386843 21:0.17277369 27:0.17277369 34:0.17277369 63:0.086386843 72:0.17277369 86:0.086386843 87:0.086386843 90:0.086386843 101:0.17277369 102:0.17277369 109:0.086386843 117:0.086386843 136:0.43193421 153:0.086386843 170:0.086386843 174:0.086386843 179:0.086386843 182:0.17277369 210:0.086386843 216:0.086386843 224:0.086386843 230:0.086386843 233:0.086386843 234:0.086386843 237:0.086386843 249:0.086386843 250:0.086386843 251:0.086386843 252:0.086386843 257:0.086386843 259:0.086386843 264:0.086386843 267:0.086386843 274:0.086386843 279:0.086386843 303:0.086386843 349:0.17277369 423:0.086386843 446:0.086386843 456:0.086386843 480:0.086386843 635:0.086386843 641:0.086386843 707:0.086386843 796:0.086386843 845:0.17277369 1125:0.086386843 1126:0.086386843 1153:0.086386843 1163:0.086386843 1341:0.086386843 1486:0.086386843 1635:0.086386843 1672:0.34554737 1923:0.17277369 
0.09169144625781987 1:0.038518561 3:0.077037122 12:0.1925928 13:0.077037122 15:0.038518561 16:0.23111136 17:0.23111136 19:0.30814849 21:0.038518561 34:0.038518561 36:0.1925928 40:0.038518561 43:0.038518561 45:0.038518561 46:0.15407424 59:0.038518561 60:0.038518561 89:0.11555568 90:0.038518561 95:0.038518561 98:0.1925928 100:0.038518561 102:0.038518561 117:0.038518561 119:0.077037122 125:0.15407424 137:0.038518561 139:0.038518561 144:0.038518561 185:0.038518561 187:0.038518561 220:0.11555568 228:0.077037122 283:0.038518561 297:0.077037122 329:0.038518561 331:0.23111136 338:0.038518561 367:0.038518561 370:0.038518561 388:0.15407424 397:0.038518561 411:0.077037122 412:0.038518561 414:0.038518561 427:0.077037122 441:0.077037122 480:0.038518561 488:0.038518561 492:0.077037122 497:0.038518561 500:0.077037122 546:0.26962993 557:0.038518561 645:0.077037122 707:0.038518561 712:0.038518561 721:0.038518561 814:0.038518561 844:0.038518561 876:0.038518561 911:0.038518561 940:0.11555568 942:0.038518561 1046:0.077037122 1062:0.34666705 1071:0.11555568 1078:0.038518561 1082:0.038518561 1096:0.038518561 1101:0.11555568 1160:0.038518561 1171:0.038518561 1196:0.26962993 1239:0.1925928 1269:0.038518561 1325:0.077037122 1332:0.038518561 1362:0.038518561 1376:0.038518561 1381:0.038518561 1463:0.038518561 1495:0.077037122 1508:0.077037122 1551:0.038518561 1632:0.038518561 1685:0.038518561 1732:0.038518561 1763:0.038518561 1798:0.038518561 1803:0.077037122 1818:0.038518561 1821:0.077037122 1859:0.038518561 1957:0.038518561 1960:0.038518561 1993:0.038518561 2003:0.038518561 
0.0314077555779337 1:0.024746108 2:0.12373054 6:0.024746108 7:0.049492216 12:0.049492216 13:0.34644551 19:0.024746108 21:0.024746108 23:0.024746108 26:0.024746108 27:0.12373054 28:0.14847665 30:0.024746108 31:0.074238325 34:0.19796887 36:0.074238325 37:0.074238325 42:0.074238325 43:0.098984433 44:0.024746108 46:0.024746108 52:0.27220719 55:0.024746108 59:0.024746108 60:0.024746108 68:0.024746108 72:0.049492216 77:0.098984433 83:0.12373054 86:0.049492216 87:0.024746108 98:0.024746108 100:0.024746108 101:0.098984433 102:0.049492216 109:0.049492216 117:0.024746108 119:0.024746108 120:0.098984433 124:0.024746108 129:0.049492216 133:0.024746108 143:0.024746108 148:0.024746108 153:0.049492216 166:0.024746108 169:0.049492216 170:0.049492216 174:0.049492216 179:0.024746108 185:0.024746108 191:0.024746108 202:0.024746108 207:0.074238325 210:0.049492216 216:0.049492216 220:0.049492216 223:0.049492216 224:0.024746108 230:0.024746108 233:0.049492216 234:0.049492216 237:0.074238325 241:0.049492216 246:0.049492216 249:0.024746108 250:0.049492216 251:0.049492216 252:0.049492216 253:0.024746108 254:0.024746108 257:0.024746108 259:0.049492216 262:0.024746108 263:0.024746108 264:0.024746108 265:0.024746108 267:0.024746108 269:0.049492216 274:0.024746108 275:0.049492216 279:0.024746108 282:0.024746108 283:0.049492216 295:0.22271497 303:0.049492216 304:0.049492216 307:0.049492216 317:0.024746108 319:0.024746108 326:0.024746108 333:0.074238325 335:0.024746108 345:0.12373054 348:0.024746108 356:0.049492216 359:0.049492216 363:0.024746108 368:0.024746108 389:0.049492216 392:0.024746108 397:0.024746108 411:0.049492216 412:0.074238325 427:0.024746108 445:0.024746108 456:0.024746108 475:0.049492216 488:0.024746108 490:0.024746108 492:0.074238325 528:0.024746108 529:0.024746108 534:0.098984433 542:0.024746108 554:0.049492216 571:0.049492216 589:0.024746108 591:0.024746108 630:0.024746108 653:0.024746108 667:0.024746108 668:0.049492216 680:0.024746108 686:0.024746108 716:0.049492216 719:0.024746108 721:0.024746108 729:0.024746108 740:0.024746108 778:0.024746108 785:0.024746108 805:0.024746108 822:0.098984433 825:0.024746108 830:0.074238325 852:0.024746108 884:0.024746108 892:0.049492216 893:0.024746108 899:0.14847665 968:0.024746108 987:0.024746108 991:0.049492216 994:0.049492216 1011:0.024746108 1023:0.024746108 1032:0.024746108 1036:0.024746108 1051:0.024746108 1060:0.024746108 1061:0.024746108 1063:0.024746108 1072:0.024746108 1101:0.049492216 1117:0.024746108 1139:0.024746108 1143:0.024746108 1150:0.024746108 1170:0.049492216 1186:0.024746108 1201:0.074238325 1217:0.098984433 1224:0.024746108 1242:0.074238325 1246:0.049492216 1263:0.024746108 1265:0.024746108 1306:0.51966827 1332:0.024746108 1344:0.024746108 1346:0.024746108 1362:0.049492216 1376:0.024746108 1384:0.074238325 1388:0.024746108 1469:0.024746108 1488:0.024746108 1493:0.024746108 1530:0.024746108 1543:0.049492216 1549:0.049492216 1556:0.024746108 1586:0.024746108 1592:0.024746108 1628:0.024746108 1657:0.024746108 1660:0.049492216 1678:0.024746108 1680:0.024746108 1681:0.024746108 1729:0.024746108 1857:0.024746108 1888:0.049492216 1891:0.024746108 1892:0.049492216 1899:0.024746108 1925:0.024746108 1940:0.024746108 1945:0.024746108 1946:0.024746108 1953:0.049492216 1974:0.049492216 2004:0.024746108 
0.4115031950883447 1:0.057543534 2:0.1726306 13:0.057543534 20:0.1726306 21:0.28771767 27:0.23017414 34:0.11508707 54:0.1726306 55:0.057543534 67:0.057543534 68:0.11508707 72:0.11508707 77:0.11508707 80:0.11508707 83:0.11508707 86:0.057543534 87:0.057543534 92:0.11508707 97:0.057543534 101:0.11508707 102:0.11508707 109:0.11508707 117:0.057543534 136:0.3452612 142:0.057543534 153:0.057543534 170:0.057543534 174:0.057543534 179:0.057543534 185:0.11508707 210:0.057543534 216:0.057543534 224:0.057543534 230:0.057543534 233:0.057543534 234:0.057543534 237:0.057543534 241:0.057543534 244:0.057543534 249:0.057543534 250:0.057543534 251:0.057543534 252:0.057543534 253:0.057543534 257:0.057543534 259:0.057543534 261:0.057543534 264:0.057543534 267:0.057543534 274:0.057543534 279:0.057543534 282:0.057543534 283:0.11508707 303:0.057543534 335:0.057543534 348:0.057543534 363:0.057543534 370:0.11508707 396:0.3452612 446:0.057543534 494:0.11508707 500:0.057543534 523:0.057543534 528:0.057543534 529:0.11508707 533:0.11508707 548:0.057543534 552:0.057543534 606:0.057543534 638:0.057543534 641:0.11508707 656:0.057543534 752:0.057543534 777:0.057543534 796:0.057543534 808:0.057543534 972:0.057543534 998:0.1726306 1060:0.11508707 1117:0.057543534 1129:0.057543534 1140:0.057543534 1151:0.11508707 1180:0.057543534 1223:0.057543534 1230:0.057543534 1240:0.057543534 1341:0.057543534 1380:0.11508707 1493:0.057543534 1534:0.057543534 1679:0.057543534 1701:0.057543534 1709:0.057543534 1794:0.057543534 1795:0.057543534 1875:0.057543534 1923:0.11508707 
0.05321560322928005 1:0.070014004 2:0.28005602 13:0.070014004 21:0.070014004 27:0.14002801 33:0.14002801 34:0.14002801 64:0.070014004 72:0.14002801 73:0.070014004 86:0.070014004 87:0.070014004 97:0.14002801 100:0.070014004 101:0.14002801 102:0.14002801 109:0.070014004 117:0.070014004 136:0.42008403 147:0.070014004 152:0.14002801 153:0.070014004 170:0.070014004 174:0.070014004 179:0.070014004 202:0.070014004 210:0.070014004 216:0.070014004 220:0.070014004 224:0.070014004 230:0.14002801 233:0.070014004 234:0.070014004 237:0.070014004 249:0.070014004 250:0.070014004 251:0.070014004 252:0.070014004 254:0.070014004 257:0.070014004 259:0.070014004 264:0.070014004 267:0.070014004 274:0.070014004 279:0.070014004 282:0.070014004 303:0.14002801 307:0.14002801 369:0.070014004 396:0.14002801 449:0.070014004 480:0.35007002 510:0.070014004 533:0.14002801 541:0.070014004 553:0.070014004 616:0.070014004 635:0.070014004 641:0.14002801 680:0.070014004 754:0.070014004 757:0.28005602 845:0.14002801 1163:0.070014004 1209:0.070014004 1750:0.070014004 1923:0.14002801 
0.03065433298838963 1:0.1672484 2:0.2508726 12:0.083624201 13:0.1672484 19:0.083624201 27:0.1672484 31:0.083624201 34:0.1672484 44:0.1672484 47:0.083624201 55:0.083624201 72:0.1672484 86:0.083624201 87:0.083624201 98:0.083624201 100:0.083624201 101:0.1672484 102:0.1672484 109:0.083624201 117:0.083624201 119:0.083624201 153:0.083624201 170:0.083624201 174:0.083624201 177:0.2508726 179:0.083624201 210:0.083624201 216:0.083624201 224:0.083624201 230:0.083624201 233:0.083624201 234:0.083624201 237:0.083624201 241:0.083624201 249:0.083624201 250:0.083624201 251:0.083624201 252:0.083624201 257:0.083624201 259:0.083624201 264:0.083624201 267:0.083624201 274:0.083624201 279:0.083624201 303:0.083624201 356:0.083624201 449:0.083624201 466:0.083624201 470:0.083624201 500:0.1672484 516:0.41812101 541:0.083624201 555:0.083624201 619:0.083624201 636:0.083624201 667:0.083624201 719:0.083624201 721:0.083624201 814:0.083624201 859:0.083624201 981:0.1672484 1024:0.083624201 1182:0.083624201 1206:0.083624201 1556:0.083624201 1577:0.083624201 1748:0.083624201 1758:0.083624201 1792:0.083624201 1923:0.1672484 
0.07589292309900449 2:0.31448545 13:0.20965697 27:0.20965697 34:0.20965697 54:0.10482848 72:0.20965697 86:0.10482848 87:0.10482848 101:0.20965697 102:0.20965697 109:0.10482848 117:0.10482848 153:0.10482848 156:0.10482848 170:0.10482848 174:0.10482848 179:0.10482848 204:0.10482848 210:0.10482848 216:0.10482848 224:0.10482848 228:0.20965697 230:0.10482848 233:0.10482848 234:0.10482848 237:0.10482848 249:0.10482848 250:0.10482848 251:0.10482848 252:0.10482848 257:0.10482848 259:0.10482848 264:0.10482848 267:0.10482848 274:0.10482848 279:0.10482848 303:0.10482848 370:0.10482848 445:0.10482848 455:0.10482848 460:0.20965697 466:0.10482848 554:0.10482848 668:0.10482848 708:0.10482848 941:0.10482848 998:0.10482848 1024:0.10482848 1070:0.10482848 1115:0.20965697 1272:0.10482848 1463:0.10482848 1923:0.20965697 
0.1749568820459996 1:0.029894064 4:0.089682191 13:0.17936438 16:0.059788128 17:0.059788128 19:0.029894064 23:0.029894064 27:0.029894064 28:0.11957626 30:0.029894064 31:0.029894064 36:0.029894064 41:0.029894064 42:0.11957626 43:0.029894064 44:0.029894064 46:0.029894064 47:0.029894064 50:0.29894064 52:0.089682191 55:0.059788128 56:0.029894064 61:0.029894064 68:0.029894064 85:0.059788128 90:0.059788128 109:0.089682191 110:0.029894064 111:0.029894064 119:0.029894064 120:0.029894064 123:0.029894064 131:0.059788128 132:0.059788128 133:0.029894064 142:0.029894064 144:0.059788128 151:0.059788128 153:0.029894064 159:0.089682191 161:0.059788128 177:0.029894064 185:0.029894064 186:0.029894064 203:0.029894064 210:0.029894064 221:0.029894064 223:0.029894064 278:0.029894064 282:0.059788128 294:0.029894064 306:0.029894064 318:0.029894064 333:0.029894064 335:0.059788128 348:0.029894064 353:0.029894064 376:0.029894064 379:0.089682191 397:0.029894064 408:0.029894064 427:0.23915251 438:0.059788128 442:0.059788128 456:0.029894064 460:0.029894064 461:0.029894064 466:0.11957626 487:0.029894064 500:0.029894064 505:0.029894064 537:0.029894064 539:0.029894064 553:0.029894064 573:0.029894064 578:0.029894064 616:0.029894064 626:0.029894064 650:0.029894064 725:0.17936438 731:0.029894064 736:0.029894064 752:0.029894064 759:0.029894064 783:0.059788128 796:0.029894064 839:0.029894064 844:0.029894064 852:0.11957626 918:0.029894064 944:0.029894064 989:0.059788128 999:0.029894064 1062:0.029894064 1077:0.029894064 1094:0.029894064 1149:0.11957626 1187:0.029894064 1200:0.029894064 1210:0.029894064 1239:0.089682191 1272:0.029894064 1341:0.059788128 1403:0.029894064 1409:0.059788128 1433:0.029894064 1445:0.029894064 1453:0.059788128 1487:0.029894064 1490:0.23915251 1517:0.53809315 1522:0.23915251 1555:0.059788128 1562:0.029894064 1598:0.3288347 1792:0.029894064 1797:0.029894064 1799:0.059788128 1936:0.059788128 1951:0.089682191 1966:0.029894064 
0.386818119594654 2:0.18325417 13:0.061084722 21:0.061084722 27:0.12216944 34:0.12216944 46:0.12216944 54:0.12216944 57:0.061084722 64:0.30542361 68:0.061084722 72:0.12216944 73:0.30542361 74:0.061084722 86:0.061084722 87:0.061084722 90:0.061084722 92:0.061084722 101:0.12216944 102:0.12216944 109:0.061084722 117:0.061084722 148:0.061084722 153:0.061084722 156:0.24433889 169:0.24433889 170:0.061084722 174:0.061084722 179:0.061084722 185:0.061084722 187:0.061084722 200:0.061084722 204:0.061084722 210:0.061084722 216:0.061084722 224:0.061084722 230:0.061084722 233:0.061084722 234:0.061084722 237:0.061084722 249:0.061084722 250:0.061084722 251:0.061084722 252:0.061084722 257:0.061084722 259:0.061084722 264:0.061084722 267:0.061084722 273:0.061084722 274:0.061084722 279:0.061084722 303:0.061084722 305:0.061084722 369:0.061084722 370:0.061084722 404:0.12216944 413:0.061084722 445:0.12216944 468:0.12216944 496:0.061084722 519:0.061084722 552:0.061084722 553:0.061084722 561:0.061084722 594:0.36650833 610:0.24433889 679:0.061084722 684:0.061084722 778:0.24433889 967:0.18325417 1235:0.061084722 1364:0.061084722 1380:0.061084722 1381:0.061084722 1585:0.061084722 1611:0.061084722 1923:0.12216944 
0.1903688123772217 4:0.25264558 13:0.084215192 19:0.42107596 23:0.25264558 27:0.16843038 28:0.16843038 33:0.16843038 42:0.16843038 44:0.084215192 61:0.084215192 133:0.084215192 144:0.084215192 151:0.084215192 186:0.084215192 191:0.084215192 231:0.16843038 232:0.16843038 266:0.084215192 295:0.084215192 306:0.084215192 325:0.084215192 339:0.084215192 349:0.16843038 360:0.084215192 375:0.084215192 390:0.084215192 416:0.084215192 534:0.084215192 545:0.084215192 672:0.084215192 680:0.084215192 796:0.084215192 871:0.16843038 1086:0.33686077 1094:0.16843038 1242:0.16843038 1463:0.084215192 1659:0.084215192 1671:0.084215192 1797:0.084215192 1980:0.33686077 
0.06958735927706 1:0.11585689 2:0.17378533 3:0.11585689 7:0.28964222 13:0.057928445 21:0.057928445 27:0.11585689 34:0.11585689 43:0.057928445 44:0.17378533 57:0.11585689 63:0.46342756 72:0.11585689 86:0.057928445 87:0.057928445 101:0.11585689 102:0.11585689 109:0.057928445 117:0.057928445 129:0.17378533 142:0.057928445 153:0.057928445 162:0.057928445 167:0.057928445 170:0.057928445 174:0.057928445 179:0.057928445 210:0.057928445 216:0.057928445 224:0.057928445 230:0.057928445 233:0.057928445 234:0.057928445 237:0.057928445 244:0.057928445 249:0.057928445 250:0.057928445 251:0.057928445 252:0.057928445 257:0.057928445 259:0.057928445 264:0.057928445 267:0.057928445 274:0.057928445 279:0.057928445 282:0.11585689 303:0.057928445 348:0.11585689 349:0.34757067 374:0.057928445 377:0.11585689 378:0.057928445 418:0.057928445 450:0.11585689 492:0.057928445 519:0.057928445 526:0.057928445 591:0.17378533 610:0.057928445 616:0.11585689 649:0.17378533 655:0.057928445 667:0.057928445 677:0.057928445 712:0.057928445 769:0.11585689 778:0.17378533 796:0.057928445 865:0.11585689 972:0.057928445 1242:0.11585689 1287:0.057928445 1315:0.057928445 1595:0.057928445 1629:0.057928445 1747:0.057928445 1923:0.11585689 
0.6201413960257601 4:0.038691162 7:0.038691162 16:0.038691162 17:0.038691162 36:0.11607348 43:0.077382323 54:0.077382323 60:0.038691162 62:0.038691162 64:0.038691162 67:0.038691162 68:0.038691162 73:0.038691162 80:0.11607348 82:0.038691162 83:0.038691162 92:0.077382323 100:0.077382323 103:0.15476465 113:0.11607348 122:0.038691162 148:0.077382323 169:0.077382323 185:0.038691162 206:0.038691162 208:0.038691162 217:0.038691162 228:0.077382323 230:0.038691162 239:0.077382323 241:0.11607348 258:0.15476465 261:0.11607348 273:0.038691162 282:0.077382323 299:0.077382323 315:0.038691162 317:0.15476465 328:0.038691162 332:0.15476465 338:0.11607348 340:0.038691162 353:0.038691162 356:0.077382323 363:0.038691162 364:0.038691162 365:0.038691162 367:0.54167626 413:0.077382323 454:0.038691162 491:0.038691162 494:0.038691162 528:0.077382323 529:0.038691162 536:0.038691162 538:0.038691162 548:0.038691162 578:0.038691162 648:0.038691162 677:0.038691162 696:0.038691162 727:0.038691162 738:0.038691162 749:0.077382323 777:0.038691162 783:0.038691162 812:0.038691162 852:0.038691162 857:0.038691162 862:0.038691162 890:0.11607348 915:0.038691162 930:0.038691162 947:0.11607348 948:0.038691162 950:0.038691162 1017:0.038691162 1027:0.077382323 1055:0.038691162 1127:0.038691162 1129:0.038691162 1182:0.038691162 1212:0.038691162 1223:0.077382323 1265:0.11607348 1281:0.15476465 1294:0.038691162 1326:0.038691162 1331:0.038691162 1380:0.038691162 1432:0.038691162 1487:0.038691162 1522:0.038691162 1534:0.038691162 1537:0.038691162 1540:0.038691162 1605:0.077382323 1723:0.038691162 1736:0.5029851 1782:0.038691162 1787:0.038691162 1798:0.038691162 1820:0.038691162 1853:0.038691162 1918:0.038691162 1924:0.038691162 1941:0.038691162 
0.157041497450515 1:0.1798775 2:0.067454063 4:0.49466313 7:0.044969375 13:0.044969375 20:0.022484688 27:0.044969375 28:0.067454063 31:0.022484688 34:0.044969375 41:0.022484688 47:0.044969375 59:0.044969375 60:0.044969375 66:0.022484688 68:0.022484688 72:0.044969375 77:0.022484688 83:0.044969375 85:0.1798775 86:0.022484688 87:0.022484688 101:0.044969375 102:0.044969375 109:0.022484688 117:0.022484688 136:0.40472438 142:0.044969375 153:0.022484688 170:0.022484688 174:0.022484688 179:0.022484688 187:0.13490813 191:0.044969375 198:0.08993875 202:0.022484688 208:0.13490813 210:0.067454063 216:0.022484688 224:0.022484688 230:0.044969375 233:0.022484688 234:0.022484688 237:0.022484688 249:0.022484688 250:0.022484688 251:0.022484688 252:0.022484688 257:0.022484688 259:0.022484688 263:0.067454063 264:0.022484688 267:0.022484688 274:0.022484688 279:0.022484688 280:0.044969375 294:0.022484688 303:0.067454063 331:0.022484688 359:0.044969375 371:0.22484688 386:0.08993875 395:0.022484688 396:0.067454063 413:0.022484688 428:0.1798775 446:0.022484688 466:0.022484688 477:0.022484688 494:0.022484688 504:0.022484688 509:0.022484688 516:0.022484688 518:0.022484688 554:0.022484688 587:0.022484688 636:0.022484688 704:0.022484688 749:0.022484688 849:0.044969375 883:0.08993875 902:0.044969375 937:0.022484688 944:0.044969375 967:0.022484688 983:0.022484688 1036:0.044969375 1143:0.022484688 1170:0.022484688 1206:0.022484688 1265:0.022484688 1275:0.022484688 1341:0.49466313 1369:0.11242344 1445:0.022484688 1446:0.022484688 1482:0.022484688 1626:0.08993875 1651:0.022484688 1809:0.044969375 1824:0.022484688 1918:0.11242344 1923:0.044969375 1968:0.022484688 1989:0.044969375 1992:0.022484688 
0.5721854093253732 2:0.24828177 13:0.082760589 27:0.16552118 34:0.16552118 36:0.082760589 54:0.41380294 72:0.16552118 83:0.082760589 86:0.082760589 87:0.082760589 98:0.16552118 101:0.16552118 102:0.16552118 109:0.082760589 113:0.082760589 117:0.16552118 120:0.16552118 127:0.082760589 153:0.082760589 163:0.082760589 170:0.082760589 174:0.082760589 179:0.082760589 210:0.082760589 216:0.082760589 224:0.082760589 230:0.082760589 233:0.082760589 234:0.082760589 237:0.082760589 249:0.082760589 250:0.082760589 251:0.082760589 252:0.082760589 257:0.082760589 259:0.082760589 264:0.082760589 267:0.082760589 274:0.082760589 279:0.082760589 303:0.082760589 307:0.082760589 342:0.33104236 450:0.082760589 483:0.082760589 533:0.082760589 590:0.082760589 640:0.082760589 650:0.16552118 796:0.082760589 820:0.082760589 821:0.082760589 871:0.16552118 880:0.082760589 893:0.16552118 991:0.082760589 1117:0.16552118 1409:0.082760589 1432:0.082760589 1923:0.16552118 
0.1203032670503342 1:0.075834021 2:0.075834021 7:0.025278007 13:0.15166804 21:0.025278007 26:0.075834021 27:0.075834021 28:0.48028213 30:0.050556014 33:0.15166804 34:0.3538921 46:0.12639003 47:0.17694605 54:0.075834021 56:0.12639003 60:0.025278007 61:0.025278007 64:0.050556014 67:0.025278007 68:0.025278007 72:0.050556014 73:0.050556014 74:0.050556014 77:0.025278007 83:0.025278007 85:0.050556014 86:0.025278007 87:0.025278007 88:0.025278007 90:0.025278007 97:0.025278007 100:0.12639003 101:0.050556014 102:0.050556014 109:0.025278007 113:0.050556014 116:0.050556014 117:0.050556014 120:0.075834021 122:0.025278007 129:0.050556014 147:0.025278007 148:0.025278007 152:0.050556014 153:0.025278007 166:0.025278007 170:0.025278007 174:0.025278007 179:0.050556014 184:0.025278007 185:0.025278007 186:0.025278007 193:0.025278007 196:0.075834021 202:0.075834021 205:0.075834021 210:0.025278007 216:0.025278007 224:0.025278007 230:0.025278007 233:0.025278007 234:0.025278007 237:0.025278007 241:0.050556014 248:0.025278007 249:0.025278007 250:0.025278007 251:0.025278007 252:0.025278007 257:0.025278007 259:0.025278007 264:0.025278007 267:0.025278007 274:0.025278007 278:0.025278007 279:0.025278007 280:0.025278007 283:0.20222406 289:0.10111203 292:0.10111203 299:0.025278007 303:0.025278007 315:0.025278007 317:0.050556014 329:0.10111203 331:0.025278007 332:0.050556014 335:0.025278007 338:0.050556014 346:0.025278007 353:0.075834021 356:0.075834021 377:0.025278007 393:0.025278007 395:0.025278007 404:0.10111203 418:0.025278007 428:0.025278007 431:0.025278007 445:0.025278007 456:0.12639003 483:0.050556014 491:0.050556014 494:0.12639003 496:0.075834021 529:0.075834021 534:0.025278007 541:0.025278007 550:0.025278007 553:0.025278007 573:0.025278007 595:0.025278007 617:0.075834021 627:0.050556014 629:0.025278007 636:0.050556014 669:0.30333608 676:0.050556014 692:0.025278007 699:0.025278007 716:0.050556014 719:0.050556014 749:0.050556014 752:0.025278007 763:0.025278007 771:0.025278007 793:0.025278007 825:0.025278007 844:0.025278007 872:0.025278007 878:0.050556014 879:0.025278007 896:0.075834021 929:0.025278007 961:0.025278007 965:0.025278007 976:0.025278007 987:0.025278007 991:0.025278007 1020:0.025278007 1025:0.025278007 1031:0.025278007 1037:0.025278007 1041:0.075834021 1049:0.025278007 1050:0.15166804 1057:0.025278007 1060:0.050556014 1091:0.075834021 1093:0.025278007 1116:0.025278007 1138:0.025278007 1143:0.050556014 1150:0.025278007 1155:0.025278007 1180:0.025278007 1185:0.025278007 1210:0.025278007 1218:0.025278007 1247:0.025278007 1251:0.025278007 1261:0.025278007 1284:0.025278007 1294:0.10111203 1331:0.025278007 1334:0.050556014 1341:0.025278007 1345:0.025278007 1363:0.025278007 1380:0.025278007 1407:0.050556014 1410:0.075834021 1462:0.025278007 1467:0.025278007 1472:0.025278007 1487:0.025278007 1506:0.025278007 1520:0.075834021 1524:0.025278007 1532:0.025278007 1576:0.025278007 1602:0.025278007 1606:0.025278007 1616:0.025278007 1638:0.025278007 1647:0.025278007 1649:0.025278007 1667:0.025278007 1675:0.025278007 1687:0.050556014 1758:0.025278007 1760:0.075834021 1792:0.025278007 1858:0.025278007 1922:0.050556014 1937:0.025278007 1940:0.025278007 
0.2898264055195412 2:0.22874786 13:0.076249285 27:0.15249857 33:0.076249285 34:0.15249857 44:0.076249285 46:0.15249857 55:0.15249857 64:0.076249285 72:0.15249857 73:0.076249285 77:0.076249285 86:0.076249285 87:0.076249285 101:0.15249857 102:0.15249857 109:0.076249285 113:0.076249285 117:0.076249285 118:0.076249285 120:0.076249285 123:0.30499714 136:0.30499714 153:0.076249285 156:0.076249285 159:0.076249285 170:0.076249285 174:0.076249285 179:0.076249285 210:0.076249285 216:0.076249285 219:0.076249285 224:0.076249285 228:0.076249285 230:0.076249285 233:0.076249285 234:0.076249285 237:0.076249285 249:0.076249285 250:0.076249285 251:0.076249285 252:0.076249285 253:0.076249285 257:0.076249285 259:0.076249285 261:0.076249285 264:0.076249285 267:0.076249285 274:0.076249285 279:0.076249285 282:0.076249285 297:0.076249285 303:0.076249285 356:0.076249285 525:0.076249285 529:0.076249285 554:0.15249857 594:0.076249285 666:0.076249285 708:0.15249857 716:0.076249285 721:0.076249285 871:0.076249285 984:0.076249285 1036:0.076249285 1054:0.076249285 1106:0.076249285 1216:0.30499714 1224:0.076249285 1237:0.076249285 1341:0.30499714 1727:0.076249285 1923:0.15249857 1942:0.076249285 
0.3238613956128247 4:0.11547005 19:0.11547005 20:0.34641016 28:0.34641016 42:0.34641016 50:0.11547005 54:0.11547005 55:0.23094011 82:0.11547005 85:0.11547005 131:0.11547005 161:0.34641016 169:0.11547005 262:0.11547005 295:0.11547005 488:0.23094011 491:0.11547005 492:0.11547005 647:0.11547005 677:0.11547005 686:0.23094011 707:0.11547005 716:0.11547005 721:0.11547005 758:0.11547005 871:0.11547005 994:0.11547005 1077:0.11547005 1094:0.11547005 1237:0.11547005 1341:0.11547005 1660:0.11547005 1864:0.11547005 1946:0.11547005 
0.08060258824169372 2:0.21055872 3:0.070186241 13:0.21055872 20:0.070186241 21:0.070186241 27:0.14037248 30:0.070186241 31:0.14037248 34:0.14037248 44:0.070186241 47:0.14037248 55:0.070186241 63:0.070186241 72:0.14037248 86:0.070186241 87:0.070186241 91:0.070186241 95:0.070186241 98:0.070186241 101:0.14037248 102:0.14037248 109:0.070186241 117:0.14037248 123:0.21055872 136:0.21055872 153:0.070186241 156:0.070186241 161:0.14037248 170:0.070186241 171:0.070186241 174:0.070186241 179:0.070186241 210:0.070186241 216:0.070186241 224:0.070186241 230:0.070186241 233:0.070186241 234:0.070186241 237:0.070186241 249:0.070186241 250:0.070186241 251:0.070186241 252:0.070186241 254:0.070186241 257:0.070186241 259:0.070186241 264:0.070186241 267:0.070186241 274:0.070186241 279:0.070186241 281:0.070186241 303:0.070186241 304:0.070186241 335:0.070186241 349:0.14037248 367:0.070186241 384:0.070186241 397:0.14037248 404:0.070186241 460:0.14037248 468:0.14037248 473:0.070186241 534:0.070186241 538:0.070186241 547:0.070186241 553:0.070186241 610:0.14037248 638:0.14037248 670:0.14037248 688:0.070186241 728:0.14037248 759:0.070186241 814:0.070186241 973:0.28074496 1196:0.14037248 1201:0.070186241 1216:0.070186241 1222:0.070186241 1237:0.070186241 1248:0.070186241 1252:0.070186241 1366:0.070186241 1384:0.21055872 1407:0.070186241 1448:0.070186241 1495:0.070186241 1672:0.070186241 1727:0.070186241 1792:0.070186241 1883:0.070186241 1923:0.14037248 
0.1028204506107005 4:0.27272727 12:0.18181818 19:0.36363636 26:0.27272727 30:0.18181818 51:0.090909091 59:0.27272727 69:0.18181818 83:0.090909091 88:0.090909091 107:0.090909091 122:0.090909091 132:0.090909091 179:0.18181818 184:0.18181818 219:0.090909091 254:0.18181818 255:0.27272727 256:0.090909091 261:0.090909091 271:0.090909091 353:0.090909091 405:0.090909091 444:0.090909091 449:0.090909091 473:0.090909091 546:0.090909091 547:0.090909091 550:0.090909091 636:0.090909091 691:0.090909091 701:0.090909091 796:0.090909091 865:0.090909091 1062:0.18181818 1137:0.090909091 1171:0.090909091 1180:0.090909091 1196:0.18181818 1293:0.090909091 1463:0.090909091 1495:0.18181818 1586:0.090909091 1757:0.090909091 1792:0.090909091 1798:0.090909091 2001:0.090909091 
0.07037615315358836 1:0.10660036 12:0.10660036 15:0.21320072 28:0.21320072 33:0.10660036 36:0.10660036 38:0.21320072 40:0.10660036 41:0.10660036 42:0.21320072 45:0.21320072 47:0.21320072 56:0.10660036 59:0.10660036 79:0.21320072 86:0.10660036 120:0.21320072 143:0.10660036 148:0.10660036 189:0.21320072 218:0.10660036 312:0.10660036 333:0.10660036 341:0.10660036 348:0.10660036 353:0.10660036 368:0.21320072 404:0.10660036 488:0.10660036 527:0.10660036 537:0.10660036 547:0.10660036 578:0.10660036 677:0.10660036 686:0.10660036 707:0.10660036 725:0.10660036 760:0.10660036 797:0.10660036 806:0.10660036 814:0.10660036 909:0.10660036 950:0.21320072 967:0.10660036 984:0.10660036 1032:0.10660036 1077:0.10660036 1146:0.10660036 1171:0.10660036 1182:0.10660036 1229:0.10660036 1349:0.10660036 1412:0.10660036 1573:0.10660036 1959:0.10660036 
1.13271853670905 21:0.13184171 41:0.026368341 42:0.052736682 54:0.026368341 59:0.026368341 64:0.026368341 67:0.18457839 73:0.026368341 74:0.10547336 80:0.15821005 87:0.026368341 103:0.026368341 113:0.10547336 116:0.026368341 118:0.026368341 122:0.026368341 138:0.079105023 147:0.052736682 151:0.026368341 172:0.026368341 179:0.026368341 204:0.026368341 206:0.4482618 230:0.026368341 241:0.079105023 291:0.026368341 295:0.026368341 299:0.079105023 332:0.026368341 356:0.13184171 361:0.026368341 363:0.10547336 366:0.026368341 369:0.079105023 397:0.026368341 401:0.052736682 423:0.026368341 491:0.026368341 492:0.10547336 493:0.026368341 494:0.052736682 496:0.026368341 528:0.026368341 589:0.079105023 617:0.026368341 638:0.026368341 652:0.026368341 696:0.026368341 738:0.026368341 746:0.026368341 749:0.18457839 760:0.026368341 771:0.026368341 883:0.052736682 938:0.052736682 949:0.026368341 987:0.026368341 1002:0.10547336 1007:0.026368341 1025:0.026368341 1038:0.052736682 1041:0.026368341 1118:0.026368341 1221:0.052736682 1223:0.026368341 1227:0.026368341 1242:0.026368341 1329:0.13184171 1361:0.026368341 1487:0.052736682 1506:0.026368341 1702:0.026368341 1703:0.079105023 1764:0.052736682 1768:0.69876104 1799:0.026368341 1822:0.026368341 1920:0.10547336 
0.4962118228302956 13:0.13497638 20:0.044992127 21:0.13497638 30:0.044992127 33:0.044992127 36:0.044992127 41:0.044992127 47:0.13497638 50:0.044992127 55:0.044992127 59:0.044992127 67:0.089984254 68:0.044992127 75:0.044992127 77:0.044992127 83:0.044992127 85:0.044992127 90:0.044992127 97:0.044992127 100:0.089984254 103:0.044992127 109:0.089984254 118:0.044992127 119:0.044992127 120:0.089984254 121:0.044992127 122:0.044992127 137:0.044992127 138:0.044992127 148:0.044992127 153:0.044992127 159:0.089984254 161:0.044992127 169:0.13497638 177:0.089984254 189:0.089984254 202:0.044992127 206:0.044992127 209:0.35993702 221:0.044992127 222:0.13497638 230:0.044992127 241:0.089984254 250:0.044992127 258:0.40492914 280:0.044992127 282:0.044992127 294:0.044992127 297:0.089984254 298:0.044992127 332:0.089984254 340:0.044992127 350:0.044992127 356:0.044992127 361:0.044992127 364:0.044992127 367:0.26995276 397:0.044992127 427:0.17996851 429:0.089984254 435:0.044992127 444:0.044992127 468:0.044992127 469:0.044992127 472:0.089984254 483:0.044992127 485:0.044992127 487:0.044992127 490:0.044992127 493:0.044992127 504:0.044992127 511:0.089984254 534:0.044992127 539:0.044992127 549:0.044992127 552:0.044992127 571:0.044992127 578:0.044992127 580:0.089984254 587:0.044992127 636:0.044992127 667:0.044992127 696:0.044992127 716:0.044992127 725:0.22496064 752:0.089984254 762:0.044992127 777:0.044992127 783:0.044992127 796:0.044992127 820:0.13497638 847:0.044992127 857:0.044992127 893:0.044992127 947:0.044992127 1000:0.044992127 1007:0.044992127 1061:0.044992127 1080:0.044992127 1117:0.089984254 1149:0.044992127 1172:0.044992127 1180:0.044992127 1186:0.044992127 1206:0.044992127 1231:0.044992127 1263:0.044992127 1265:0.044992127 1280:0.044992127 1344:0.13497638 1362:0.044992127 1363:0.044992127 1371:0.044992127 1393:0.044992127 1407:0.044992127 1410:0.044992127 1445:0.044992127 1469:0.044992127 1517:0.044992127 1588:0.044992127 1598:0.17996851 1658:0.089984254 1664:0.22496064 1736:0.089984254 1797:0.044992127 1880:0.044992127 1889:0.044992127 1925:0.044992127 
1.20099194573708 2:0.043675943 4:0.029117295 6:0.043675943 12:0.014558648 13:0.029117295 16:0.029117295 17:0.029117295 27:0.029117295 30:0.014558648 31:0.029117295 34:0.029117295 41:0.014558648 60:0.043675943 64:0.13102783 72:0.029117295 73:0.13102783 82:0.029117295 86:0.014558648 87:0.014558648 97:0.014558648 101:0.029117295 102:0.029117295 107:0.014558648 109:0.014558648 117:0.014558648 119:0.014558648 148:0.014558648 153:0.014558648 170:0.014558648 174:0.014558648 179:0.029117295 183:0.96087074 184:0.014558648 202:0.029117295 204:0.043675943 205:0.029117295 210:0.029117295 216:0.014558648 222:0.014558648 224:0.014558648 230:0.014558648 233:0.029117295 234:0.014558648 237:0.014558648 249:0.029117295 250:0.014558648 251:0.014558648 252:0.014558648 257:0.029117295 259:0.014558648 264:0.014558648 265:0.014558648 267:0.014558648 274:0.014558648 279:0.014558648 294:0.014558648 303:0.014558648 407:0.014558648 417:0.014558648 590:0.014558648 652:0.014558648 738:0.014558648 758:0.014558648 806:0.029117295 954:0.014558648 1090:0.014558648 1150:0.029117295 1224:0.014558648 1232:0.014558648 1265:0.014558648 1339:0.014558648 1397:0.087351885 1472:0.014558648 1576:0.014558648 1638:0.014558648 1848:0.014558648 
0.286781127969959 4:0.59554132 7:0.022905435 13:0.022905435 20:0.022905435 33:0.022905435 45:0.045810871 46:0.045810871 47:0.045810871 50:0.022905435 60:0.022905435 61:0.022905435 63:0.022905435 66:0.022905435 68:0.022905435 83:0.045810871 109:0.022905435 111:0.022905435 122:0.022905435 131:0.022905435 132:0.022905435 135:0.36648697 147:0.045810871 169:0.022905435 171:0.045810871 174:0.022905435 185:0.022905435 191:0.022905435 202:0.045810871 203:0.068716306 204:0.18324348 214:0.091621742 222:0.045810871 241:0.022905435 256:0.068716306 261:0.022905435 273:0.27486523 283:0.022905435 294:0.13743261 299:0.022905435 315:0.022905435 323:0.022905435 332:0.022905435 337:0.022905435 349:0.022905435 350:0.068716306 351:0.068716306 363:0.022905435 370:0.045810871 378:0.022905435 397:0.022905435 405:0.022905435 407:0.022905435 408:0.022905435 409:0.022905435 414:0.045810871 418:0.022905435 445:0.068716306 468:0.022905435 484:0.022905435 487:0.022905435 495:0.045810871 509:0.022905435 511:0.045810871 529:0.022905435 533:0.045810871 537:0.045810871 541:0.022905435 553:0.022905435 554:0.022905435 573:0.022905435 587:0.11452718 638:0.022905435 642:0.022905435 644:0.022905435 666:0.022905435 677:0.022905435 735:0.022905435 736:0.022905435 762:0.022905435 773:0.022905435 838:0.022905435 862:0.022905435 865:0.022905435 883:0.18324348 903:0.068716306 925:0.022905435 967:0.022905435 1051:0.022905435 1063:0.22905435 1094:0.068716306 1125:0.022905435 1152:0.18324348 1170:0.045810871 1180:0.022905435 1209:0.022905435 1210:0.045810871 1231:0.045810871 1256:0.045810871 1294:0.045810871 1305:0.022905435 1341:0.022905435 1441:0.022905435 1445:0.022905435 1483:0.045810871 1533:0.022905435 1537:0.022905435 1554:0.022905435 1555:0.022905435 1651:0.022905435 1677:0.045810871 1702:0.13743261 1794:0.045810871 1884:0.3206761 1916:0.045810871 1959:0.022905435 1995:0.022905435 
0.00584188093646841 4:0.091097504 6:0.091097504 7:0.18219501 12:0.18219501 16:0.045548752 17:0.045548752 23:0.091097504 31:0.27329251 33:0.045548752 34:0.045548752 37:0.091097504 40:0.13664626 46:0.045548752 47:0.045548752 50:0.091097504 51:0.13664626 55:0.045548752 56:0.045548752 59:0.13664626 63:0.091097504 67:0.045548752 68:0.045548752 97:0.045548752 100:0.045548752 106:0.045548752 117:0.045548752 119:0.045548752 120:0.045548752 122:0.045548752 123:0.045548752 131:0.091097504 133:0.045548752 156:0.27329251 157:0.045548752 163:0.091097504 197:0.091097504 204:0.091097504 219:0.045548752 254:0.045548752 256:0.22774376 273:0.045548752 278:0.045548752 297:0.18219501 331:0.045548752 342:0.045548752 348:0.045548752 356:0.045548752 381:0.045548752 424:0.045548752 441:0.091097504 448:0.045548752 475:0.045548752 480:0.045548752 489:0.045548752 492:0.045548752 500:0.045548752 511:0.045548752 525:0.091097504 537:0.13664626 541:0.045548752 554:0.045548752 596:0.045548752 612:0.40993877 666:0.045548752 667:0.045548752 670:0.13664626 685:0.091097504 706:0.045548752 707:0.045548752 731:0.045548752 796:0.045548752 807:0.13664626 809:0.045548752 825:0.045548752 834:0.045548752 844:0.045548752 860:0.13664626 862:0.045548752 867:0.045548752 908:0.091097504 931:0.045548752 941:0.045548752 991:0.13664626 998:0.045548752 1045:0.13664626 1094:0.045548752 1138:0.091097504 1160:0.045548752 1163:0.045548752 1248:0.045548752 1316:0.091097504 1321:0.18219501 1381:0.13664626 1412:0.045548752 1417:0.045548752 1444:0.045548752 1451:0.045548752 1481:0.045548752 1500:0.045548752 1586:0.045548752 1638:0.045548752 1657:0.13664626 1664:0.091097504 1679:0.045548752 1694:0.045548752 1825:0.045548752 1884:0.045548752 1939:0.045548752 1958:0.045548752 
0.6120066443582526 7:0.42426407 19:0.14142136 21:0.070710678 31:0.14142136 46:0.070710678 50:0.070710678 54:0.14142136 63:0.070710678 82:0.070710678 121:0.070710678 127:0.070710678 148:0.14142136 176:0.070710678 185:0.070710678 204:0.070710678 211:0.070710678 222:0.070710678 241:0.070710678 244:0.070710678 254:0.14142136 298:0.070710678 331:0.070710678 338:0.070710678 367:0.14142136 370:0.070710678 418:0.070710678 428:0.14142136 468:0.070710678 487:0.070710678 529:0.070710678 530:0.070710678 533:0.070710678 628:0.56568542 636:0.070710678 645:0.070710678 665:0.070710678 680:0.14142136 686:0.14142136 773:0.070710678 779:0.070710678 820:0.070710678 858:0.070710678 937:0.070710678 940:0.070710678 943:0.070710678 999:0.070710678 1003:0.070710678 1011:0.070710678 1063:0.21213203 1079:0.070710678 1117:0.14142136 1125:0.070710678 1126:0.070710678 1164:0.070710678 1210:0.070710678 1212:0.070710678 1237:0.070710678 1312:0.070710678 1344:0.070710678 1404:0.070710678 1433:0.070710678 1485:0.070710678 1522:0.070710678 1602:0.070710678 
0.2230184320420976 2:0.1315587 3:0.043852901 4:0.1315587 13:0.087705802 14:0.1315587 16:0.087705802 17:0.087705802 18:0.1754116 20:0.043852901 27:0.1754116 30:0.043852901 31:0.087705802 34:0.087705802 36:0.043852901 45:0.043852901 47:0.043852901 56:0.043852901 57:0.043852901 64:0.043852901 68:0.087705802 72:0.087705802 73:0.043852901 75:0.043852901 77:0.043852901 82:0.087705802 86:0.043852901 87:0.043852901 90:0.087705802 100:0.087705802 101:0.087705802 102:0.087705802 109:0.1754116 116:0.043852901 117:0.043852901 119:0.1315587 121:0.087705802 123:0.043852901 125:0.043852901 131:0.043852901 141:0.043852901 142:0.043852901 153:0.043852901 169:0.043852901 170:0.043852901 174:0.043852901 179:0.043852901 191:0.1315587 198:0.1315587 202:0.043852901 203:0.043852901 204:0.087705802 205:0.087705802 209:0.043852901 210:0.1315587 211:0.043852901 215:0.043852901 216:0.043852901 217:0.043852901 219:0.043852901 222:0.043852901 224:0.043852901 230:0.043852901 233:0.043852901 234:0.043852901 237:0.043852901 239:0.043852901 241:0.043852901 244:0.043852901 249:0.043852901 250:0.043852901 251:0.043852901 252:0.043852901 255:0.043852901 256:0.043852901 257:0.043852901 259:0.043852901 264:0.043852901 267:0.043852901 273:0.043852901 274:0.043852901 279:0.043852901 282:0.043852901 303:0.043852901 315:0.043852901 325:0.043852901 329:0.043852901 356:0.043852901 365:0.087705802 370:0.043852901 377:0.087705802 378:0.043852901 386:0.043852901 397:0.043852901 407:0.043852901 411:0.2192645 414:0.043852901 431:0.043852901 446:0.1315587 461:0.043852901 467:0.087705802 485:0.043852901 491:0.043852901 494:0.043852901 511:0.043852901 519:0.1315587 525:0.043852901 537:0.087705802 583:0.043852901 594:0.087705802 617:0.087705802 629:0.043852901 647:0.043852901 660:0.043852901 662:0.043852901 667:0.043852901 707:0.043852901 735:0.1315587 754:0.043852901 759:0.043852901 762:0.043852901 789:0.2192645 807:0.043852901 809:0.043852901 825:0.043852901 834:0.043852901 898:0.043852901 902:0.043852901 940:0.043852901 943:0.087705802 967:0.1315587 1040:0.043852901 1062:0.30697031 1079:0.26311741 1088:0.043852901 1089:0.043852901 1125:0.087705802 1127:0.043852901 1149:0.043852901 1164:0.043852901 1188:0.043852901 1200:0.043852901 1208:0.043852901 1210:0.043852901 1248:0.1315587 1256:0.087705802 1265:0.087705802 1409:0.043852901 1454:0.087705802 1483:0.043852901 1490:0.043852901 1506:0.043852901 1556:0.043852901 1576:0.043852901 1676:0.043852901 1709:0.043852901 1792:0.043852901 1800:0.087705802 1819:0.043852901 1840:0.043852901 1853:0.043852901 1856:0.043852901 1897:0.087705802 1959:0.043852901 1965:0.043852901 
0.4356677124438953 7:0.18952451 10:0.037904902 16:0.26533432 17:0.26533432 33:0.037904902 47:0.037904902 60:0.037904902 64:0.11371471 73:0.11371471 85:0.30323922 87:0.037904902 109:0.075809804 111:0.11371471 117:0.037904902 122:0.037904902 124:0.037904902 131:0.075809804 148:0.037904902 174:0.037904902 185:0.075809804 187:0.037904902 189:0.18952451 198:0.037904902 206:0.037904902 219:0.075809804 220:0.15161961 222:0.075809804 279:0.037904902 285:0.15161961 339:0.037904902 353:0.075809804 375:0.037904902 384:0.075809804 434:0.075809804 449:0.075809804 487:0.037904902 490:0.075809804 491:0.037904902 495:0.037904902 509:0.075809804 529:0.037904902 537:0.037904902 587:0.037904902 618:0.037904902 635:0.037904902 660:0.037904902 696:0.075809804 738:0.075809804 759:0.075809804 796:0.037904902 889:0.037904902 893:0.037904902 931:0.37904902 999:0.037904902 1050:0.075809804 1077:0.037904902 1094:0.037904902 1144:0.037904902 1159:0.075809804 1228:0.037904902 1256:0.037904902 1294:0.037904902 1419:0.11371471 1444:0.037904902 1477:0.037904902 1659:0.037904902 1769:0.037904902 1797:0.037904902 1809:0.15161961 1913:0.53066863 
0.7063808051653987 3:0.026098979 7:0.26098979 44:0.026098979 54:0.18269286 57:0.26336243 136:0.41758367 147:0.46978163 148:0.0023726345 187:0.052197959 192:0.0023726345 194:0.0023726345 217:0.17082968 228:0.052197959 245:0.10439592 339:0.0023726345 373:0.026098979 408:0.28471614 414:0.20879184 499:0.026098979 510:0.20879184 529:0.0023726345 541:0.20879184 606:0.11625909 642:0.20167393 689:0.18269286 779:0.078296938 796:0.026098979 1050:0.0023726345 1126:0.0023726345 1152:0.0023726345 1153:0.028471614 1230:0.026098979 1294:0.0023726345 1314:0.16608441 1357:0.12812226 1634:0.1304949 1852:0.1304949 
1.043702982900952 2:0.095563697 3:0.14334554 7:0.047781848 13:0.047781848 14:0.095563697 21:0.047781848 22:0.095563697 27:0.095563697 30:0.047781848 33:0.047781848 36:0.047781848 45:0.095563697 46:0.14334554 47:0.047781848 50:0.047781848 54:0.095563697 59:0.095563697 60:0.047781848 61:0.14334554 67:0.047781848 68:0.19112739 74:0.047781848 77:0.14334554 80:0.047781848 85:0.047781848 87:0.047781848 90:0.19112739 103:0.23890924 110:0.047781848 113:0.095563697 118:0.095563697 119:0.047781848 120:0.047781848 122:0.19112739 125:0.047781848 127:0.047781848 137:0.047781848 138:0.14334554 151:0.047781848 156:0.095563697 157:0.047781848 161:0.047781848 172:0.095563697 187:0.047781848 189:0.047781848 191:0.047781848 206:0.095563697 208:0.047781848 214:0.047781848 219:0.047781848 221:0.047781848 241:0.047781848 249:0.047781848 261:0.047781848 273:0.047781848 277:0.047781848 291:0.047781848 294:0.047781848 297:0.047781848 299:0.095563697 317:0.047781848 329:0.095563697 332:0.047781848 338:0.095563697 348:0.047781848 353:0.047781848 356:0.095563697 363:0.095563697 368:0.047781848 369:0.047781848 370:0.047781848 374:0.047781848 377:0.095563697 403:0.047781848 418:0.047781848 441:0.095563697 455:0.047781848 464:0.047781848 476:0.23890924 484:0.047781848 487:0.047781848 491:0.14334554 493:0.047781848 496:0.047781848 497:0.28669109 500:0.047781848 516:0.047781848 519:0.047781848 528:0.095563697 542:0.047781848 573:0.047781848 574:0.095563697 589:0.047781848 595:0.047781848 636:0.047781848 665:0.047781848 670:0.095563697 677:0.047781848 696:0.047781848 711:0.047781848 727:0.047781848 752:0.095563697 760:0.047781848 769:0.047781848 812:0.047781848 820:0.047781848 862:0.047781848 927:0.095563697 931:0.047781848 943:0.047781848 947:0.095563697 972:0.047781848 990:0.047781848 1007:0.047781848 1026:0.047781848 1118:0.19112739 1140:0.047781848 1146:0.095563697 1195:0.047781848 1196:0.047781848 1197:0.047781848 1200:0.047781848 1201:0.14334554 1209:0.047781848 1210:0.047781848 1227:0.047781848 1250:0.047781848 1271:0.047781848 1279:0.047781848 1325:0.047781848 1411:0.095563697 1433:0.047781848 1487:0.095563697 1495:0.047781848 1506:0.047781848 1534:0.047781848 1555:0.095563697 1578:0.095563697 1703:0.047781848 1752:0.095563697 1755:0.047781848 1879:0.095563697 1961:0.047781848 
0.02408573029099402 1:0.037992951 2:0.037992951 3:0.012664317 4:0.037992951 6:0.050657268 7:0.012664317 13:0.012664317 14:0.025328634 16:0.025328634 17:0.025328634 20:0.012664317 26:0.012664317 27:0.025328634 30:0.012664317 31:0.050657268 33:0.037992951 34:0.037992951 43:0.012664317 56:0.012664317 59:0.012664317 64:0.16463612 67:0.025328634 69:0.012664317 72:0.025328634 73:0.16463612 82:0.025328634 86:0.012664317 87:0.012664317 90:0.012664317 96:0.012664317 101:0.025328634 102:0.025328634 106:0.012664317 109:0.012664317 117:0.012664317 119:0.012664317 120:0.025328634 124:0.012664317 140:0.050657268 153:0.012664317 156:0.012664317 159:0.012664317 166:0.037992951 168:0.037992951 170:0.012664317 174:0.012664317 179:0.012664317 183:0.91183082 200:0.012664317 205:0.025328634 210:0.012664317 216:0.012664317 224:0.012664317 230:0.012664317 233:0.012664317 234:0.012664317 237:0.012664317 239:0.025328634 241:0.012664317 244:0.012664317 249:0.012664317 250:0.012664317 251:0.012664317 252:0.012664317 257:0.012664317 259:0.012664317 264:0.012664317 267:0.012664317 269:0.088650219 270:0.025328634 274:0.012664317 279:0.012664317 280:0.037992951 282:0.037992951 289:0.025328634 303:0.012664317 315:0.025328634 331:0.012664317 346:0.037992951 355:0.012664317 377:0.012664317 378:0.012664317 381:0.012664317 386:0.050657268 389:0.012664317 395:0.025328634 413:0.012664317 432:0.012664317 450:0.012664317 457:0.10131454 483:0.025328634 525:0.012664317 526:0.012664317 547:0.012664317 558:0.012664317 583:0.012664317 587:0.012664317 623:0.012664317 627:0.012664317 636:0.012664317 637:0.025328634 660:0.012664317 707:0.025328634 711:0.025328634 729:0.012664317 731:0.012664317 737:0.012664317 762:0.012664317 808:0.012664317 834:0.050657268 837:0.012664317 860:0.012664317 902:0.025328634 937:0.025328634 940:0.025328634 943:0.012664317 965:0.012664317 967:0.012664317 969:0.10131454 972:0.012664317 1008:0.012664317 1023:0.025328634 1078:0.10131454 1138:0.012664317 1145:0.012664317 1168:0.012664317 1202:0.012664317 1234:0.012664317 1248:0.025328634 1307:0.012664317 1321:0.012664317 1328:0.012664317 1397:0.050657268 1466:0.012664317 1483:0.012664317 1508:0.012664317 1550:0.012664317 1556:0.012664317 1626:0.025328634 1679:0.012664317 1703:0.012664317 1709:0.012664317 1733:0.012664317 1770:0.025328634 1853:0.012664317 1898:0.012664317 1940:0.012664317 1983:0.11397885 
0.5016150209059973 6:0.042815658 28:0.53519572 42:0.53519572 47:0.021407829 58:0.021407829 127:0.021407829 142:0.042815658 169:0.021407829 183:0.085631316 204:0.021407829 205:0.021407829 207:0.042815658 221:0.021407829 299:0.021407829 396:0.064223487 579:0.62082704 707:0.085631316 764:0.021407829 823:0.042815658 932:0.021407829 1015:0.021407829 1159:0.021407829 1312:0.064223487 1540:0.021407829 1554:0.021407829 1576:0.021407829 1584:0.021407829 1595:0.042815658 1670:0.021407829 1795:0.021407829 1960:0.021407829 1990:0.021407829 1991:0.021407829 
0.5874091656749175 4:0.03479445 12:0.03479445 19:0.03479445 26:0.8350668 34:0.4871223 58:0.03479445 66:0.17397225 155:0.03479445 404:0.03479445 434:0.03479445 525:0.03479445 557:0.03479445 744:0.03479445 1009:0.03479445 1050:0.03479445 1062:0.0695889 1063:0.03479445 1159:0.03479445 1218:0.03479445 1273:0.03479445 1314:0.03479445 1654:0.03479445 1793:0.03479445 1796:0.03479445 1798:0.03479445 1837:0.0695889 
0.05190310686604691 4:0.016692188 6:0.016692188 26:0.016692188 28:0.66768753 42:0.66768753 47:0.016692188 52:0.30045939 142:0.016692188 355:0.016692188 363:0.016692188 370:0.016692188 375:0.016692188 380:0.016692188 432:0.033384376 500:0.016692188 541:0.016692188 579:0.10015313 623:0.016692188 822:0.016692188 899:0.016692188 1135:0.016692188 1153:0.016692188 1218:0.016692188 1230:0.016692188 1312:0.016692188 1364:0.016692188 1448:0.016692188 1613:0.016692188 1670:0.016692188 1873:0.016692188 
0.09461910776229258 1:0.0949158 2:0.0949158 3:0.0474579 4:0.2372895 6:0.0474579 7:0.0949158 12:0.0474579 13:0.0474579 20:0.0474579 21:0.0474579 23:0.0474579 26:0.0474579 37:0.0949158 40:0.0474579 46:0.0949158 50:0.0474579 54:0.0474579 57:0.1423737 61:0.0949158 68:0.0949158 85:0.0949158 90:0.0474579 97:0.0949158 100:0.0474579 113:0.0949158 120:0.0474579 122:0.0474579 124:0.0474579 133:0.0474579 140:0.0474579 147:0.0949158 185:0.0474579 187:0.0474579 203:0.0474579 209:0.0474579 218:0.0474579 219:0.0474579 223:0.0949158 229:0.0474579 239:0.0474579 265:0.0474579 275:0.0474579 280:0.0474579 282:0.0474579 283:0.0474579 299:0.0949158 303:0.0474579 307:0.0474579 318:0.0474579 329:0.0474579 332:0.0474579 339:0.0474579 353:0.0474579 354:0.0949158 356:0.0474579 363:0.1423737 372:0.0474579 397:0.0474579 404:0.0949158 416:0.0474579 426:0.0474579 432:0.0474579 435:0.0474579 441:0.0474579 449:0.0949158 456:0.0474579 461:0.0474579 467:0.0474579 492:0.0474579 526:0.0474579 534:0.0474579 541:0.2372895 545:0.1898316 579:0.2847474 586:0.0474579 627:0.0474579 629:0.0474579 642:0.0474579 645:0.1898316 648:0.0474579 649:0.1898316 672:0.0474579 692:0.1898316 695:0.0474579 716:0.0474579 728:0.0949158 744:0.0474579 747:0.0474579 749:0.0474579 752:0.0474579 757:0.0474579 790:0.0474579 812:0.0474579 816:0.0474579 832:0.0949158 862:0.0949158 940:0.0474579 944:0.0474579 974:0.0474579 1027:0.0474579 1076:0.0474579 1089:0.0474579 1137:0.0474579 1138:0.0474579 1148:0.0474579 1195:0.0474579 1224:0.0474579 1233:0.0949158 1329:0.0949158 1362:0.0474579 1443:0.0474579 1475:0.0474579 1481:0.0474579 1488:0.0949158 1543:0.1423737 1605:0.0474579 1611:0.0474579 1679:0.0474579 1682:0.0474579 1733:0.0474579 1746:0.2847474 1755:0.0474579 1857:0.0474579 1858:0.0474579 1881:0.2372895 1923:0.2372895 1933:0.0474579 1971:0.0474579 
0.2221751528918379 16:0.18490007 17:0.18490007 30:0.092450033 33:0.092450033 36:0.092450033 37:0.18490007 43:0.2773501 44:0.092450033 56:0.092450033 59:0.092450033 61:0.092450033 109:0.092450033 111:0.092450033 119:0.092450033 123:0.092450033 144:0.18490007 148:0.092450033 153:0.092450033 156:0.092450033 163:0.092450033 189:0.092450033 206:0.092450033 209:0.2773501 211:0.092450033 290:0.092450033 292:0.092450033 348:0.092450033 412:0.2773501 450:0.092450033 470:0.18490007 509:0.18490007 529:0.092450033 547:0.092450033 649:0.46225016 738:0.092450033 762:0.092450033 1000:0.092450033 1223:0.092450033 1379:0.18490007 1384:0.092450033 1463:0.092450033 1508:0.092450033 1659:0.092450033 1677:0.18490007 1880:0.092450033 
0.4931719282292439 1:0.0949158 156:0.3796632 163:0.0949158 182:0.1898316 256:0.3796632 278:0.0949158 294:0.0949158 370:0.0949158 461:0.0949158 480:0.0949158 519:0.0949158 530:0.0949158 578:0.0949158 586:0.0949158 638:0.0949158 812:0.0949158 902:0.0949158 917:0.0949158 941:0.2847474 1004:0.2847474 1036:0.0949158 1063:0.0949158 1130:0.0949158 1206:0.0949158 1341:0.3796632 1345:0.0949158 1506:0.0949158 1765:0.1898316 1977:0.3796632 
0.2966651202069405 2:0.064617067 4:0.25846827 7:0.032308533 21:0.0969256 22:0.032308533 45:0.032308533 46:0.032308533 47:0.064617067 54:0.12923413 68:0.12923413 77:0.064617067 80:0.032308533 83:0.064617067 86:0.064617067 90:0.064617067 92:0.032308533 100:0.032308533 110:0.032308533 111:0.032308533 113:0.032308533 118:0.032308533 121:0.032308533 123:0.064617067 131:0.064617067 142:0.0969256 151:0.032308533 163:0.032308533 177:0.032308533 187:0.032308533 191:0.0969256 192:0.032308533 193:0.032308533 194:0.032308533 204:0.032308533 206:0.22615973 208:0.064617067 211:0.032308533 217:0.032308533 230:0.064617067 241:0.12923413 242:0.064617067 245:0.032308533 255:0.032308533 256:0.032308533 273:0.032308533 299:0.032308533 305:0.12923413 329:0.032308533 342:0.032308533 345:0.032308533 353:0.032308533 356:0.032308533 363:0.032308533 364:0.032308533 369:0.032308533 370:0.12923413 377:0.032308533 387:0.064617067 397:0.064617067 428:0.0969256 434:0.2907768 438:0.064617067 442:0.064617067 444:0.032308533 446:0.032308533 450:0.032308533 467:0.032308533 476:0.1938512 483:0.032308533 484:0.0969256 490:0.032308533 491:0.064617067 497:0.032308533 499:0.032308533 509:0.032308533 516:0.032308533 519:0.064617067 526:0.064617067 528:0.032308533 534:0.064617067 535:0.032308533 552:0.032308533 554:0.12923413 557:0.032308533 559:0.064617067 573:0.032308533 574:0.032308533 587:0.032308533 595:0.12923413 636:0.032308533 638:0.032308533 643:0.0969256 644:0.12923413 645:0.12923413 649:0.064617067 660:0.032308533 696:0.032308533 711:0.064617067 716:0.032308533 719:0.032308533 760:0.0969256 772:0.032308533 784:0.064617067 808:0.032308533 852:0.032308533 866:0.032308533 903:0.032308533 917:0.064617067 955:0.064617067 972:0.12923413 974:0.032308533 1023:0.064617067 1029:0.3877024 1031:0.032308533 1032:0.032308533 1042:0.0969256 1050:0.032308533 1054:0.032308533 1059:0.032308533 1063:0.0969256 1097:0.032308533 1137:0.032308533 1143:0.032308533 1150:0.064617067 1207:0.032308533 1222:0.064617067 1223:0.0969256 1224:0.032308533 1250:0.0969256 1265:0.032308533 1268:0.064617067 1331:0.064617067 1362:0.032308533 1380:0.032308533 1410:0.032308533 1482:0.032308533 1487:0.032308533 1522:0.064617067 1540:0.0969256 1548:0.064617067 1556:0.032308533 1580:0.032308533 1588:0.032308533 1604:0.0969256 1629:0.032308533 1655:0.064617067 1701:0.032308533 1703:0.032308533 1709:0.032308533 1759:0.032308533 1769:0.2907768 1782:0.032308533 1792:0.032308533 1817:0.032308533 1960:0.032308533 2001:0.032308533 
0.251365426427682 12:0.066519011 19:0.066519011 31:0.066519011 33:0.066519011 36:0.19955703 41:0.19955703 45:0.066519011 47:0.13303802 61:0.066519011 78:0.066519011 81:0.066519011 88:0.066519011 98:0.066519011 109:0.066519011 110:0.066519011 113:0.066519011 116:0.33259505 121:0.066519011 122:0.066519011 131:0.13303802 151:0.066519011 174:0.066519011 177:0.066519011 179:0.19955703 187:0.066519011 206:0.26607604 241:0.13303802 242:0.066519011 332:0.066519011 370:0.066519011 400:0.066519011 403:0.33259505 434:0.13303802 477:0.066519011 490:0.066519011 516:0.066519011 529:0.13303802 537:0.19955703 543:0.26607604 557:0.066519011 645:0.19955703 677:0.066519011 690:0.19955703 715:0.13303802 760:0.066519011 779:0.066519011 817:0.13303802 821:0.066519011 838:0.066519011 887:0.066519011 903:0.066519011 1020:0.066519011 1066:0.066519011 1088:0.066519011 1200:0.066519011 1406:0.066519011 1482:0.19955703 1531:0.19955703 1548:0.066519011 1629:0.066519011 1655:0.066519011 1677:0.066519011 1921:0.066519011 
1.562499654769541 1:0.11644287 2:0.021171431 4:0.031757147 5:0.010585716 6:0.063514293 7:0.010585716 12:0.010585716 20:0.010585716 21:0.021171431 26:0.010585716 28:0.12702859 29:0.25405717 33:0.010585716 34:0.010585716 36:0.063514293 45:0.021171431 46:0.021171431 47:0.010585716 52:0.16937145 57:0.010585716 58:0.010585716 59:0.031757147 70:0.010585716 81:0.010585716 83:0.031757147 90:0.021171431 96:0.010585716 100:0.021171431 103:0.010585716 110:0.010585716 117:0.010585716 119:0.010585716 121:0.021171431 122:0.010585716 124:0.010585716 131:0.010585716 140:0.031757147 159:0.010585716 166:0.031757147 185:0.031757147 191:0.010585716 205:0.010585716 206:0.010585716 207:0.042342862 211:0.010585716 218:0.26464289 219:0.010585716 223:0.010585716 254:0.010585716 262:0.021171431 269:0.021171431 285:0.031757147 289:0.10585716 315:0.021171431 319:0.031757147 327:0.12702859 331:0.010585716 338:0.010585716 355:0.010585716 359:0.010585716 365:0.021171431 378:0.010585716 381:0.010585716 388:0.010585716 389:0.010585716 397:0.010585716 407:0.021171431 408:0.010585716 415:0.042342862 416:0.010585716 418:0.021171431 432:0.084685724 446:0.010585716 454:0.010585716 456:0.010585716 457:0.042342862 468:0.010585716 472:0.010585716 482:0.010585716 483:0.010585716 490:0.010585716 494:0.031757147 497:0.010585716 500:0.031757147 525:0.052928578 526:0.010585716 535:0.021171431 546:0.021171431 552:0.010585716 553:0.010585716 558:0.010585716 559:0.010585716 579:0.80451438 583:0.063514293 584:0.021171431 590:0.010585716 599:0.010585716 613:0.021171431 616:0.010585716 622:0.12702859 623:0.031757147 629:0.063514293 637:0.010585716 653:0.010585716 684:0.010585716 688:0.010585716 697:0.010585716 702:0.010585716 707:0.010585716 716:0.021171431 731:0.010585716 737:0.031757147 751:0.010585716 752:0.010585716 756:0.021171431 764:0.042342862 806:0.021171431 825:0.010585716 836:0.010585716 853:0.010585716 899:0.010585716 937:0.042342862 938:0.010585716 944:0.010585716 957:0.010585716 965:0.010585716 969:0.12702859 983:0.010585716 991:0.010585716 992:0.021171431 994:0.010585716 1006:0.010585716 1025:0.010585716 1059:0.021171431 1062:0.010585716 1078:0.1376143 1143:0.010585716 1178:0.010585716 1180:0.010585716 1186:0.042342862 1212:0.010585716 1215:0.010585716 1218:0.010585716 1223:0.021171431 1231:0.021171431 1246:0.010585716 1256:0.010585716 1277:0.010585716 1307:0.010585716 1312:0.010585716 1335:0.031757147 1349:0.010585716 1400:0.010585716 1401:0.010585716 1432:0.010585716 1459:0.010585716 1469:0.021171431 1490:0.010585716 1491:0.010585716 1507:0.010585716 1509:0.021171431 1516:0.010585716 1548:0.010585716 1581:0.021171431 1586:0.010585716 1590:0.010585716 1617:0.010585716 1629:0.010585716 1655:0.010585716 1664:0.010585716 1705:0.031757147 1712:0.010585716 1724:0.021171431 1782:0.010585716 1792:0.010585716 1793:0.010585716 1794:0.063514293 1817:0.010585716 1842:0.021171431 1863:0.010585716 1873:0.010585716 1889:0.010585716 1923:0.010585716 1930:0.010585716 1995:0.010585716 
0.2521117808387436 4:0.2125976 7:0.1594482 13:0.0531494 16:0.0531494 17:0.0531494 30:0.2125976 31:0.0531494 36:0.1062988 37:0.0531494 43:0.1594482 44:0.0531494 47:0.0531494 54:0.2125976 55:0.1062988 63:0.0531494 67:0.0531494 83:0.1062988 87:0.0531494 120:0.0531494 131:0.1062988 148:0.0531494 155:0.0531494 161:0.265747 169:0.0531494 184:0.0531494 211:0.0531494 260:0.1594482 307:0.0531494 324:0.0531494 326:0.0531494 331:0.1594482 332:0.0531494 345:0.1594482 348:0.0531494 364:0.0531494 367:0.4783446 414:0.1594482 427:0.1594482 448:0.2125976 466:0.2125976 468:0.0531494 492:0.0531494 509:0.0531494 523:0.0531494 529:0.0531494 530:0.0531494 628:0.2125976 728:0.0531494 735:0.0531494 737:0.0531494 779:0.0531494 820:0.0531494 821:0.0531494 852:0.0531494 861:0.0531494 885:0.0531494 973:0.0531494 991:0.0531494 994:0.1062988 999:0.0531494 1063:0.0531494 1104:0.0531494 1149:0.0531494 1182:0.0531494 1207:0.0531494 1257:0.0531494 1315:0.0531494 1362:0.0531494 1443:0.0531494 1468:0.0531494 1508:0.2125976 1549:0.0531494 1759:0.0531494 1939:0.0531494 
0.2147464301819108 1:0.063952948 3:0.31976474 4:0.1279059 7:0.031976474 13:0.095929422 16:0.063952948 17:0.063952948 21:0.063952948 26:0.1279059 27:0.063952948 31:0.031976474 34:0.1279059 41:0.031976474 42:0.031976474 43:0.031976474 44:0.063952948 45:0.095929422 46:0.031976474 47:0.063952948 51:0.063952948 54:0.031976474 55:0.031976474 57:0.031976474 63:0.063952948 66:0.031976474 67:0.031976474 74:0.095929422 77:0.095929422 79:0.031976474 81:0.031976474 83:0.063952948 92:0.031976474 94:0.031976474 96:0.031976474 98:0.031976474 100:0.031976474 106:0.1279059 109:0.031976474 113:0.031976474 116:0.031976474 119:0.031976474 120:0.095929422 121:0.031976474 122:0.031976474 123:0.095929422 127:0.063952948 131:0.031976474 147:0.031976474 151:0.031976474 152:0.063952948 155:0.19185884 157:0.031976474 167:0.063952948 170:0.031976474 171:0.031976474 176:0.031976474 177:0.063952948 184:0.095929422 185:0.063952948 197:0.031976474 200:0.031976474 204:0.031976474 211:0.031976474 219:0.031976474 239:0.031976474 244:0.063952948 256:0.063952948 261:0.031976474 271:0.15988237 280:0.031976474 281:0.063952948 282:0.031976474 318:0.031976474 322:0.031976474 325:0.031976474 332:0.031976474 338:0.063952948 342:0.031976474 348:0.095929422 356:0.063952948 374:0.031976474 387:0.031976474 403:0.1279059 418:0.031976474 441:0.22383532 442:0.063952948 445:0.031976474 450:0.095929422 453:0.063952948 456:0.063952948 466:0.031976474 467:0.031976474 468:0.031976474 485:0.031976474 488:0.063952948 492:0.095929422 494:0.031976474 496:0.031976474 498:0.031976474 500:0.063952948 510:0.031976474 511:0.095929422 518:0.031976474 529:0.031976474 530:0.031976474 533:0.063952948 537:0.031976474 550:0.15988237 554:0.031976474 610:0.063952948 637:0.031976474 641:0.063952948 650:0.031976474 667:0.063952948 670:0.031976474 675:0.031976474 677:0.031976474 718:0.031976474 732:0.1279059 749:0.031976474 760:0.063952948 769:0.031976474 770:0.031976474 773:0.063952948 796:0.095929422 797:0.095929422 820:0.031976474 825:0.063952948 834:0.22383532 836:0.031976474 838:0.031976474 844:0.031976474 871:0.063952948 880:0.063952948 887:0.063952948 889:0.031976474 903:0.031976474 920:0.063952948 938:0.28778827 967:0.095929422 981:0.031976474 991:0.031976474 999:0.031976474 1004:0.063952948 1017:0.063952948 1024:0.031976474 1029:0.031976474 1039:0.095929422 1043:0.031976474 1061:0.031976474 1062:0.031976474 1063:0.15988237 1066:0.031976474 1077:0.063952948 1082:0.063952948 1095:0.031976474 1125:0.031976474 1129:0.063952948 1149:0.031976474 1182:0.063952948 1230:0.031976474 1252:0.031976474 1256:0.031976474 1270:0.031976474 1329:0.031976474 1361:0.19185884 1384:0.031976474 1441:0.031976474 1443:0.031976474 1482:0.031976474 1486:0.031976474 1540:0.063952948 1552:0.095929422 1602:0.031976474 1610:0.031976474 1612:0.095929422 1629:0.031976474 1757:0.063952948 1772:0.063952948 1797:0.063952948 1823:0.031976474 1858:0.031976474 1859:0.095929422 1884:0.031976474 1940:0.031976474 1971:0.063952948 
0.1937676905491151 1:0.054113378 3:0.027056689 20:0.027056689 30:0.13528345 37:0.027056689 45:0.027056689 47:0.054113378 54:0.027056689 56:0.16234013 57:0.054113378 59:0.054113378 67:0.10822676 68:0.054113378 70:0.027056689 77:0.027056689 78:0.027056689 79:0.81170067 80:0.027056689 83:0.027056689 90:0.081170067 92:0.027056689 97:0.081170067 118:0.027056689 124:0.027056689 131:0.027056689 133:0.027056689 142:0.054113378 155:0.027056689 164:0.027056689 167:0.027056689 172:0.027056689 177:0.027056689 179:0.027056689 185:0.027056689 191:0.081170067 200:0.027056689 204:0.027056689 206:0.027056689 221:0.027056689 223:0.081170067 230:0.027056689 244:0.027056689 260:0.054113378 263:0.027056689 285:0.054113378 291:0.027056689 297:0.027056689 299:0.081170067 315:0.027056689 345:0.027056689 354:0.027056689 363:0.027056689 368:0.027056689 369:0.054113378 377:0.081170067 379:0.027056689 404:0.027056689 413:0.027056689 430:0.027056689 445:0.027056689 448:0.027056689 462:0.027056689 465:0.027056689 484:0.027056689 490:0.054113378 494:0.027056689 497:0.027056689 499:0.027056689 500:0.054113378 519:0.027056689 536:0.027056689 552:0.027056689 580:0.027056689 586:0.081170067 595:0.027056689 629:0.054113378 648:0.027056689 695:0.027056689 717:0.027056689 740:0.054113378 779:0.027056689 784:0.054113378 806:0.027056689 808:0.027056689 844:0.027056689 855:0.054113378 866:0.027056689 878:0.027056689 900:0.027056689 930:0.027056689 945:0.027056689 947:0.081170067 948:0.027056689 998:0.10822676 1007:0.027056689 1023:0.027056689 1029:0.027056689 1106:0.027056689 1170:0.027056689 1172:0.027056689 1212:0.027056689 1224:0.027056689 1229:0.081170067 1250:0.081170067 1279:0.027056689 1281:0.027056689 1290:0.027056689 1380:0.027056689 1428:0.027056689 1482:0.10822676 1483:0.054113378 1488:0.21645351 1534:0.054113378 1540:0.027056689 1549:0.081170067 1576:0.16234013 1607:0.027056689 1703:0.027056689 1809:0.027056689 1848:0.027056689 1877:0.027056689 1931:0.054113378 1958:0.027056689 
0.2499173763877952 4:0.11899282 7:0.029748206 21:0.029748206 22:0.029748206 33:0.029748206 36:0.089244618 41:0.059496412 45:0.059496412 51:0.62471232 59:0.029748206 67:0.029748206 68:0.029748206 69:0.11899282 74:0.029748206 77:0.059496412 81:0.029748206 83:0.029748206 88:0.089244618 90:0.029748206 92:0.059496412 103:0.029748206 110:0.029748206 116:0.089244618 117:0.029748206 118:0.029748206 119:0.089244618 122:0.029748206 131:0.029748206 138:0.029748206 159:0.029748206 172:0.11899282 177:0.029748206 185:0.059496412 187:0.029748206 190:0.029748206 206:0.029748206 214:0.029748206 218:0.029748206 230:0.029748206 241:0.029748206 242:0.17848924 246:0.11899282 273:0.089244618 288:0.059496412 289:0.029748206 295:0.029748206 299:0.059496412 306:0.059496412 315:0.029748206 329:0.059496412 332:0.029748206 339:0.029748206 342:0.029748206 348:0.029748206 377:0.029748206 397:0.029748206 401:0.029748206 438:0.11899282 442:0.29748206 464:0.029748206 476:0.029748206 477:0.029748206 483:0.029748206 484:0.029748206 500:0.059496412 516:0.029748206 518:0.029748206 525:0.029748206 528:0.029748206 543:0.029748206 574:0.029748206 578:0.029748206 586:0.029748206 652:0.029748206 769:0.029748206 817:0.089244618 854:0.029748206 865:0.14874103 866:0.029748206 871:0.029748206 887:0.029748206 912:0.059496412 947:0.029748206 983:0.029748206 998:0.059496412 1020:0.20823744 1073:0.029748206 1170:0.029748206 1171:0.029748206 1212:0.029748206 1221:0.029748206 1222:0.029748206 1223:0.029748206 1293:0.089244618 1361:0.38672668 1363:0.029748206 1369:0.029748206 1462:0.029748206 1483:0.029748206 1487:0.059496412 1538:0.029748206 1552:0.029748206 1556:0.059496412 1677:0.029748206 1702:0.029748206 1725:0.029748206 1760:0.029748206 1790:0.029748206 1879:0.14874103 1889:0.089244618 2002:0.029748206 
0.2070746395938188 1:0.019952172 4:0.059856516 7:0.079808688 10:0.019952172 13:0.019952172 20:0.019952172 27:0.1396652 30:0.21947389 31:0.039904344 33:0.019952172 36:0.039904344 45:0.019952172 46:0.039904344 51:0.019952172 54:0.019952172 55:0.019952172 59:0.019952172 61:0.059856516 67:0.019952172 68:0.019952172 69:0.099760861 77:0.019952172 83:0.019952172 86:0.079808688 90:0.019952172 92:0.019952172 97:0.019952172 98:0.059856516 100:0.019952172 109:0.039904344 111:0.039904344 113:0.019952172 122:0.079808688 123:0.019952172 131:0.019952172 142:0.039904344 151:0.039904344 168:0.019952172 169:0.019952172 177:0.019952172 179:0.3591391 185:0.019952172 187:0.019952172 191:0.019952172 202:0.059856516 203:0.019952172 204:0.039904344 206:0.17956955 211:0.019952172 217:0.079808688 219:0.019952172 221:0.079808688 241:0.039904344 244:0.019952172 256:0.039904344 273:0.019952172 285:0.019952172 291:0.039904344 294:0.15961738 325:0.019952172 348:0.019952172 356:0.039904344 369:0.019952172 370:0.039904344 390:0.33918693 393:0.019952172 428:0.019952172 431:0.019952172 434:0.15961738 444:0.019952172 450:0.019952172 468:0.019952172 477:0.019952172 516:0.17956955 525:0.19952172 543:0.039904344 552:0.039904344 555:0.019952172 573:0.019952172 587:0.079808688 595:0.019952172 606:0.059856516 616:0.019952172 623:0.059856516 626:0.019952172 635:0.019952172 644:0.079808688 647:0.039904344 693:0.019952172 699:0.059856516 707:0.019952172 713:0.019952172 715:0.079808688 716:0.059856516 719:0.019952172 736:0.099760861 772:0.059856516 777:0.019952172 789:0.019952172 806:0.019952172 817:0.53870865 857:0.019952172 872:0.039904344 903:0.019952172 943:0.019952172 953:0.019952172 991:0.019952172 1010:0.079808688 1025:0.019952172 1029:0.21947389 1064:0.019952172 1088:0.059856516 1089:0.099760861 1126:0.019952172 1143:0.019952172 1146:0.019952172 1181:0.019952172 1186:0.019952172 1223:0.019952172 1231:0.059856516 1255:0.019952172 1272:0.039904344 1299:0.019952172 1376:0.019952172 1378:0.019952172 1428:0.019952172 1464:0.019952172 1469:0.019952172 1482:0.039904344 1508:0.019952172 1534:0.019952172 1548:0.019952172 1654:0.019952172 1759:0.019952172 1760:0.059856516 1848:0.019952172 1889:0.019952172 1940:0.019952172 1956:0.019952172 1958:0.019952172 
