solver_type L2R_L2LOSS_SVC_DUAL
nr_class 2
label 1 -1
nr_feature 4009
bias -1
w
1.894213878046652 
0.180963069664101 
-0.07359474669905457 
0.3824121434737912 
-0.4410022330457384 
0.8614641210432341 
0.3856511926052252 
-0.1996060605074357 
-0.1996060605074357 
-0.7095494502884172 
-0.172081013185289 
1.103759763077732 
-0.1100862622207679 
-0.2289376042618389 
0.4873011390640425 
0.5975829213729702 
0.5975829213729702 
-1.472638912713045 
0.8279594055373768 
-0.2084894181416488 
-0.178982714661902 
-0.3961453824220853 
0.1870662480129676 
-1.070583020000597 
0.02092487009184306 
0.5959110261502756 
0.376725581479447 
0.71146555485962 
-0.6211928040188949 
0.7729076363603706 
0.3564065606167188 
-0.1577637725143737 
-0.2866793701552029 
0.648199863279692 
0.2788003480483612 
0.7021599303585417 
1.147941621822578 
0.2117526727418429 
-0.2458766313833981 
0.2889218733405278 
0.4462568606774802 
0.9606047379139625 
0.2925379728792966 
0.4224925153446498 
0.04326123423747293 
0.02032891047658741 
0.06714816671626792 
0.1475104416140847 
-1.435714270488711 
0.5964045933439728 
0.7188341381454988 
0.4399433737863581 
-0.0135050266477105 
-0.06019266432903992 
0.05351819370006222 
0.7495208193722269 
0.5906385412763682 
0.7126156839969929 
0.1308869432471046 
0.5315216346034747 
0.2028561770809986 
-0.666733373220417 
0.294185200258151 
-0.3253654529372947 
-0.7732716097837005 
0.3144610514324408 
0.07441150265336635 
-0.05828864422563781 
-0.01203749403381006 
1.079022841319425 
0.3331623063175903 
0.1677461606627298 
-0.3911375005275732 
-0.6879846339899274 
-0.5962118382676322 
-0.9727898664252257 
0.2021855248405488 
0.4724436249712372 
0.6820103217437606 
-0.2833336878567148 
0.4792231364186516 
0.922561744864916 
-0.2006062243734054 
-0.9495412109436573 
0.676306592579994 
0.576106370253951 
0.3196120808160263 
0.2765430578461073 
0.007091277763175392 
0.0007094741708093504 
0.1529518792086944 
0.4100487375790087 
-0.6821962856560832 
0.04619591980977708 
0.04453663420287488 
0.5510676163323617 
-0.3897381701334983 
0.5823749606734542 
-0.7744309343498791 
0.09391601308011427 
0.3985557515616139 
0.248597784557241 
0.007285827216251422 
0.1303318336915992 
-0.5557206071599316 
0.312229527269198 
0.3372161307339734 
-0.09172616511637788 
0.08241058974404641 
0.3969351629537634 
0.3635770921496019 
-0.5350298346694699 
0.06715105834874036 
-0.4288658978465852 
0.1325000691157559 
0.3033433267494368 
0.1131079115832761 
-0.6453422994542347 
0.01734909471429523 
0.4238508418945696 
0.06630713062286192 
0.193903443078598 
-0.2595387302993113 
0.381729885937372 
0.2842473099063598 
-0.4038865741680267 
-0.6601401154248904 
-0.2299853395866094 
0.3883969086782155 
-0.1448492950248594 
0.04340272139356501 
0.4199324902146297 
0.05526779679047461 
-0.5743080265614083 
-0.09873983290173032 
0.5810688467229164 
0.5930974040286587 
-0.1783034083240997 
0.1347017714467475 
0.4975726857737751 
-0.04852211739694343 
0.7440643332390926 
0.5021378466825119 
0.1634426722273308 
0.03021512909410021 
-0.09766482440630833 
0.2342093145037828 
0.05082814530006286 
0.01160509004618228 
-0.4144789857284182 
0.3315235254805604 
0.3732413032228222 
0.2584249419919443 
-0.08084354988776207 
0.3916391224995772 
1.477155712238617 
-0.4197066585114841 
0.02863266689819089 
0.2262104888475706 
-0.4088060755842488 
0.2811388319079675 
-1.517110765969308 
-0.5179867253913782 
-1.816673000217526 
-0.005981083592482511 
0.4906038490665984 
0.364349749238893 
0.2886880595012625 
0.499121449342379 
0.4991747608370498 
0.2765345603731249 
-0.3907340117449437 
-0.2439986226611914 
0.337975420442405 
-0.01127978559398008 
-0.5832103669853124 
-0.4888665697296359 
-0.3143513074176914 
0.1538305508832762 
-0.9294447583472876 
0.09487845137341501 
0.1290428416458291 
0.7169793068658514 
-0.3241019557007935 
-0.1090460384975099 
0.09323960076658068 
0.445297048444686 
0.2681379571947959 
0.3617652522949645 
0.1080365117828886 
0.08904195903159121 
0.01443511785235955 
0.04777744494113197 
0.01356089358779105 
-1.650484582849493 
0.03202946619912699 
0.3210278936401588 
0.4261400883658981 
-0.1806564648903077 
-0.2704337414075314 
0.2471147631462718 
-0.1572261056213538 
0.159878812820975 
0.2200874136425184 
0.2605635694056211 
0.7398212936101973 
0.1958269115669876 
0.8104734832005259 
0.559337081150788 
0.163613763935952 
0.1649668467743136 
-0.389564942537958 
-0.9186664018335708 
0.08166907929589068 
0.05181796175101726 
0.2049318922269449 
0.2390366288411957 
0.01847293014840081 
-0.07040521041845471 
-0.02018082396130404 
0.1914181086555113 
-0.5586175904053817 
0.1876162907469584 
0.1021314215444463 
-0.05137193450371955 
-0.05137193450371955 
-0.05137193450371955 
0.4437455127808495 
0.05681905762022956 
-0.2307538005457043 
0.05416032548873345 
0.04981301430496412 
0.2514652733721648 
0.2817237320878919 
-0.07887323270354711 
-0.6758304469965513 
0.1176497479081956 
0.659933954664728 
-0.2567630450214546 
-0.1620108023494399 
-0.2305660659752884 
0.3124686398601864 
-0.1237901683166608 
0.261982318343744 
0.1983593599701892 
-0.0269616372316215 
-0.2026053760677996 
-0.05459037566085743 
0.4002793816627235 
0.2501983837376191 
0.2146344518257343 
0.1817376809132333 
0.2441679392036424 
-0.1425968785702373 
0.7468620757744832 
0.3739858734214388 
0.2453207006396942 
0.4278732986192556 
0.1992778757808018 
-0.7255172080734544 
0.1358873508530465 
0.1612127666568567 
0.5879552055335602 
0.2322683551560027 
0.9456688049901502 
0.06043458621881163 
0.1260837914387802 
-0.1526627388196467 
0.2153036321148437 
0.1236517436945617 
-1.066442794788484 
-0.2990370836152104 
0.217134678815072 
0.1992778757808018 
-0.3868365957355596 
-0.2197345065274931 
-0.01330731720754109 
0.2143252994166376 
0.2265809293870735 
0.629342400067747 
-0.317764542929125 
0.1353896592496431 
0.3478580388522106 
-0.1960003209066815 
0.184976981158167 
-0.2147210790590037 
-0.7855996213977212 
0.01155534743099709 
0.4078407203764226 
-6.746747887370983e-005 
0.1142800792822335 
0.07638634456364689 
-0.2698206642143229 
0.4329122403713987 
0.1645745635983044 
-0.4767563678207246 
-0.6993672550320733 
-0.1441490239874328 
0.1506405420523861 
-0.5069863722350551 
-0.1053335718248502 
-0.07546277521057365 
0.02939514832711946 
0.3494194698670443 
0.1686496791102927 
0.01393380427239041 
0.2429633254443105 
-0.3529669054787658 
-0.003818704469265645 
-0.9877439507739431 
-1.063787129611499 
-0.1991940915391291 
-0.5454744581299397 
-0.1509345071009483 
0.0009830820131630769 
0.1137513596309204 
-0.6949544436020536 
0.1932842392052815 
0.1700830972946026 
-0.06137514649233807 
-0.2596991722926897 
-0.07705113951550281 
0.05946963083232353 
-0.337935198940322 
0.1258021649580561 
-0.1185721305104091 
0.4517119877927492 
0.02251301040199987 
0.03894915991795173 
-0.502083232501387 
0.3916007674082074 
0.3606864528763066 
0.06982392266036497 
-0.9077624071698481 
-0.071272023906174 
-0.07677507458496853 
-0.0117986782075444 
-0.2993881387469986 
0.1071779003479544 
0.1231609618153494 
0.1655714255450547 
-0.387582265137525 
0.051059168109169 
-0.0817753092206894 
-0.08353152297694434 
0.3212395727082941 
-0.32328316719454 
0.2552651353630032 
0.01494701695372344 
-0.2723637466965083 
0.3633954149695383 
-0.3280449855785941 
0.191034123611115 
0.1855740174690445 
0.1041656823992454 
-0.2015914319213649 
-0.05189762532428983 
-0.06966870920667216 
-0.1497491177784938 
0.207272438499544 
0.1674344429850867 
-0.1784491336264794 
-0.4385054395368589 
0.05036869522934376 
0.1264422631285638 
-0.1716136152229656 
0.4452386929282624 
-0.1535007297222713 
0.04849628014831035 
0.4543115466868496 
-0.2693397957779372 
-0.3937107011274744 
0.1187583927482411 
0.189659806233953 
0.1079527611691163 
0.01949922326840592 
0.1912935075286237 
0.04292067936734349 
0.3026590078189368 
0.4347098834993629 
-0.2960531323632067 
-0.3754147654201345 
-0.05329376061642305 
0.1502857491664332 
0.07545415043027283 
0.3857237170288951 
-0.5415463118019143 
-0.5454958917999931 
0.1911784680278252 
0.3688219168149786 
-0.1913870511151717 
-0.4416934454483288 
0.0382884116497022 
-0.3296948824498254 
-0.03337773853695114 
0.1971404865978855 
0.15760594733342 
0.022278445013898 
0.3611551699745129 
0.1416342839071134 
-0.3578573815340291 
-0.3000533574922396 
0.2829602829555879 
-0.3322139556466369 
0.3229374475178826 
-0.1003613135105656 
0.3755008726328064 
0.2179163821416917 
0.1824064582148694 
-0.03031008281502179 
-0.2998040772025647 
-0.277520494881241 
0.1057045732529342 
-0.4638690278189687 
0.1875615727018062 
0.002317668536184141 
0.1863965103806302 
0.1907118015894348 
-0.1156917572426858 
0.0376505335249365 
-0.05245504076706006 
-0.124829587457254 
0.2080679426880741 
0.005899863556821126 
-0.4272060037414836 
0.053786968888132 
0.05433591377339774 
0.3267779164314861 
0.0296653066119663 
0.02306520950488116 
0.200536018037005 
0.1983915828810174 
-0.009815425747744803 
0.4690609120642075 
-0.3827534905160352 
-0.04248433892305094 
-0.4216790073048378 
0.02833226688779038 
0.001335972234105493 
-0.4122762022068369 
0.2936385913337467 
-0.007979135343179098 
-0.01481865325574738 
0.1558253936188872 
-0.3352916606412522 
0.161700871637617 
-0.5232831609584169 
0.00532874263170721 
0.01244937590831383 
0.1224903085072736 
-0.08970652105241153 
1.026159642885088 
-0.3268478166897915 
-0.2574660665217636 
-0.2738118327663774 
0.01542533959534639 
1.010527089183246 
0.08842445776420643 
-0.3710875554809429 
0.3975247932445253 
-0.0597320098839141 
-0.04144291859137638 
-0.7301329908129587 
-0.2076237928752112 
-0.170952529290649 
0.1445745394757853 
0.430267952482458 
0.3396213414657888 
-0.03329882722625291 
0.284594077276422 
0.02449066872847186 
-0.1884206545111851 
0.2610425495166611 
-0.2668002107902524 
0.09523548706231942 
0.02097262229699581 
0.01550826971988035 
0.06670911665510053 
0.002271152797975114 
0.6906223052477905 
-0.1434832239707028 
0.08062056030675938 
-0.07238702929322557 
-0.3830158691694727 
-0.04375033554655651 
0.03332297252213971 
0.05959992584052729 
-0.05077704217261052 
0.03264365000875349 
0.02052691338601773 
0.1271763196042451 
-0.0267140236594099 
-0.194605259619028 
0.2051167874678349 
0.1236772049387136 
-0.01115054341898802 
0.5950679207600608 
0.246360539845369 
0.1684847251447604 
-0.1065713538445447 
0.006794104347154561 
-0.01775045390529214 
-0.3357385711720978 
0.06251168173367476 
0.001223308792703655 
0.01931459956605669 
-0.3117932284573831 
0.4391863573169157 
-0.1416195255713378 
0.1092998760279332 
0.3643603825069503 
0.1029301689042179 
0.01184749059048924 
-0.06152337164842959 
-0.3547177404819713 
0.3233424579631986 
0.04417736089761225 
0.3037028298222334 
0.05443208065726835 
-0.04127599233505523 
-0.274713938748883 
-0.2889590564794418 
-0.6117651195124042 
0.1625612796209278 
0.2340043735128443 
0.06471349007957079 
0.01875753003636539 
0.5795643497356789 
0.2460643022134167 
-0.6836670879069341 
-0.3885973947430892 
-0.2621289226652141 
0.4428229437260801 
-0.003689146943265967 
0.1425720290884876 
0.2365832819925533 
0.5057702738964143 
0.07812652147185629 
0.4396437418955116 
0.02617519680360902 
0.09714095877618792 
-0.7227208220591143 
0.3731021806684991 
0.09417038109878768 
0.2205176327464218 
0.1363541980127443 
0.01541247085337067 
0.2856501643224553 
0.2413308817632747 
-0.008229061801128543 
0.01477375001349263 
-0.2411331792679591 
0.02338589635972312 
0.1551289133764281 
0.4291415467448891 
-0.1764463929792655 
0.01722536396202216 
0.02692672081398458 
0.1805294991709157 
0.2941180037844283 
0.005146508445210894 
0.06041647414767178 
0.05269572811729913 
-0.2540016248084264 
-0.2606922493965493 
0.002805541691626945 
-0.2931897615169424 
0.01303089516625634 
-0.06795853220959357 
0.05282932534070909 
-0.05647072243944129 
0.0182209938998245 
0.1634238484348202 
-0.2430771311249962 
-0.03221574364736101 
-0.03952285333674949 
0.06053938757106673 
0.3215952519686429 
-0.1768481847721276 
0.4258052813010747 
0.0303622477343083 
0.06404201132846191 
0.3798778608673749 
0.1848455488100848 
-0.6489668159333353 
0.2935616310514507 
0.04415075460909541 
-0.414822141786974 
-0.5319509047062988 
-0.3321709779333267 
0.2396986765554425 
0.1702170764059784 
-0.5418258047860546 
0.1691977449038828 
0.1245671902575598 
0.07373304003745956 
0.07719762667807929 
0.05256213089388777 
0.3706648062308787 
-0.2462767385534434 
0.04541665262479826 
0.06443800456083151 
-0.4260543516802366 
-0.09597269056312718 
-0.04166725485290048 
0.274836524594877 
-0.1993494171697907 
-0.09340442241441045 
-0.08446327780226087 
0.1121694697853552 
0.01633750655126364 
-2.602085213965211e-018 
0.05780725141104093 
-0.0009158946620352894 
-0.2939801928436684 
0.09120138067961364 
0.2773664958586685 
-0.2866648369812838 
0.1482292345560391 
0.1599000464432735 
0.04685110009901737 
-0.1940539901245754 
0.1538731936390199 
0.03134448617654348 
-0.09693610528995325 
0.01577299399633749 
0.518250114643516 
0.4030633020291267 
0.6673272654045952 
-0.2168724073374221 
-0.2081267817857822 
-0.1460551951300192 
-0.654879201318824 
-0.2004635926156365 
0.1095755971367184 
0.1694601499166595 
0.135157098004862 
-0.09701809088331684 
-0.04170492216276435 
0.138821733528603 
0.3475569705304725 
0.1102044400061826 
0.1243896497054629 
0.2450690088310971 
0.5126982796441669 
-0.2061130285629842 
-0.1311793878418837 
0.05689308377723615 
0.3631127495671448 
0.02382410926603118 
0.375074021401186 
0.1330383261547928 
0.03483204789751707 
-0.2076506412738851 
0.08844432272096496 
-0.2226111238223305 
-0.3892576671328669 
-0.2923821711022439 
-0.01388753918443484 
-0.01207175978192845 
0.2116983461690519 
0.05025801729268855 
-0.01597533076963365 
-0.1294651724960549 
-0.01024738372046307 
0.248886450249035 
-0.04752388245573496 
0.3062413165462747 
-0.1393329589013896 
0.4048428300433923 
0.05316423169824835 
0.04721784376803627 
-0.5116792785223101 
-0.06552277330699249 
0.02564214686251544 
-0.09798089338035659 
-0.1913729168987976 
-0.2607766111853986 
0.1662230566331999 
-0.106553867675815 
0.1121186047400361 
0.3058809360193552 
-0.7927443266174463 
-0.161851966284415 
0.03745447691224417 
-0.007957009489681555 
-0.09793014161892477 
-0.07680928694934724 
0.212483442383922 
0.0003882835922846245 
0.116567680765427 
0.04011580509207598 
0.1573256031874732 
0.02139058636371482 
0.05398824193916998 
0.2261196968899625 
0.1779784727519289 
0.1265771897965591 
0.1840069487255904 
-0.1160393471746657 
0.08206388163697914 
0.04000619930493803 
0.01629672163282879 
0.09894475401503909 
-0.518287762896488 
-0.356521533964822 
-0.04125003143328735 
0.06331419662001117 
-0.1379967757473748 
0.0242893821801221 
0.1516181890875976 
0.00984959564268173 
0.0288675359732656 
0.1191661208437425 
0.04074301492849725 
-0.3185044470024152 
0.3391990259257267 
-0.190312249366259 
-0.09420730703558576 
0.0004739031496540558 
0.1810408936327438 
0.1741948445006988 
0.04799600035249996 
-0.07047173762072639 
0.1353095837870013 
-0.0002737742956420253 
-0.1450349233063609 
-0.04290701933960191 
0.02581348657321668 
-0.09386467863492155 
0.07676173805976401 
0.3938263233410397 
0.1663343595179246 
0.02184555860506204 
-0.2298820136027049 
-0.02758702440428429 
0.5568076379336141 
0.08141585698545424 
0.002951453083798729 
0.04924015703226066 
-0.03833466341328201 
1.843143693225358e-017 
-0.1418606480208907 
0.08925674794472839 
-0.02210641618891432 
0.3477644702806463 
-0.2042323212096092 
-0.07763360611534857 
0.2938117450817903 
-0.09703144589274004 
-0.04916629450441173 
-0.1902195584452818 
0.08211923160021951 
-0.01576052719953084 
0.1133935886532436 
0.07360933127759596 
0.2966664482645225 
0.1121748760509996 
0.2509467499219709 
0.08268147322316538 
-0.1502740319083375 
0.1245788740197897 
0.01957033447768389 
0.1623729059031702 
0.2679051445697717 
-0.4935228739020613 
0.03743425202602205 
-0.04704571884747009 
-0.03840310064729981 
0.1747005500148174 
-0.02919174756629612 
0.09469615354027157 
0.1971193986899555 
-0.1087283422079856 
-0.1073969375643129 
-0.4422569474840678 
-0.009831516720286246 
0.07900599392269886 
0.9177097367360007 
-0.1239334629741148 
0.09657299782995256 
0.5190441515985974 
0.06091373183030208 
-0.1957007299175716 
0.2373566393930482 
-0.03780201912761722 
-0.9297968228982467 
0.1170128060596029 
0.1036867496231921 
0.97285872642208 
-0.6703842293065816 
-0.08826180334458232 
0.0051465084452109 
-0.02606594727945081 
-0.09365378721039205 
0.3331691193775834 
-0.3831269566552509 
0 
-0.0410837044399424 
-0.171270162548485 
-0.4008506532625905 
-0.4873731210471827 
-0.222482554512872 
-0.001709795345075864 
0.07287643692637576 
0.17231412097355 
0.2229890628493353 
-0.1775965581510554 
0.09651889837383817 
-0.2549173284597056 
-0.07647729335419023 
0.2656676984964108 
-0.02095575044375104 
0.2540096464566736 
-0.2449551149930347 
0.006373177063650026 
0.3186330999334963 
-0.03394036631626649 
0.206083706626332 
0.2369904418763612 
0.1901329368380314 
0.1070022231119027 
-0.09758732470724774 
-0.4768902783079279 
-0.1524844333419104 
0.002526261489495856 
0.04836421008359355 
-0.01102925272516787 
0.0002671944468219012 
0.04862725621428168 
-0.06826177007506541 
0.001081025039895332 
-0.3458656442883487 
0.05867070196360965 
0.1099769185895423 
0.2985683025001659 
-0.4038486875631335 
0.2174412359546926 
-0.05589338260671924 
-0.1955950741901397 
-0.02287218378714093 
-0.1231962264421947 
-0.05106237796912529 
-0.2282002787281874 
0.00860679606837619 
-0.03460957058791078 
0.4448479062259159 
-0.01135378439377473 
0.03813908625943088 
-0.04689908415449171 
0 
0.4716823838498328 
0.1804122187225736 
0.02247888370104137 
-0.3593757265420942 
-0.09209501596574821 
0.1884654785078953 
0.2842415171827968 
-0.02530813406406164 
0.003758708614193968 
0.0270327269570446 
0.3406580717968508 
-0.01112997927579602 
0.1715083399386279 
0.6248607049495213 
-0.01319587934959331 
-0.3441563462085337 
-0.1067995580445591 
-0.2449179422891951 
-0.5547543269330624 
0.2310492757908461 
0.1569191401500918 
-0.08561115385073867 
0.05213936765157513 
-0.1174965238317079 
-0.1560749248819751 
-0.00118012066855659 
0.1198315464689438 
-0.001477286968697413 
-0.4402654081525999 
0.4400121850209781 
0.4939792949004361 
0.8096974891939266 
0.03334786890200254 
0.00980439147918212 
-0.05878450412504679 
-0.1171244452782245 
-0.007310498421131757 
0.2163186990164877 
0.2691109522825705 
-0.1526925679678461 
0.05033543183997706 
0.2893413078913489 
0.1300141123122074 
0.01288298194928899 
0 
0.1121447156135041 
-0.1976723504534797 
-0.0952082362780303 
-0.2972103343542207 
0.01399549278191839 
0.1546580328643001 
0.3127311278009126 
0.03561013091831707 
-0.1507778500555085 
-0.02510279167975198 
0.199244689535724 
-0.2611313984638566 
-0.05695007014550847 
0.08163191712369908 
0.1923614900591689 
-0.257466244310932 
-0.0002737742956420253 
-0.2009417574483643 
0.1246688882862112 
-0.3874807013810485 
0.1873985120533787 
-0.3860968329964408 
-0.02515111720607619 
-0.02458834161767062 
5.421010862427522e-020 
-0.5568663952202476 
-0.4709149997752087 
-0.007150419178452047 
-0.09536041016934145 
0.00695328204976717 
0.02759888964065729 
-0.1962316040015438 
0.2848134615475368 
-0.2195257686805353 
0.1553680179899927 
0.08980254393315987 
0.09074667039161211 
0.00282762206640675 
-0.02607397593050569 
-0.0232690244626392 
0.1343641391964237 
0.571086573478224 
-0.1016517421368741 
0.3154422386571486 
0.1074235063723654 
0.1049131707398412 
0.2095618125082563 
0.03731878564334393 
0.1487350100583517 
0.1381160629172119 
0.2915602509123181 
0.1986496146982057 
-0.1470759042176068 
-0.02952765797194463 
-0.09248012129733352 
0.1051320294069828 
0.3106312584940633 
0.02077451538408607 
0.2079267280352998 
-0.309039149607778 
0.144459520973313 
-0.118466102215805 
-0.1402763038347279 
-0.0262095044248064 
0.09376862872906422 
-0.05532530405661076 
0 
0.03433920971526637 
0.06271931804462938 
-0.1333480284604866 
0.1274802554576419 
-0.03880107476142025 
0.2616722894022646 
0.08663257694123304 
-0.02084442519356504 
0.0853065752022046 
0.03939271833246252 
-0.09071264236537935 
0.07189433028871212 
0.005146508445210907 
-0.04081831009379325 
-0.01629376100487859 
-0.01376280975277527 
-0.02863021476518611 
0.06963261209982077 
0.08223018276267985 
0.1163323483118304 
-0.3619473172156497 
0.1190894964763387 
-0.08623894580153454 
-0.3557266470251527 
-0.1762946555432729 
0.1544512419758918 
0.04328903504832646 
0.3382774892300777 
0.04282906082188216 
-0.008146880502468945 
0.2383912065944764 
-0.01111560026708727 
-0.1227635449486955 
-0.07448992186536528 
0.03161116337862158 
0.4124861160593522 
0.04145782187626852 
-0.1098343933601009 
0.04944174451639084 
0.01676349977654202 
0.1978140236108354 
-0.8472418090870622 
0.08881040904817535 
-0.1683383578282624 
0.053905554768948 
-0.02056861565706586 
0.008000876196501984 
-0.04172226982819725 
0.1470260608036146 
-0.07810132115870348 
-0.182626221894921 
-0.005640581562152642 
0.402912923662111 
0.198298683716002 
-0.03318917273703397 
-0.04222517087541043 
0.005146508445210904 
0 
-0.2233787801248148 
0.156146907972808 
-0.1849848685741957 
0.4399708010150584 
-0.02270002248105007 
0.0277208271225127 
-0.07107327834032355 
0.1986583995661116 
-0.159602762084847 
0.168577778406173 
0.1115993506006589 
-0.02281819887690885 
4.336808689942018e-019 
0.001853886756098835 
0.09203229179946119 
0.04373325047216121 
-0.04182521759344648 
-0.2091952314384131 
-0.04620821786230051 
0.4389349790405691 
0.1720176819806359 
-0.2330697757182663 
0.141256828588231 
0.1019162364985946 
0.07829143519722023 
-0.07460988248553814 
0.00697800707410848 
0.1992226499082859 
-0.188005396552614 
-0.005364825415070273 
-0.1315093595452852 
-0.09719760750446237 
0.8104728081315187 
0.02550099203748778 
0.01041411999884807 
0.006246607948531232 
-0.1942796821152479 
0.07438392914383171 
-0.02338190777922571 
-0.09259242764260063 
0.3244087319951557 
0.04321969877635104 
-0.8531988331502752 
0.351229856343286 
0.006939801385475475 
0.000419072203551695 
-5.421010862427522e-020 
-0.1125394302311075 
0 
-0.05162820072126716 
-0.07281966265224667 
-0.04322692691923105 
0.18808119496396 
-0.1914269115897505 
0.2520708193897611 
0.1521272281866233 
0.3354915497862716 
0.07973262695264213 
-0.1353359193937329 
0.06345587774374657 
-1.214923616908902 
-0.1886834419129275 
-0.0143008383569041 
-0.5244416558482902 
0.2635383647453442 
-0.25560947820439 
0.1191331390055322 
0.1666673222469736 
0.1097825020357761 
0.04144493973761081 
0.1785141100474587 
0.1118708458195086 
0.4087155540716602 
0.06323579327572128 
-0.243145047907119 
0.02279782418778902 
-0.02927252296966641 
-0.3198786076680979 
0.1302225311256437 
0.1155178967798177 
0.1063411612148262 
0.001680581234829423 
-0.0349918616616909 
-0.07567266685684183 
-0.03935623969710887 
-0.05228437100110646 
0.1600750602437669 
-0.2617448716481171 
-0.1088578535586982 
0.063670743307044 
0.01856387756282978 
-0.02527283727403333 
-0.2538430154915152 
-0.01420530180271259 
0.04438965934737191 
-0.2220517355513427 
0.2357163025052731 
-0.1358200749951994 
0 
-0.08295014242113649 
0.1226974746589411 
0.1071497154995524 
-0.0299663805723604 
0.09412429877881377 
-0.1097752627873511 
-0.06381677692749205 
0.09722398003931497 
0.008296752160290121 
0.1646488101183666 
-0.111550412668067 
-0.132597433137904 
-0.191308590350363 
-0.06661427912329995 
0.1555521321418673 
-0.03604935746365644 
0.0974881435186422 
0.0779813393031171 
0.2053590071931485 
0.1147583376709163 
-0.1902567276974328 
-0.08386214173346998 
0.1856646208067112 
-0.03990769684721513 
0.04524023484403093 
-0.07498926328697152 
0.0417748888069354 
-0.02819240572962278 
0.1783371978351037 
-0.3096177602942818 
-0.2375096042015806 
0.2469715720580848 
-1.138666091305798 
-2.168404344971009e-019 
0.0051465084452109 
-0.609279853591329 
-0.12930503872663 
3.903127820947816e-018 
0.7010115727498191 
-0.1015419027959504 
-0.06599566339408128 
-0.2208802990479292 
-0.06529642738902157 
-0.005693448353106767 
-0.02255628735089383 
0.9120480612421867 
-0.07601034863277645 
0.01090570047072493 
-0.03142458957973566 
0.02984753522415999 
-0.3205887019676526 
-0.1638832457442111 
-0.3728088000570941 
0.0171456328263984 
-0.4746826099610241 
-0.05559237425729102 
-0.2211257748627634 
0.1190219021659765 
-0.1096718218736838 
0.04219026092843314 
0.001858182046763977 
0.09491135011511553 
-0.04325999387501649 
0.05675282134629019 
0.08053636211101684 
0.1797186729838159 
0.1159381344922621 
-0.1839129481038191 
-0.05449547912910106 
-0.03968151096175948 
-0.4409204839451845 
-0.05172227270600247 
-0.00740080856636095 
0.0006679861170537477 
-0.01946094618823204 
0.3449449375521181 
-0.2012322207586454 
-0.103611846826589 
2.255140518769849e-017 
0.2187902337279115 
-0.5777885252235167 
0.07543581823320589 
0 
0 
-0.2147584384224245 
0.002329157704110498 
0.05060077095312392 
0.0781754726827221 
0.06508692502394366 
-0.307894520478313 
-0.07143114973250003 
0.4789411865935352 
-0.08295870157277709 
0.04095100225225031 
0.06097973138332986 
0.2420109025859552 
0 
0.1406576591151891 
-0.0326261084601059 
-0.109100193756046 
-0.02218692411830889 
-0.2238764845321848 
0.0566967849075431 
-0.2869666939290224 
-0.06368527992899621 
-0.03512798205509778 
0.2713512582802683 
-0.06420559284112057 
0.03517883612953524 
0.2033880294667202 
0.1586209801596384 
0.1598590137621413 
0.4495450621965697 
0.156134872931506 
-0.03107811589741327 
0.1702506717647122 
0.1172848712417839 
-3.469446951953614e-018 
0.06171222212077138 
-0.2703336152746821 
-0.002448730383366185 
0.3954332218012641 
-7.632455516979204e-005 
-0.006908019668397113 
-0.05229771654672769 
0.05798080368857381 
0.09450030761978699 
0.1784858651614849 
-0.05461538187017701 
-0.1700128925914549 
0.09594031834324278 
-0.03498828269299582 
0.08533374182858163 
-0.06646974217242256 
-0.01685419767683368 
-0.236668013579156 
0.4727118966140157 
0.04715388669538288 
-0.02362806528404928 
-0.0830651054661555 
0.0051465084452109 
-0.01654282971216639 
-0.2179355597358564 
-0.01793258949950551 
0.1707613485583746 
-0.301869163654289 
-0.1835373361439363 
-0.1103759667698151 
-0.254459065318875 
-0.3313743511126192 
-0.1805668518827962 
0.02255511256337064 
-0.1715926225697421 
-0.1357626756108514 
0.1155849727812073 
0.08216034243238514 
0.004344472994889555 
0.1508284331244951 
-0.3460872297554215 
0.07063539160464327 
0.1224809326784879 
-0.02526276145956364 
-0.1405556458205463 
0.0051465084452109 
-0.278342563095534 
-0.1051452201856066 
-0.04213518159655129 
0.01214267561592091 
0.01280630236286935 
0.2672106249031275 
-0.01144021873702559 
0.02940290353604667 
0.2355240898158372 
-0.3443253576765022 
0.06017514680540789 
-0.201523649869445 
-0.02200248659602714 
-0.05764059690876551 
0.02281424495315874 
0 
0.001775258088423955 
-0.1531560532873565 
0.1360334561271952 
0.07948900954387353 
-0.110576236736241 
0 
-0.2157977797905312 
-0.0611182114534774 
-0.03170289816677983 
-0.07973713130894783 
-0.03409449504399728 
0.03437846168540234 
-0.01395321197724726 
0.1273332257086045 
0.121488091065961 
-4.336808689942018e-019 
4.336808689942018e-019 
0 
-0.04270745575422714 
-0.08173487576842736 
0.7999392237820104 
-0.03039039679723515 
0.1785144329584538 
-0.01424481184115049 
0.2083021946414528 
0.07552985474177573 
0.006239916362045727 
0.01748423706340324 
0.2056648130925219 
-0.002262386668520906 
0.1771836568484506 
0.2674140768007295 
0.1308156409194014 
0.005146508445210896 
0.06386597367790703 
0.03707008660261464 
0.1726668766522471 
0.2826473850116125 
0.2488601880457024 
-0.1322318984471736 
-0.8784313684956672 
-0.140726899421617 
0.04669673725331117 
0.05914331464626543 
0.09324205573045034 
-0.04380385619767475 
-0.08702451448492414 
0 
0.07024938305666391 
-0.2737051163737548 
0.01961626745342082 
-0.1372367905293597 
-0.02343927785805878 
-6.938893903907228e-018 
-0.1372367905293597 
-0.0082185826652458 
0.1035582478613862 
0.1968884145736919 
-0.3043211850436228 
-0.01916118301301022 
0.5584673230088197 
0.163826341892947 
0.1063389540902413 
-0.1913599568543041 
-0.1699521938793937 
-0.3084744548461537 
0.1355267673618499 
0.102707597069785 
0.01734589696470565 
0.06476569393119749 
-0.6673178697845117 
-0.01527780819904759 
0.0217217576167595 
-0.05896066525187113 
-0.1044315198939123 
0.02054689079702001 
-0.04523989650614649 
0.03327828553265674 
0.08749507596422149 
0.2507311550087765 
-0.2056598537913473 
-0.1916774073174886 
0.01260818875918912 
4.336808689942018e-019 
-0.02553706314757641 
-0.3649179217288504 
-0.2319545499429382 
0 
0.1381011933609948 
0 
0.0639686466913138 
-0.03911096389559209 
0.05902777609509896 
-0.2168438293836539 
0.1081684961615241 
-0.1772852395572979 
0.2133183491672133 
-0.1922197084293171 
-0.03633330668362979 
-0.02589129857962602 
0.1041735529761052 
-0.02923672587189439 
0.1700994231298845 
0.07860959359887121 
-0.2603814559418599 
0.02896820884182292 
0.03062357426243985 
-0.07203736147772932 
0.1500870303118238 
-0.1072122761000924 
0.1700103792677914 
0.01701203560298784 
-0.3104772556605127 
0.0001366282455226268 
-0.02877092333874038 
0 
0.008051237059983176 
-0.01804108061036979 
0.02352369613257957 
-0.5326127119401866 
-0.2332107583076292 
-0.09365241860112326 
-0.01837818436979248 
-0.2024617489747793 
-0.07929744526489951 
0.03172360222020672 
-0.4075332232192943 
0.1577984373908848 
0.01918886093083468 
-0.153571407450184 
-0.004542850912672062 
0.1151869367021219 
0.03486471537339553 
0 
0 
-0.1050116707522657 
0.12553649657063 
0.5660159035076262 
0.02085208236883078 
-0.1245832548265877 
0.4274645383880847 
0.05490065251185579 
0.05268791969917275 
0.03383744027491834 
-0.03085704523738754 
-0.176685434448075 
-0.1204612438480146 
-0.05461954642658294 
-0.1686272861510482 
-0.2784105323888633 
-0.04963313923855179 
-0.08735231318794982 
0 
0.1677018088524424 
-0.0009162240120277008 
0 
0.04606972813474564 
-0.0009324585930563659 
0.1400665701288097 
-0.07698567907587124 
-0.02032733322893138 
-0.250069394264122 
0.3972292329726337 
-0.1023576430568155 
0.0001010954739727297 
-0.008104601455375353 
-0.03801960882719224 
0.211698237523105 
-0.00798659306997433 
0.06872592721889026 
-0.0009444498354103667 
0.02916121130422749 
0 
0.1112333247480231 
-2.168404344971009e-019 
-0.02184983748568266 
0.174597024387043 
-0.03670795447894616 
0 
-0.01260153792074751 
0.1869637877418408 
-0.006948279911267288 
0.1944031269236599 
0.004070590647754497 
-0.108891580956392 
0.3275347037063989 
0.1880039938304049 
0.06239819606904282 
-0.006826142968966301 
0.1242031091021223 
0.0381053136605391 
0.0003043346911642531 
0.05352532385620491 
-0.08119689250530483 
0.1221314163150275 
-0.0283578715131924 
0.07049625788261797 
-0.03224089819189037 
0.06656741268628341 
-8.673617379884036e-019 
0.01217508663771593 
0 
-0.1107059945388638 
-0.5361098220038418 
0 
-0.1639296603326482 
0.09008219249564448 
-0.1056875904420659 
0.1082419103443362 
-0.07528629370972646 
-0.0669490862540843 
0.121170215052235 
-0.1719918564139069 
0.06885140743494089 
0.05439151331129774 
0.02128865789270409 
0.01679001283027778 
-0.02393226594445159 
-8.420816651934946e-005 
0.01256694719050826 
-0.06649335871108651 
0.2089120149702228 
0.074444290126518 
0.02278041177547925 
-0.2056267045164944 
0.0275554999310092 
-0.268699978705067 
-0.02733583830043651 
-0.02224121817623129 
-0.0907830277833762 
-0.1480361798020098 
-0.03930316581650405 
-0.05943225176795811 
0.02445748797537715 
0.0006610220699655816 
0.1878186682942329 
-0.07455987606662189 
0.1060234190730882 
-0.1297118793148168 
-0.05083437321205884 
-0.3038121079884684 
-0.001168795556230951 
0.1191875013176236 
0.02644283053542606 
-0.03932147404530056 
-0.2683019006366637 
0.1488145376677501 
0.09051584616062666 
-0.2051073863837128 
-0.09374046316487297 
0.1828673239030448 
-0.05841625121814762 
0.07845368004195705 
0.01035754534692021 
0.1957451462369764 
0.03770725643101473 
0.02383642577706993 
0.03523972790038185 
-0.03777615388434041 
-0.04259347720871132 
0.001298639356865461 
0.07686978182503647 
-0.0232690244626392 
0 
0.1262074031056358 
0.182659635169247 
-0.1422136536256638 
-0.1215718369077515 
-0.04599776333714834 
0.09148893347382923 
-0.169897723437078 
0.008476928045449823 
0.1428853327429807 
0.09196104447932717 
0.01719714316153753 
0.04075769127647898 
0.1215267694253172 
-0.04604273091214924 
-0.1495031271501912 
-0.2206181823079235 
0.2809716570485545 
0.09495528398269172 
0.07740180038839722 
-0.1750643403966604 
-0.1926769857301803 
-0.0366098756489325 
0.4740602723151309 
0.192894936491714 
0.01467020560036828 
0.1889541098941478 
-0.02525426106558303 
0.01168473017031075 
-7.182461261948648e-005 
0.039222899171609 
0.01611294242256201 
0.008362812689217326 
-0.3975074581100978 
0.1625972854779807 
3.714024434235216e-005 
-0.006627838643106105 
0 
0.09186243325884112 
-0.1323320320704452 
0.1514876719090583 
-0.06162692055727399 
0.03838021915776094 
-0.06245549781651235 
-0.00097709633687264 
0.01377452159941836 
0.1612370159969274 
-0.06896206675557431 
-0.04760684769038174 
0.226865748046179 
0.05684901031444586 
0.001075653670324553 
0.005146508445210898 
0.03590729980084147 
-0.01650214845615486 
0.2094144525193993 
-0.4959998644266131 
-7.925474495956741e-005 
-0.007501511715378668 
-0.1417006571422107 
-0.01833497461600675 
-0.06662580631272491 
0.2922667119090471 
0.00246487755778506 
0.04744152665640006 
-0.09788006613082505 
-0.0385692021638023 
-0.03385162501317081 
-0.1990605449076515 
0.03257396905296994 
0.1029459906438184 
-0.1157094204757808 
-0.03236888491939245 
0.006048834157635371 
-0.2699910275846673 
-0.04716481553800424 
0.02669231854800606 
0.02688295775391608 
-0.03963360734719973 
1.857012217117695e-005 
-0.1037636121938251 
-0.02748372730167439 
-0.0938253754012303 
0.019786661235293 
-0.001421367100432362 
0.02978697298561948 
-0.04789577556179256 
-0.1790137171600829 
-0.1351432382408465 
-0.8369190665957506 
-0.0534983006623513 
0.0906180255814879 
0.01059931704458645 
0.1774926649823833 
0.008963985695805156 
0.01214771577964073 
0.1542301196838144 
0.2829042324816501 
-0.1058928829219616 
0.02485753472245806 
0.2251652600359682 
-0.5652573638682907 
-0.009280587045166055 
0.005146508445210898 
-0.1042923597138924 
0.004737079689017056 
0.7631369624953754 
0.1444004243085964 
0.09652490806180043 
0.09012992891397507 
0 
0.005146508445210898 
0.08288548250599445 
0.1921337087589984 
0.04529584004837639 
0.1567536346869052 
0.02384134346809825 
0.0002671944468219021 
-0.01977978463764732 
-0.24049850337844 
-0.009677336364460864 
0.03918451918925256 
-0.2336094841264292 
0.02637983633256435 
-0.01916279981116021 
0.165333084967855 
0.7550867320714281 
-0.04600943110143103 
0.1587810262299831 
0.05623129249339526 
0.04231921983175857 
-0.1104129014111049 
-0.01069799608674466 
-0.03640649292750625 
-0.122295182973496 
-0.0536002227813063 
-0.09584810456587625 
-0.006895118471731565 
0.2127654015490827 
0.2980712219260545 
0.02813815456143613 
0.1074257335823638 
-0.2056156390750679 
-0.003332828619540757 
0.01817252894212095 
-0.09059678864933846 
-0.01673273080708592 
-0.4434408428716439 
0.0212886578927041 
0.06973631110295715 
-0.101469987947784 
-0.01911932333850418 
0 
6.776263578034403e-020 
-4.336808689942018e-019 
1.084202172485504e-019 
-0.07594451797042251 
-0.09447686965467864 
0.01042816250087292 
0.06281756488677816 
0.1760439762161954 
-0.01223631804027145 
-0.01340422861472629 
0.2231689273453204 
0 
0.01510713158380825 
0.03424498972718252 
-0.1884551482126567 
0.02220804076624559 
0.1383651396878539 
0.102554209889066 
-0.006706838129619555 
0.1940002277044416 
-0.03534361514764325 
-0.0427321581361583 
-0.008101352802963958 
-0.3978434284879991 
0.2280704336737015 
0 
-0.02610824876115939 
0.001504483533836985 
-0.03176529491032998 
0.04017317674094008 
0.1680477372014925 
0.09859507583456152 
-0.08896708302716042 
0.03924976493738498 
0.02492189000158936 
0.07864417362171962 
-0.01898612439611423 
-0.5590589199275764 
-0.1863123039694156 
0.05908482478127163 
-0.2451514324902845 
-0.4449500043613847 
0.03738175915506448 
-0.1576481285431099 
-0.06010020995597329 
0.007712503517785378 
-0.04968427720036928 
-0.3896777792081356 
0.1142330378924604 
-0.02873778199615457 
-0.1080781716269942 
0.7926712891570216 
0.3256687543744176 
0.01738225072008804 
-8.673617379884036e-019 
0.09879814489015439 
-0.006314670731671382 
0.07223747709689762 
3.117081245895825e-019 
-0.06867871342516906 
-0.01481627306591239 
-0.01404379943365389 
-0.2571310410337648 
0.005549502144406603 
0.07520928490636231 
-0.1333211542341617 
-0.03040080866529317 
-0.2361527685820604 
0.08838719260015135 
-0.04429836927248217 
-0.05688356235160581 
-0.04089300340561408 
-0.01548759398615791 
0.1186562100567899 
-0.0865772971943421 
-0.3143454878730005 
0.04758631533093603 
0.4213408774534051 
0.1249886933710262 
0.02290813059797012 
0.02740400546621438 
0.1943522531826893 
0.004946816956774501 
0.05107373818969369 
5.014435047745458e-019 
0.02590609412840891 
0.3490532223420418 
-0.1182439393118631 
0 
0.0489423869856549 
-0.0223077848167003 
0.1148241261959653 
0.009519611408158128 
-0.2098160051768786 
0.0001335972234105489 
-0.253872026472231 
0.05090562428957567 
-0.1347671211460074 
-0.07834321505131173 
0.08212064231873169 
0.1160160588739764 
0.1431186392323937 
0.04271375907914277 
0.0143321750988107 
-0.1517066625836189 
-0.03383935272496887 
0.07591290170379957 
0.1168038076393153 
0.0944962963265337 
-0.2115870191092953 
-0.007878434620250641 
0.06555585875728671 
0 
0.2987421600881198 
2.818925648462312e-018 
0.02616223760506718 
0.006554183612723137 
-0.03620605539457215 
-1.098985298124569 
0 
0.07391501930261724 
0.12922350883238 
-0.03974478673505711 
0.04008922166664558 
0.1922048060245725 
0.04257731578540819 
0.05999248495693622 
-0.08164883699463216 
0.0155010652276651 
-0.09371804829581674 
-0.01519958558108038 
0.1400629518463411 
-0.008119533481144164 
-0.03376402172071947 
0.02617057445937742 
0.08383957542000972 
0.2510107518273506 
-0.2662658092570233 
-0.0369612590401519 
0.1738230657438502 
0.02418305692759615 
0.1778943667711602 
-0.1409472359417388 
-0.05500753623285688 
0.2067139998989888 
0.5513988856849003 
0.04829498860914394 
0.09299612366672305 
0.009292175419348601 
0 
-0.01535766926578702 
-0.06280977722792119 
0 
-0.1449834621261044 
0.183968645138256 
0 
0.02194967996266969 
-0.07624829750614551 
-0.07137536280007382 
0.01470069807566526 
0.08480122447290689 
0.4177214632598459 
0.2186889164805644 
0.1813904617306172 
0.1488566567811979 
-0.07260380262844371 
0.03358108316957853 
0.3516265757164276 
-0.07071258224759902 
-0.01629076327679451 
-0.3563731622338112 
0.02022359589999806 
0.1158736484808999 
0.01043836443900026 
0.07278975925307019 
0.02875243585419332 
0.02717950505721244 
0.07526816370175035 
0.002229478256641693 
-0.1347009468075706 
-0.04806230665217409 
0.0009797268519258287 
0 
-0.1171936072986094 
-0.0143008383569041 
-0.04963726963714461 
-0.04677329934404682 
-0.01067251220044346 
-0.06797238602986666 
0.03742794420321076 
0 
-0.01049336710347939 
-0.0009162240120276995 
0 
6.505213034913027e-019 
0 
0.05802270118009647 
-0.01850202141593244 
-0.0008177331888575602 
-0.2032096860593413 
-0.02493612876566428 
-0.2029670188728313 
-0.04933153265275259 
0.192902578395919 
0.1308406631153783 
-0.06603920144228355 
0.1767236968533126 
0.307237871948754 
-0.1416330393500058 
0.0152964910619059 
0.08318880201471009 
0.04730238683944497 
-0.05964991952336834 
-0.004598692151098789 
0.1025571553882947 
0.4694269694337678 
-0.05713932165504911 
-0.04082802392238801 
-0.00808344677184167 
-0.1438991250030613 
0.06596982192164046 
-0.007501511715378668 
0.2955701383724352 
-0.08781341169024716 
-0.2796002174134092 
0.104707327068876 
-1.734723475976807e-018 
-0.2295570153325409 
0.02056718489730255 
0.02338202290748083 
-0.04014656469912886 
-0.1915798622251268 
-0.03534361514764323 
-0.6683757631324546 
0.02554205111673463 
-0.1265317025416705 
0.004785895948875539 
-0.02427498313787396 
5.421010862427522e-020 
0.1161612900275263 
0.03284801474732917 
-0.03884724442519178 
0.04917095319426964 
0.2033538322648238 
0.0705491737555862 
0.005601016448516162 
-0.2966903871773017 
-0.2153525668536853 
-0.01237257297904961 
0.08333829893776375 
-0.1734439616998946 
0.08254575094926449 
-0.08124194790599489 
0.3585807498662015 
-0.08225763036920221 
0.00853210593693743 
0.07986890033713044 
0.02336946034062155 
-0.1408501583265717 
-0.028866102249645 
0.1985983814512758 
-0.01924641976899065 
0 
0.01723941848359465 
-0.000916224012027701 
-0.1250559598270237 
0 
0.03904708871208337 
0.0877992117541081 
0.04975580670641451 
-0.006018771185859723 
-0.1123408078856672 
0.05816567242539122 
-0.03652005092942618 
0.08314437802704403 
-0.1441138452249957 
0.06982846305078024 
0.01266241812985273 
0.1070124263491173 
-0.07511918065558848 
-0.1430287310968107 
-0.03727234495304273 
0.03611260512246899 
0.1159024095212015 
0.1130006242111847 
0.2616557714215571 
-0.303361980899163 
0.007130195454571601 
0.02728669289363244 
-0.08582627556523102 
0.08093468404956582 
-0.01231648217839833 
0.05556039932043622 
-0.4694043817027714 
0.1141027646221002 
0.1745082717533553 
-0.0538102178972775 
0.0001335972234105488 
-0.02182477563057709 
-0.09263380891267128 
0.01522993562563274 
0.02717635811139861 
-0.1019100902319822 
-0.01809466968670467 
-0.01365126156956368 
-1.734723475976807e-018 
0.002017459763756666 
0.09989812859794861 
0 
-0.08200408758836536 
-0.1286138856163191 
0.07147866636823545 
-0.3274981399565063 
-0.003470867301064955 
-0.09930927843500072 
0.04757961365031631 
0.07495528181482875 
-0.2567140827911916 
0.003613522281138936 
-0.004675568718235858 
0.006238481428331715 
0.007080027053993702 
-0.133685457416265 
-0.2554401290388274 
0.4657040238440753 
0.02324460993143239 
-0.09926568944345234 
-0.08282220680834407 
0.112780483123451 
0.04429582055098635 
0 
0.03270550809504263 
-0.2799700470044325 
-0.007150419178452051 
0.02983578659667458 
0.07692167289685752 
-0.05751665027334406 
0 
1.084202172485504e-019 
0.2631525620663222 
0.06890224110607025 
-0.02496792303106972 
0.09300893713444665 
0 
0.007590033111494195 
1.734723475976807e-018 
-0.01772286629317152 
0.04482088820528424 
-0.2894844273744673 
0.01133550408398591 
0.05458617525200205 
0.01217051876182162 
-3.059483005482533e-018 
0.01158559389340789 
-0.04742611891523053 
-0.05304854631908643 
0.1540926753667778 
0.1617149488088973 
0.01701203560298784 
0 
0.08997770393595697 
-0.03934103238642759 
-0.08800751526276714 
-0.04388529024367496 
-0.0001040218527592919 
0 
-1.192901933103925 
0.0008742242645685154 
-0.03419857459972642 
0 
-0.02314501989117917 
0 
0.001879354307094893 
0.00259150581970384 
-0.2045857410434126 
0.04257731578540819 
-0.08143736414249726 
-0.1790156612852879 
-0.0633262980290585 
0.02038237000113479 
-0.02264835265401861 
0.04937739542536149 
0.0653127986756127 
-0.3151442218693641 
-0.09889745994079055 
0.221234943383431 
-0.143864880705302 
-0.1061433007102878 
-0.04542994043255543 
-0.0518268782673192 
0.1303365321534046 
0.01739218431321644 
-0.1572380008147327 
-0.4625973387112924 
-0.47461593547052 
0.3022165448038484 
-0.05812181839757931 
0.1068156503434727 
-0.02686632497996723 
-0.03684337674577501 
0.006978007074108484 
0 
-0.01072562876767808 
-0.2845300637490312 
0 
0 
0.09547162520219135 
-0.02089651235588152 
-0.007088997865817091 
0.03142206711862914 
0.05184462208708292 
0 
-0.0001964941541651322 
0.05003454139805413 
-0.03290713841416814 
-0.02098673420693478 
-0.02210070707648774 
-0.06147144013998346 
1.395910297075087e-018 
0.0001851075585497049 
0 
1.857012217117608e-005 
0.03317738358667532 
-0.1435515989810635 
0 
-0.02028327614669867 
0.01864630752785177 
0.1257667570715646 
0.2165382276725616 
-0.02605374270320688 
0.02414875569126189 
0.08577667664793549 
-0.0106217398554851 
0.1063291396785668 
-0.1662012443853315 
-0.004154839436212421 
0.004010006422996121 
0.06568081411275506 
0.04758723229929446 
-0.004273216110350578 
0.2979725004124973 
-0.03267443207741693 
-0.01778087244168117 
-0.1439045428838738 
-0.01134117863059622 
-0.03295460429370327 
0.146449415093753 
0 
0.006978007074108484 
0.004622866359332296 
0.001836262785342069 
0 
-0.01668332486113939 
0.02292818665719285 
0.03421851096469572 
-0.01021211183364213 
0.02268409488967655 
-0.1398169574717688 
0 
0.006525298534869742 
-0.002415035778860652 
0.07809417742416673 
0 
-0.04194421020252845 
0 
-0.03204465525858443 
0 
0 
0.001882045752555443 
0.07885897457042812 
-0.1554266391203074 
-0.04081831009379324 
0.1147257440789272 
0.7117591939908996 
-0.04938188708361253 
0.006064610260354167 
-0.0009747983125161066 
-0.3419445618005183 
-0.05979251694530428 
0.06447486985463859 
-0.07809803312600419 
0.06418082096823395 
0.1811334318518662 
0.1325342072552768 
-0.003783242972993109 
-0.0318861608305597 
-0.1300093797271502 
-0.1108135770239811 
-0.1448793910446878 
0.04974928943331761 
0 
-0.02429184008985857 
0.04587154723777556 
0.05705512033576456 
0 
-0.3796193974025331 
0.1067995585270745 
0.0006912329123403381 
0.1303803805358117 
0.1266283932404701 
-8.673617379884036e-019 
-0.04115632316338228 
0.04055101561744056 
0 
1.572093150103981e-018 
-0.2152253360241349 
2.331034670843835e-018 
2.168404344971009e-019 
-0.1670089665530951 
-0.03504271584510763 
0 
0 
0 
0.09248594185144354 
-0.0613335090331378 
0.03505419051084228 
0 
-0.2995553101207134 
-0.08759497187030606 
0.1033274962825111 
0.01310211286648647 
0.0238917967972791 
-0.181276978251666 
0.03050170899054051 
-0.1620989979818674 
-0.2715600907846714 
0 
8.673617379884036e-019 
0.04883943718612554 
-0.03892599312843632 
-0.02901979831955043 
-0.03775285387996979 
0.03991063342236013 
-0.1601659839669017 
0.3070166797224479 
-0.08704103473393611 
0.03221026623238039 
-0.05835042297629395 
0.009795360679194454 
-0.05597315915449298 
0.00396911906370333 
-0.0416860456344761 
0.03203715127406705 
-0.04519833230142708 
0 
0.0009568037006057221 
0.0160140171338173 
-0.02172214668442434 
-0.4165801911280557 
0.01538181538143369 
0.06047696056585831 
1.857012217117608e-005 
0.02661886128256123 
1.857012217117608e-005 
0 
-0.003161152975705813 
-0.01220258869757722 
0.0003702151171002067 
0.0561049286894947 
-0.07760344318599612 
0.1139639771606865 
0.09720448950680166 
-0.1000188146398509 
-0.08955675195379767 
-0.06917379161012982 
-0.03400740417752629 
-0.2385451578354232 
0.3571938490084521 
0.1721960555199189 
0.001152137222278079 
0.07739134141773771 
0.01722095879747641 
0.002382889483945493 
0.04949198092790463 
-0.07753849517879083 
8.673617379884036e-019 
-0.02412066296796563 
0.102246192835668 
0.02732983063549571 
1.857012217117608e-005 
-0.03575219381375845 
0.01700028080767552 
-0.06123396853742785 
-0.0138492643884763 
0.004420350818909554 
0.02192500022829119 
0.2092857054965563 
-0.001948405998077296 
0.1332824211216998 
0.05877298495920603 
-0.02840518354431746 
-0.01909487216713333 
0.01567734259914469 
0.04925176223110987 
0.1141323160345569 
0 
-0.1831625598905599 
-0.03866633772811163 
-0.05027155598973888 
0 
-3.306816626080789e-018 
0.08813766638570005 
-0.1869172087289157 
-0.001191020634991901 
-0.005828685876257962 
-0.1248166353356463 
-0.08427246951892833 
-0.5037858442829307 
-0.3670561958401833 
-0.6492038450907525 
0.01630490035590933 
0.03588074764164467 
-0.1377057254012132 
-0.01232018269121393 
0.1076245846946295 
-0.1613716110758144 
0.1208687773526551 
-0.08320104635400548 
0.09541003892615815 
0.02382927841711532 
0.02729712774525545 
0.005622091580475297 
0.223346563699991 
0.218494548221744 
-0.0467780223645159 
-0.00241979973628103 
0.03531155772983501 
0.02917889386907808 
0.009371111513952229 
-0.1531899242112311 
0.304756740823718 
0.04963262933396317 
0.02210914552336267 
0.255240988624831 
0.1190995688831015 
0.007163114632658174 
-0.295838478268516 
-0.3606933304027669 
0 
-6.505213034913027e-019 
0.01655889107978338 
-0.08803671787753856 
0 
0.1639834462917834 
-4.069850121566952e-005 
0 
0.1067863708222179 
-0.001185160446379377 
0.08274611370224545 
-5.421010862427522e-020 
0 
-0.00237032089276322 
-0.03534361514764323 
-0.2033458897866716 
-0.1823760412319646 
0.08079835869579187 
-0.1575812301672099 
-0.009784723885314508 
-0.04396721622321676 
0.03574848309768786 
0.09156681702025983 
-0.139377667242248 
0.01618386699690051 
0.08064042836262977 
-0.1177705512501978 
0.09448131937419378 
0.02292699590214502 
0.08315347977381184 
-0.0365937903520033 
-0.0475480932932771 
-0.3253842153984078 
-0.04538990045190718 
0.004785895948875537 
0.1479141830095089 
-0.1122990538036291 
-0.0740465284106511 
0 
0.04163285261440622 
0.01697961426423802 
0 
-0.3785059949039689 
-0.1098215670639576 
-1.214306433183765e-017 
-0.01766966972255437 
0.01222005788220419 
0 
6.938893903907228e-018 
0 
-0.05958008166177816 
-0.001187637157159372 
-0.003575209589226025 
-0.009811844253116916 
6.776263578034403e-020 
0.0002671944468219014 
0.0002857645689930791 
0 
0 
0 
0 
-0.1852476922673381 
-0.001740317795643755 
-0.1116842646273005 
0.2971664674908816 
-0.02067037405712579 
0.06432441005429995 
-0.08836152843820588 
0.2719207860930032 
-0.0457721691200459 
0.04829688780590445 
0.1407107218544727 
-0.004167635385431807 
0.1172220254785134 
-0.0470713866498033 
0.03830069349569195 
0.02886371296141702 
0.004612827487505273 
0.1093954432163034 
-0.1900846065832694 
0.2926228966131385 
0.1448771569598827 
-0.01277260652985868 
0.1434530736815694 
-0.01850980957893794 
0.1982464559004233 
-0.1514743322294936 
0.02246483474375182 
0.06075055121377081 
-0.02925300335511338 
0.1018750780183804 
-3.469446951953614e-018 
-0.05580952873890725 
4.336808689942018e-019 
-0.02978232626167266 
0.04143066015192528 
-0.2532241756102742 
-0.02117726617441486 
0.4547061221964686 
0.01252406623516497 
0 
0.04415572331319179 
-0.305556163980952 
-0.01237145579741475 
-0.004950434878041705 
0.2805842748893684 
0.3224880969431153 
0 
-0.003403806486368155 
-0.1035950406289543 
0.01189974890521414 
0.02908283621266487 
-0.05635046961895445 
0.03197042888655598 
-0.5458465434610441 
-0.000227790137203369 
0 
0.05816567242539122 
0.001120492605697171 
-0.0553234395083804 
0.2053984975949504 
0.02450205760892025 
0 
1.857012217117608e-005 
-0.1357450755365311 
-0.02123871630592086 
0.1107385789977224 
-0.02588510328416153 
-0.03522785811981465 
-0.0173481481456843 
0.09048001804532212 
0.001856806848935128 
-0.1197783185752153 
0.1127261454106562 
-0.05398928200031587 
-0.05880470249093742 
0.3967205838288286 
-0.1151285630336473 
-0.09589046300227988 
0.131792044469378 
-0.03307327971604935 
0.04829218091428307 
8.673617379884036e-019 
0.1174632883696257 
0.002236212105844372 
-0.07855108672679007 
0.0965418630746923 
0.2010594450244913 
0.02983541317400688 
0.07558828808690785 
0.4056799622590351 
0.01213102503315113 
-3.469446951953614e-018 
0.0386351053842036 
0.0001335972234105489 
0 
0.01576015678588365 
-0.09858570332580925 
-0.0008532038480967995 
0.05546727694680145 
0.03385560508321237 
0.1343048647659561 
-0.07540390677861245 
0 
0.009942258291451095 
0 
0 
-0.000916224012027701 
0 
-4.336808689942018e-019 
-0.02184983748568265 
0.1000851852395518 
0 
-0.0009162240120277003 
0.02565772950217168 
0.03556515028476561 
0.07682108447363854 
-0.1525732483265224 
0.004180277469137112 
0.05614492747791968 
0.04117875650383482 
-0.1949200909789956 
0 
-0.06608790543607966 
-0.07084271521668203 
0.05148313966848584 
0.5060258888487249 
-0.0909068257032938 
-0.2334744177088982 
0.1202407110095132 
0.08407968920330095 
0.09949842617909269 
-0.1011117699293421 
2.42861286636753e-017 
0.06472237897883053 
-0.1109882263499732 
-0.06659860561645953 
0.2169201538441616 
-0.1951620652735054 
-0.01032919509018124 
-0.09354688255834912 
-0.2025340382414402 
-0.04737230813928862 
-0.09916230991094129 
-0.09423280801927567 
-0.02947860516210588 
0.00292140662545721 
0.04237170188752502 
0.003296762147436302 
0.008360094952666109 
0.07060520423728173 
-0.1562337296054415 
0.04356487890451799 
0 
0.06477468605487882 
-0.03426919116252981 
0.1424323199358295 
0.1271739331072469 
-0.0111209912658849 
-0.3484222327022551 
0.0005343888936417944 
-5.55653613398821e-019 
0.02416500457055341 
0.1051232610773313 
-0.4760881999025515 
-0.04136195259172193 
-0.1473884692859978 
0 
0.0005915632612802821 
-0.02966045406982849 
1.734723475976807e-018 
-0.04158056052872806 
-0.01040706555879902 
0.0816996681128917 
-0.05470714249236983 
-0.1078533507802802 
0.0003702151171002033 
0 
0.01477678103560471 
-0.51209727298923 
0 
-1.084202172485504e-019 
0 
0.0002483347357987946 
-0.01527780819904759 
-0.04595210464007601 
-0.03386836468996911 
-0.1195628787528338 
0.09150143388747788 
0.03138722224177164 
0.02360627253622698 
-0.05502453027237983 
0.03199577805505864 
0.005835228395687521 
0.5322380509627608 
-0.08966998667215048 
0.07714047194421782 
-0.1475833976700519 
0.08191178795120326 
0 
-0.05737699448170387 
0.04692477729186784 
-0.1149448264015381 
-0.101433465487384 
-0.01292167737528768 
0.1674909939532142 
-0.1797507507753364 
0.1396917311421973 
0.04743209705782035 
-0.09798055971643274 
-0.01067411546583014 
-0.03622462434262416 
0.04498552425314969 
-0.06117366817052868 
-0.04222010114465506 
-0.02596747617718862 
-0.2073006853390435 
-0.06605792596116274 
0.2482082581023829 
-0.2067398128553806 
0.0276649567528809 
0.009942258291451081 
-0.01049336710347938 
0.007130195454571604 
0.09120117855216696 
0.174628104352781 
0 
0.02096697394913056 
-0.0774674098354988 
-0.3640379976433511 
0 
0 
0 
-0.003575209589226024 
-0.01809466968670467 
-0.111734113628283 
0.01978170256108718 
7.752045533271357e-018 
0.04368808176843161 
-8.673617379884036e-019 
0 
0.0006610220699655811 
-7.632455516979209e-005 
-0.01617674750997353 
0.00530745943685057 
0 
-0.01932328424785297 
0.1335111332553272 
0.01256694719050826 
-0.02119868045462682 
0.0826981989402685 
0 
-0.3379224571048518 
-0.009804596543491476 
0.003576916740341791 
0.000835838252550433 
0.009552413843994658 
0 
0.05974067678957334 
0.002269639118213736 
-0.1158136811446119 
-0.01566345052680092 
-0.1020043645856096 
0.4060511010723721 
-0.1011940705470954 
-0.0687410323888361 
0.0097412749939152 
0.07996564356809134 
-0.2236346900175638 
0.1537240169084622 
-0.2364771006727433 
0.007384683911010531 
0.1121985300377406 
-0.01163837499165031 
-0.03066360500427881 
-0.05423464759125501 
0.1063436138960252 
0.01020648676530355 
0.1850205634679339 
-0.03383313027860256 
-0.001875651154643481 
0.03593806183264895 
-0.1472191368544058 
-0.0003816227758485649 
0.02378001907451733 
-0.1660808130968254 
0.04447217610848977 
0.007566366324784868 
0.05336694736350515 
-0.04233095747612659 
0.07139765560593639 
-0.2262117346361697 
-0.06593937259914733 
-0.144864526305319 
-0.1076819160280726 
0.7602424445725259 
-0.05154358834978125 
0.01931459956605669 
0.03144372938024389 
0.00455509573033154 
0 
-0.1730778412123982 
-5.201092637974745e-005 
0.02796896793080816 
-0.004027359625730811 
0.01186299561067926 
0 
0 
0.153843345793715 
-0.1174182467819614 
-0.06593937259914734 
0 
0.006176237387730305 
0.007690322396643658 
0.009484035827660869 
-0.00858487386407528 
0.02991212411914642 
-0.005105709729584031 
-0.03976159655983359 
-0.1250101630888167 
-0.07841943682068925 
0.1854155477023168 
0 
0.1282863163453505 
0.01946481439541769 
0.03062450589707349 
0 
0.00396911906370333 
-0.0123663851103222 
0.05716214853854418 
0.01168473017031078 
0.0202755078087435 
-0.1827028108706708 
0.08287702450654132 
0.004737079689017055 
1.857012217117608e-005 
-0.05584406026998275 
-0.04302308777259748 
-0.03687987818535705 
0 
0.04536499120990101 
5.421010862427522e-020 
0.1013193189924754 
-0.0137418636508372 
0.09803261029174094 
-0.09021626555058587 
0.0006610220699655807 
-0.4055320555406781 
-0.05150800985993072 
0.07183837607398176 
-0.121684640939357 
0.02646939067564886 
0.004515091183537054 
0.03612117282369431 
0.2124524787332614 
0.1244963644535051 
0.1030654150285107 
-0.1026982009320316 
0.06162200123034089 
0.0779716861275766 
-0.01804121489918239 
-0.02211298146242879 
0.230274778441351 
-0.3631047756379617 
-0.243172379157066 
0.03620497249193096 
3.873602959497535e-005 
0.0001335972234105492 
0.1516312366803987 
0.002393800349736607 
-0.2655246687986496 
0.04394972219138667 
0.003408830123540527 
-7.677803417947243e-005 
0.04448431016860957 
0.03818865008083472 
-0.01872472375794778 
0.003110664990334065 
0.00974138930048543 
0.0366691555869437 
-0.01230392764454693 
0.01583560011500695 
-0.01805800480881264 
-0.02227061754227698 
0 
0 
0 
0.04723819066710178 
0.0212886578927041 
0.03838021915776094 
-0.04243154088675822 
0.02810653963823051 
-4.87890977618477e-019 
0.001643704762742984 
8.673617379884036e-019 
0 
0.6939951183485508 
0.03534803923195031 
-0.009099851836745172 
-0.2482747602064087 
0 
-0.01441204125181441 
-5.448763715963865e-005 
0.02514725141826767 
-1.084202172485504e-018 
-0.003700404283192498 
-0.0104933671034794 
-0.0009162240120277003 
-2.168404344971009e-019 
0.1267556556343298 
0.0006610220699655811 
0 
-0.01237145579741475 
0.0001335972234105489 
0 
0 
0 
-0.004581120060145234 
-6.93479018395956e-005 
0.01152225598242812 
-0.01037569211657355 
-0.03236629312389996 
0.03045987125114395 
0.1614117064463206 
0.07111915641907332 
0.1041244415316316 
-0.2126644821128407 
-0.01772614033381787 
0.3881109012247622 
0.06953773515749814 
-0.074161805159644 
-0.03277454789593477 
-0.02862306800400593 
-0.1309199351284926 
0.03924806501395903 
-0.02748995479318952 
-0.06321339728178858 
0.07561037134833956 
0.06740423349673516 
-0.03935267549975613 
0.05584935737666678 
-0.2486406250879838 
0.0421132169731694 
-0.06646527959704578 
-0.06486870052863263 
-0.1068892533401991 
0 
0.05385113318490474 
-0.04883514886222844 
0.1559333295842176 
0.2332674189201075 
0.07306489195519172 
-0.03684565610328183 
0.121940469795138 
0.05777141608656024 
0.461211024433398 
-0.06422163964651553 
0.1708294675286788 
0.04834080918926299 
0.4573267839625504 
0.0002671944468219006 
0.009928957902605045 
0.0281095411697629 
0.02050860808572028 
-0.07063296200956523 
-0.007847463257833505 
0.01974223529179167 
0.01978666123529301 
0 
0.02401470285901657 
0.1199983324100884 
0.001680184859625241 
0.07150101408543065 
0.004771912993090147 
0 
-0.06951458218837339 
0.0323769615403075 
0.04948696180309811 
-0.04081831009379325 
0.003575867577317077 
0.008237924997601856 
0.0847139678247123 
-1.843143693225358e-018 
0 
-0.04526125522370213 
0 
0.001098920715811633 
-0.07666583307006493 
0.04180047476333056 
0.2537811323362216 
0.1303276143152815 
-6.93479018395956e-005 
-4.953421559965294e-005 
0 
-0.1930383715961377 
0.04133843092090887 
0.0792161546716241 
0 
-1.084202172485504e-018 
0.09728490123724891 
-0.06738328453613759 
0 
0.1266051350144695 
-0.07201239517577879 
0.0008742242645685126 
-6.93479018395956e-005 
0 
-0.000916224012027701 
0 
-0.04592715250863665 
0.1665927078069261 
-0.0009162240120277003 
0 
0.02326176213437885 
-0.1651530893519196 
0.1460018615905956 
-0.1069811078299661 
-0.01761673474211055 
-0.221142506195665 
-0.2066777674569586 
0.1671702617126404 
-0.01702476707947947 
-0.02593016777031844 
-0.3373473128330043 
-0.1979982939564366 
0.1920982954750183 
-0.1067267496637241 
0.004244828495025928 
0.04007640193618139 
-0.04560319295570452 
0.2512480226067215 
0.08449484072568496 
-0.04022624518100539 
0.01882884870813571 
-1.626303258728257e-018 
0.000267194446821901 
0.001464504040998336 
-0.2925474021617676 
0.05558145803912087 
-0.1287590809014226 
-0.00874572093037795 
0.05204314906117764 
0.01745103490024336 
0.1332245624743166 
-0.03464641708793544 
-0.007086386909271172 
-0.01579513940552238 
-0.03416671486626817 
-0.652740691826057 
-0.008146880502468942 
-0.02276752947061506 
-0.06028311815027564 
0.005146508445210898 
2.168404344971009e-019 
-0.09423860186895319 
0.003897688728521635 
-0.003575209589226024 
0 
-0.01111560026708727 
0.003845161198321829 
0.03297338806301488 
-2.168404344971009e-019 
0.12795465921917 
0 
0 
-0.04036516646084098 
0.2283977744616745 
0.006891560050255251 
0.1325953882961189 
0.01582054512754981 
0.0001335972234105488 
0.1610994655126994 
-0.0721316366523883 
0.005413179525683862 
-0.003050647174398816 
0.02296625021800809 
0.04554719526601836 
0 
-0.141173207388751 
0 
-0.3364308068620192 
-2.710505431213761e-020 
0.1249006344079115 
-2.38524477946811e-018 
0 
-0.002448730383366182 
-0.0009162240120276997 
0 
-0.0002525715442032505 
-0.2383184982144181 
0.04279703924829006 
0.01764356394296551 
-0.001713369950381643 
-0.1369148152131451 
-0.2039067619658587 
-0.01833352802407592 
-0.05190274686706712 
0.2153070087839523 
0.008759967344070094 
-0.1826070274902251 
0.144708415780576 
-0.4687942305320823 
0.03396652914871585 
-2.168404344971009e-019 
-0.05110710593036826 
-0.03745450207915103 
0.2853528277563833 
-0.02724584741557777 
-0.07440512753432124 
-0.09905456090966379 
0.4990848894264566 
0.01137935134807837 
-0.08993059706734106 
-0.06945577704555159 
-0.2000872246777128 
-0.6423285612696676 
0.05480702824966295 
0.008237924997601858 
-0.7986918469102414 
0.1017640608144995 
-0.1984278308780443 
-0.113816411078008 
0.1589599038186831 
0.01664850643318352 
-0.3919665887675162 
-0.04238763327296103 
-0.002764953453033099 
0 
0.05774071233798679 
0.06472845606412221 
0 
0.03820939188500985 
-0.02645927023761661 
0.05144255324905939 
0.04235698857695384 
-0.0002277901372033742 
-5.421010862427522e-019 
-1.734723475976807e-018 
0 
0.02336946034062152 
0.04984057297051316 
0.04615342134255782 
-0.1356056587878266 
-0.02648648641746748 
-0.03176529491032998 
0 
0.04037966900454972 
0 
-0.01532825242439394 
-0.02274207722689574 
0 
-0.008625956235024801 
0 
-0.02410079211557215 
0.04223183298857464 
-0.05808771661836309 
-0.04075514832709078 
0.09191954408734317 
0.01152225598242812 
-4.336808689942018e-019 
0.01170822353544136 
0 
0.0002483347357987944 
5.421010862427522e-020 
0.2213568753616555 
0 
0.001983066209896742 
0 
-2.168404344971009e-019 
0.1091861696579502 
-0.006101294348779581 
-0.1059934022732991 
0 
0.0006610220699655813 
-0.004346356758506931 
0.0006610220699655816 
0.2242284565611681 
-0.02297723003732108 
-1.734723475976807e-017 
0.0001851075585496993 
-0.0001964941541651317 
-0.03464875033873519 
-0.07456532883417211 
0 
0.02690100441779647 
-0.0009162240120277003 
-0.000916224012027701 
-0.09895340177376726 
0.005146508445210898 
-0.1617128970003906 
0.00741922343270048 
-0.0274034195332118 
-0.01401967036497282 
-0.2234125859488965 
-0.0238119136093226 
-0.04175173099443904 
0.1295646682488544 
-0.04335882432890317 
-4.336808689942018e-019 
0.035176211642822 
-0.03448167181917199 
-0.03208869967675202 
0.09271813180983897 
-0.05063302784989196 
0.2166933258467262 
0.05741848402967874 
0.04875903734599055 
0.1174992093937512 
0.240411869985373 
-0.0008140198138917008 
-0.3840709937504239 
-0.05323617561682095 
0.06262338148928381 
0.2639398900999447 
-0.1848401334526807 
-0.008813686445130392 
0.004555382785404597 
-0.03410836331507407 
0.1238139165849346 
-8.673617379884036e-019 
0.5497456863658984 
0.02271122000218699 
-0.1163961592172888 
-0.02587331856166007 
0.1111417585539431 
0.02126197887250383 
0.0001335972234105489 
-0.009550261866145776 
0.02132288223043796 
-0.01032785947821524 
0 
-0.2025175847825663 
0.03646641833462368 
0.1669333083620214 
0.3222982377197888 
0 
0.03696406691172604 
0 
-0.1048166870189528 
0 
-0.5674333905738928 
-0.01760741670667989 
0 
0.2985751997867635 
0 
-0.0348474646311771 
-0.1116447286529046 
-0.05866385764975043 
0 
-0.06262913448255067 
0 
-0.001701903243190439 
8.673617379884036e-019 
0.08724850863799462 
0.01931459956605669 
0 
0.3047567408237179 
-0.1131738809516586 
0.03723863203450395 
0.1690183909547241 
0 
0.05870312874327924 
-0.1661655043353657 
0 
-0.003585896561597353 
-0.006807612972768108 
0 
-0.06495506091332806 
0.1911651132818088 
-0.002527015949994206 
-0.3817134819900911 
0.04960352058758303 
0.01909432504041736 
0 
0 
0 
-0.02274207722689575 
0.06227024314052101 
3.794707603699266e-019 
-0.03975761741822949 
-0.0002289736655096134 
0 
0 
-0.05150213916287137 
-0.08923866078406906 
-0.1449132190354464 
0.01206225400123129 
-0.2230270474196421 
0.04001088484829363 
-0.06260447299403724 
0.1435337372094019 
0.05165673267003098 
0.08360371037572867 
-0.1226338374059115 
0.06629691619341041 
-0.03736683388769557 
0.005937404117297938 
0.004144483014057206 
-0.07653878824974326 
0.2109501742841948 
-0.1489755797474718 
-0.07753675553525324 
-0.114249067072381 
0.06059313165503654 
0.01010737957826877 
-0.4018377550147004 
0.1273102772202736 
0.02716300205374094 
-0.1032679180479527 
0.04653593861929301 
-0.1628000315009326 
0.129901756996327 
-0.2688337099139926 
0.02748095496731225 
0.006360130937806066 
-0.1006460590899495 
0.01278454779170025 
0.01881982783296038 
-0.1357362819114004 
0.004501555014901047 
-0.003267755532359082 
-0.06461165060610863 
0.005276933264458173 
0.05953947025800607 
0.02728830548418731 
0.0002671944468219003 
-0.009985578854389807 
-0.04716667858540605 
0.00161433428196851 
-0.01169149637050838 
-0.07710087237316775 
0.2966606324484499 
0.05921624449423397 
-0.0009162240120277021 
-0.0182911638408698 
0 
-0.01072562876767808 
-0.03534361514764321 
0.00709220670886405 
-0.004012514123897084 
0 
-0.0547958837329342 
-0.002669672549569655 
-0.007773708975434642 
0.01672018990533222 
0 
-0.007087413074160989 
0.3078541061190777 
0.04208745850974111 
-0.0486866775242583 
0.02897522855778408 
0.0323769615403075 
-0.09727365659895997 
0.02021206743912817 
-0.5579595451125221 
0.07445135796303133 
0 
0 
-0.1526773158851709 
0.0003702151171002033 
-0.01072562876767808 
-0.06326602718006678 
0.3608109997713573 
-0.05866385764975045 
0 
0.02401470285901656 
5.692061405548898e-019 
-0.1005135278827648 
-0.002448730383366184 
-0.02274207722689575 
-0.05673273944339016 
-0.0009162240120277001 
0.07015045021893115 
-0.05626971511541054 
0 
0.002271152797975118 
0 
-1.084202172485504e-019 
-0.1618276680647172 
0 
0.01008443345127786 
-0.03682002902444872 
0.05172930857750485 
0 
-0.008429868804993263 
0 
0 
-0.04586750582902977 
-0.0003127283530194426 
0 
0.02112550244189746 
0.007130195454571601 
-2.059984127722458e-018 
0.05105690091591753 
0 
0.1572273221117836 
-0.009497213991502938 
-0.1002503575741839 
-0.03131784061877029 
0.2204377172746642 
0.224502231907449 
-0.02095052694968366 
-0.2368379344027403 
-0.1746399308650569 
0.06173073779128507 
-0.07351542666006419 
-0.03125810973379383 
0.2689001488735272 
-0.008554773190936608 
-0.01755913654107559 
0.068367359077356 
-0.03192804825979029 
0.0825391736691674 
0.05234643741534998 
0.03965689128098961 
0.05781966733149706 
0.04607709678738801 
0.04413656153583209 
0.2724544393225594 
-0.1049879762678855 
0.2417766342479935 
-0.06395164865751196 
0.003874356293252129 
-0.06062244326565713 
0.0374581372031089 
0.2194291368404273 
-0.04079617186317541 
-0.009133398384635828 
0.163827535399299 
0.08101570440353495 
0.1105755646092835 
0.2833450616850828 
0 
0.00455509573033154 
0.1776351422257117 
0.05082473423828948 
0.3504615952193661 
0.05848157022963361 
-0.2550580076069722 
-0.003633722119625688 
-0.07359451509693255 
-0.9972529595638962 
0 
-0.03236629312389998 
-0.1728720257220257 
-3.467395091969605e-005 
0 
0.02671433424892547 
0.05331512720966822 
0 
0.02657554758051166 
-0.005078825371566121 
-0.001825986559500344 
0.0001851075585497001 
-0.2687122032165355 
0 
0.000267194446821901 
0.0281095411697629 
-0.01673273080708591 
-0.02426388038294152 
0.102072213617927 
0.0965050692427596 
0 
0 
-0.06028311815027564 
0.08357878504644178 
0 
0.01043836443900026 
0 
-0.001185160446379377 
-0.1335438985656411 
0.03572207157332776 
0.05676825366368661 
0.06227024314052101 
0 
-0.009556647671816729 
0.04527110746508519 
-1.626303258728257e-019 
-0.09918789954079728 
-0.01334218475001311 
-4.336808689942018e-019 
-0.008584873864075283 
-0.2028709240077446 
-0.003565998695581552 
0 
-0.01637464574238588 
0.04615342134255782 
-0.05278661794465598 
-0.05019628285485617 
-0.009355761574102159 
-0.03951109875403053 
0.04352798993415893 
-0.01605362424913251 
0.005483761863907548 
0.5166175615895454 
-0.06595231179688489 
0.09677307025854595 
0.03043854066188245 
-0.05375495720122589 
0.02705818663404393 
0.1795077442454196 
-0.003637462605100501 
-3.469446951953614e-018 
0.02692455261528222 
-0.01391816777479489 
-0.031664184519646 
-0.04904889370847698 
0.1006452013595333 
0.0917747109988777 
0.143526768631767 
-0.05807072527181226 
0.1153355641307777 
0.6680622926135161 
0.1229127633975496 
-0.08332118622411741 
-0.06517235196356963 
-0.1696523667978065 
0.01179563262482007 
-0.07294379489897392 
-0.02683054587384929 
0 
0.2535620145232087 
0.08953945684905698 
0.1544002515143204 
0.2233023530296058 
-0.08748512461115518 
-0.1175152542289 
0.05703512268719131 
0.02699159253620307 
0.02906818413564183 
0.1408132374193876 
-0.06615579916673479 
0.1652325270921157 
0.06121728089309282 
0.0001335972234105526 
-0.0405696583295993 
-0.03861218214568521 
0.001096444005031643 
0.0186203544858506 
-0.003654146138409187 
-0.008012270877598943 
2.846030702774449e-019 
0.0847229669782672 
0.03146714941692017 
-0.1148570184538271 
-0.1191535451592959 
-0.003596365417332935 
-0.01241498697756087 
0.0212886578927041 
0.08327588589865002 
-3.469446951953614e-018 
0 
0.3699302962068768 
0.100480614433596 
-0.01911932333850419 
5.421010862427522e-020 
-0.04061596000354688 
0 
0.003023464463945257 
0.4637235520588678 
0 
0.03696406691172604 
-0.3064057051786634 
-0.0173793262559377 
0.02422188865893133 
0.03572859021322822 
-0.008625956235024801 
4.472333961502706e-019 
0.03016978258960188 
0.01589079210870625 
0 
0.05166605255131666 
-0.05123189768979938 
0.008233976747306847 
-0.04081831009379324 
-0.1086738730280544 
6.776263578034403e-020 
0 
-0.03426398804303268 
0.04257731578540818 
0.1183521162414854 
0.05015237085412112 
0.01170822353544136 
0 
-4.336808689942018e-019 
-3.903127820947816e-018 
0 
0.007359752482730468 
0.02575201598474654 
0 
0 
0 
0.07212637042187686 
-0.008146880502468942 
0.001798242982976692 
0 
0 
6.776263578034403e-020 
0.007130195454571601 
-0.02933603835849368 
0.04740016964402463 
0.03192351233282105 
0 
-1.626303258728257e-019 
0.0478298106467174 
0 
-0.2155316313005334 
-7.632455516979204e-005 
0.0272883054841873 
-0.09106705821461848 
0.03216201719328625 
0.3220833613833062 
0 
-0.2319277131907465 
0.02421117553125233 
0.1839844111590444 
0.2041952434593997 
0.08878069762735388 
0.06660549127680809 
0.02225279298987485 
0.01219026963291446 
-0.02533202736815299 
-0.03063078142488478 
0.2464983336963594 
-0.0287446266607581 
-0.001164964489534763 
-0.3402216738319809 
-0.03146650525971081 
-0.1171395831420379 
-0.09050896424510735 
0.1274932242569397 
-0.1717904242787346 
0.04480900689244498 
0.1014947361828961 
-0.02529050067880606 
-0.07289613530360944 
0.03282581491536959 
0.1796507896262226 
-0.1216747921858591 
-0.1204897539840153 
-0.08438508433199123 
0.05249573478609539 
0.005005026787177632 
1.084202172485504e-019 
-0.04854501285425067 
-0.03805679653592074 
0 
-0.097178064457074 
0.1983792364685408 
0.06587866069080828 
0.101182519759949 
-0.0471345435278475 
0.03448366814392224 
-0.2534526826812383 
0.06771049169792967 
0.209949706327436 
0.03528415067462249 
0.08845678437115319 
-0.09623105512279714 
0.01989434882317598 
0.006038208951686757 
0.01131710550597185 
-0.1432329464216038 
-0.0002737742956420255 
-0.09114546717781484 
0.1306385613286305 
0.03696406691172604 
-0.000916224012027701 
-0.080774728983508 
-0.3271961140556067 
0.01518659804636737 
0.01697961426423802 
0.005245345587434682 
0.1163313448506595 
0.03175295250959317 
-3.252606517456513e-019 
0 
0.01152225598242812 
0.07659962007267392 
0 
0 
-0.2052521552554421 
0.01198051180095092 
0.001680184859625241 
0.01096812980212183 
-0.04837184846200689 
0 
-0.009595911786978398 
0.02338202290748083 
0 
0.02798067479760321 
6.776263578034403e-020 
-3.715066169979069e-005 
-0.06593937259914734 
-4.675621868843738e-019 
-0.003987646558490186 
0 
-0.06196673148705742 
0.2898639941030625 
0.02239338129275338 
-0.03541811356481114 
-0.06574997446005051 
-0.001266172030915402 
0.2073488145717635 
-0.06697274678469731 
0.001284714659001832 
-0.01809466968670467 
0.004737079689017056 
0.0004523020053716003 
-0.02768803803516259 
-0.007592125554293494 
0.06839606954960632 
0.01531992401455719 
0 
0.1107021543201491 
-0.04956211089932003 
-0.003050647174398817 
-0.00961699427105845 
-0.008958640405042429 
-0.1604856869679593 
0.01207418145884338 
0.006262033117600633 
-0.02399043804878982 
0.01882351455526957 
-0.2279850626130004 
0.01097990759755986 
0.1489458449315095 
0.005350467677649962 
0.07058556498128678 
-0.003575209589226026 
0 
0.006978007074108481 
3.794707603699266e-019 
-0.03200160137451178 
0.02687238437484456 
0.05159554880785351 
0 
-0.01866027542840768 
-0.2168949866819875 
0 
0.04806360080942813 
0.07083224542457597 
0.07030074257979595 
-0.02412965844307595 
-0.03783040582567902 
0.006978007074108482 
-0.1180477407567959 
-0.05031924830386238 
0.01464015279008209 
0.007872038042358771 
-0.009521394764852177 
0 
0.1426261062941192 
-0.01206320313802886 
0.2088835055742973 
-0.0250285140409873 
0.007382208411274361 
0.1694996299647614 
0.003634899391233694 
0.07238641786655613 
-0.04478370075932064 
0.009780558379421746 
0.001836262785342065 
-0.04960067196790816 
-0.03731513743920045 
0.0142603909091432 
0.0345995118684763 
-0.009212665404953533 
-0.07383548046476124 
0.1436410962290498 
-0.1227032432114551 
-0.07773192515920252 
-0.1538865342502446 
0.07485177596155716 
0.01001576678675594 
0.03388776920006154 
0.1265205464938374 
-0.02834556946314298 
0.152918475204653 
0.1040448530518159 
0.0001335972234105489 
0.01823891680958589 
-0.05724126108247896 
0.03489003537054241 
-0.0003505803961544291 
-0.1315528085039925 
-0.02326902446263919 
0.1434218971866215 
0.08466079392388203 
0.004742017913820343 
-0.0465658498477577 
-0.0342126211611354 
0.08679876644887996 
0.05500831675505384 
-0.05498275868192634 
0.001030979837257513 
0 
-0.008958640405042429 
-0.1173277152998353 
-0.04199505945656311 
-0.01725191247007049 
-0.03618933937340933 
0.103008063938756 
-0.001657716041022532 
-0.007908253397515268 
0 
0 
0 
0 
-0.0004555802744060879 
0.006783657407792545 
0.3393349991495652 
0.06331419662001117 
0 
0.007275158103547522 
0.3951232842864976 
0 
0.04407511750514156 
0.01126711411206413 
-0.2451245641429308 
0.09928333383562159 
0 
0 
0.01598094608452278 
0.3311778215956676 
0 
0.01366393234472669 
0 
-0.04289512525510874 
0.1173741455471297 
0 
0.141824887610658 
0.1268334234878522 
-0.02241797010371339 
2.168404344971009e-019 
0.08614612707975966 
0.06263018663395741 
0.004371121322858308 
-0.003315432082041683 
-0.01532825242439395 
0 
-0.02933603835849367 
0.001798242982976692 
-0.003178610680548607 
0.003966132419793485 
-0.04315043925844132 
0.001994716870265686 
-0.2580332252357035 
0 
0.09690920486764627 
-0.07582317393696719 
0.05761237059662604 
0.009992390353518042 
0.04075288814156577 
0 
-0.0232690244626392 
-0.1056169552323219 
0.06690323261620799 
0.04302705969846604 
0.001151117435591287 
4.336808689942018e-019 
-0.03637123580859558 
0.02405167925507375 
-0.1106045396270907 
-0.04958060577155658 
-2.439454888092385e-019 
0.09905123250849603 
-0.01561098139576368 
0.005146508445210898 
0.3137831933723367 
0 
0.02292818665719286 
0.01560302479680772 
0 
8.673617379884036e-019 
0 
-0.05478782627536181 
8.673617379884036e-018 
-0.008025028247794167 
-0.05184231685834121 
-0.3488831023607312 
-0.06128114103573271 
0.1414008654411845 
0.04023767295193002 
0.0207935266120975 
0.07032732446422531 
0.143013993903599 
0.1599716628304206 
-0.1005585225667693 
0.07915316747384972 
0.1265205464938374 
-0.07337664453188188 
-0.07116082916823892 
-0.02318014487972963 
0.09354334666138699 
-0.1613783404946289 
0 
0.0413810116841499 
0.04467319576353716 
-0.01076750509755475 
-0.01347235262856766 
0.02219289250611036 
0.1025674296112853 
-0.06115206118689866 
0.001151117435591284 
0.02269210980211927 
-0.09030985605000401 
0.1153835533560022 
0.07382654888361205 
-0.07451723073645152 
-0.01158969358388466 
-0.05676785126289593 
0.1616064792770315 
-0.0744818686632532 
-0.004601797363540864 
0.008568429822226548 
0.002314004062094147 
-0.02135453022070145 
-1.734723475976807e-018 
0 
-0.1272538431294052 
0.06005934609192148 
0.09062398356760937 
-0.080585826711778 
0.04646516173159949 
0.07541416067321601 
0.417380767231332 
0 
0.06078486503554989 
-0.02872728968529822 
0.08677442956620138 
-0.1452757949167232 
-0.07883090923464038 
-0.02752599307026996 
-0.2017457300435797 
-0.008009017648699794 
0.07456498924896181 
0.05897886728393393 
0.01537877041122678 
0.1339531210052806 
0.09445412130437668 
-0.008257217559382227 
0.02825405171834176 
0.03222749452032734 
-0.1173231895983088 
0.1084722612300695 
-0.1300269145300286 
-0.4091533725706168 
0.1321856547608273 
-0.05693118477101768 
-0.3357235935233108 
-0.03880714539447328 
0.03274769530658375 
0.01679001283027778 
-0.02274207722689575 
-0.2118769670154663 
0.0006610220699655811 
0 
-7.632455516979209e-005 
0.08287702450654132 
0.03982155807729805 
-0.0004266019240484006 
0.03572207157332776 
0.01917295775652854 
-0.06359604136391349 
0 
0.1305608855918162 
0.0001851075585497001 
0.3605282237862216 
0.1318416361162018 
-0.01184238152560243 
-0.2579256765407549 
-0.0008395701068670006 
-2.331034670843835e-018 
0.04676404581496167 
0 
-2.476710779992534e-006 
0.03232586733579172 
-0.2135515307287308 
0.03841895518735591 
0.05407645063651526 
0 
1.084202172485504e-019 
0.01951724909230839 
0.002302234871176123 
-0.01532825242439394 
5.421010862427522e-020 
0.005549502144406603 
-0.1067096178780215 
0 
0.0004523020053716003 
0.05399760734249695 
-0.3696479633105698 
-2.168404344971009e-018 
-0.001825986559500344 
1.897353801849633e-019 
0.02008658837049464 
-7.632455516979258e-005 
0.07263610885134199 
0.05287841582043352 
-0.03433949545621604 
-0.003575209589226025 
0.06944575574645205 
0.02256669536483153 
0.2573596745607139 
0 
0.2217107438733251 
-0.009355761574102159 
-0.02568679524099816 
0.09592219668049284 
-0.003651534144395816 
0 
0.07098968607269976 
-0.01486371736092706 
0.05331211509473919 
-0.01662171074819711 
0 
0 
0 
0.05383837298684225 
0.02401470285901656 
-2.439454888092385e-019 
-0.000916224012027701 
-0.02144680121489381 
0 
0 
-0.01364998740172874 
0 
-0.001185160446379378 
0 
0.001816813105147868 
-4.336808689942018e-019 
0 
0.2867491604284921 
-0.0180577237005087 
-1.083244169856581 
0.04597822281604636 
0.1259339153710941 
-0.02100324975830882 
-0.06268243623064866 
0.01313875578014717 
0.1401386438447494 
-0.03723735390589342 
-0.004371183843653556 
-0.04705629526347949 
0.04993908719455971 
0.02401470285901657 
-0.05313696081637342 
-0.02939717877024889 
-0.01120397733706529 
-0.3936319309485507 
0.1370034341015005 
-0.1074405150284797 
-0.1594017512272188 
0.0421649563948946 
0.2083845162294321 
-0.2483277309733405 
-0.1224396486645211 
-0.2838497775691 
0.2311287265102304 
0.02450205760892025 
-0.09139113927492337 
-0.05806364398311387 
0.05348661276586265 
-0.01637501785579795 
0.03838021915776094 
0.02096942250023519 
0 
-0.06196673148705741 
0.0942737214475388 
-0.01825762362103029 
-0.02481666534714471 
0.1404055141995964 
0.1159342617931114 
-0.1570619583827877 
0.3789655107522675 
-0.2906962158498695 
0.008586702750970341 
-0.009188095833464836 
0.01290443890235008 
-0.2153617787712884 
0.2724650775803105 
8.023096076392733e-018 
-0.0007084763109390265 
-0.008628432945804792 
-0.03152350397167329 
-4.336808689942018e-019 
-8.809142651444724e-020 
-0.06443467978760716 
0.05124941526717218 
0.3275221584324521 
0.07745914732624584 
1.857012217117622e-005 
0.05393426040996708 
-0.004904532457050001 
